=== Run information ===

Scheme:       weka.classifiers.trees.REPTree -M 2 -V 0.001 -N 3 -S 1 -L -1 -I 0.0
Relation:     2009new-weka.filters.unsupervised.attribute.Remove-R3-4,6-7,10,12-13,15-16,18,21,23,25,28,30-31,34
Instances:    242189
Attributes:   18
              ID
              ?Accident_Index
              Longitude
              Number_of_Vehicles
              Number_of_Casualties
              Month
              Time
              1st_Road_Class
              Road_Type
              Speed_limit
              Junction_Control
              2nd_Road_Number
              Pedestrian_Crossing-Physical_Facilities
              Light_Conditions
              Road_Surface_Conditions
              Urban_or_Rural_Area
              Did_Police_Officer_Attend_Scene_of_Accident
              Accident_Severity
Test mode:    10-fold cross-validation

=== Classifier model (full training set) ===


REPTree
============

ID < 797626.14
|   Junction_Control < 4
|   |   Junction_Control < 2
|   |   |   Urban_or_Rural_Area < 1
|   |   |   |   ?Accident_Index < 100343
|   |   |   |   |   Junction_Control < 2
|   |   |   |   |   |   Junction_Control < -1
|   |   |   |   |   |   |   Number_of_Vehicles < 1.01
|   |   |   |   |   |   |   |   Speed_limit < 30.37
|   |   |   |   |   |   |   |   |   Light_Conditions < 1.04 : Serious (190/6) [81/1]
|   |   |   |   |   |   |   |   |   Light_Conditions >= 1.04
|   |   |   |   |   |   |   |   |   |   Light_Conditions < 3.86 : Fatal (29/0) [12/0]
|   |   |   |   |   |   |   |   |   |   Light_Conditions >= 3.86
|   |   |   |   |   |   |   |   |   |   |   Road_Type < 5.38
|   |   |   |   |   |   |   |   |   |   |   |   1st_Road_Class < 3 : Serious (28/4) [10/2]
|   |   |   |   |   |   |   |   |   |   |   |   1st_Road_Class >= 3 : Fatal (8/0) [3/0]
|   |   |   |   |   |   |   |   |   |   |   Road_Type >= 5.38 : Serious (75/2) [30/7]
|   |   |   |   |   |   |   |   Speed_limit >= 30.37
|   |   |   |   |   |   |   |   |   ID < 756754.61
|   |   |   |   |   |   |   |   |   |   Month < 5.71 : Fatal (16/0) [6/0]
|   |   |   |   |   |   |   |   |   |   Month >= 5.71
|   |   |   |   |   |   |   |   |   |   |   Number_of_Casualties < 1.04 : Serious (23/0) [10/1]
|   |   |   |   |   |   |   |   |   |   |   Number_of_Casualties >= 1.04
|   |   |   |   |   |   |   |   |   |   |   |   Number_of_Casualties < 1.95 : Fatal (10/0) [3/0]
|   |   |   |   |   |   |   |   |   |   |   |   Number_of_Casualties >= 1.95 : Serious (9/0) [3/0]
|   |   |   |   |   |   |   |   |   ID >= 756754.61 : Fatal (20/0) [11/0]
|   |   |   |   |   |   |   Number_of_Vehicles >= 1.01
|   |   |   |   |   |   |   |   Number_of_Vehicles < 2 : Fatal (97/0) [35/0]
|   |   |   |   |   |   |   |   Number_of_Vehicles >= 2
|   |   |   |   |   |   |   |   |   Number_of_Vehicles < 2.01
|   |   |   |   |   |   |   |   |   |   Time < 13.18
|   |   |   |   |   |   |   |   |   |   |   ID < 756583.5
|   |   |   |   |   |   |   |   |   |   |   |   ?Accident_Index < 100142.26
|   |   |   |   |   |   |   |   |   |   |   |   |   Longitude < -0.22 : Fatal (4/0) [2/0]
|   |   |   |   |   |   |   |   |   |   |   |   |   Longitude >= -0.22 : Serious (13/0) [7/0]
|   |   |   |   |   |   |   |   |   |   |   |   ?Accident_Index >= 100142.26 : Fatal (15/0) [10/0]
|   |   |   |   |   |   |   |   |   |   |   ID >= 756583.5 : Serious (25/0) [7/0]
|   |   |   |   |   |   |   |   |   |   Time >= 13.18 : Serious (76/0) [32/0]
|   |   |   |   |   |   |   |   |   Number_of_Vehicles >= 2.01
|   |   |   |   |   |   |   |   |   |   Number_of_Vehicles < 3 : Fatal (64/0) [29/0]
|   |   |   |   |   |   |   |   |   |   Number_of_Vehicles >= 3 : Serious (41/12) [22/7]
|   |   |   |   |   |   Junction_Control >= -1 : Fatal (914/0) [451/0]
|   |   |   |   |   Junction_Control >= 2
|   |   |   |   |   |   Longitude < -0.15 : Serious (114/2) [57/1]
|   |   |   |   |   |   Longitude >= -0.15
|   |   |   |   |   |   |   Light_Conditions < 4
|   |   |   |   |   |   |   |   Light_Conditions < 1.04
|   |   |   |   |   |   |   |   |   Longitude < -0.09
|   |   |   |   |   |   |   |   |   |   Time < 8.19 : Serious (28/0) [8/0]
|   |   |   |   |   |   |   |   |   |   Time >= 8.19
|   |   |   |   |   |   |   |   |   |   |   Time < 12.91
|   |   |   |   |   |   |   |   |   |   |   |   Number_of_Casualties < 1.85
|   |   |   |   |   |   |   |   |   |   |   |   |   Number_of_Vehicles < 2.5 : Fatal (59/0) [24/0]
|   |   |   |   |   |   |   |   |   |   |   |   |   Number_of_Vehicles >= 2.5 : Serious (2/0) [2/0]
|   |   |   |   |   |   |   |   |   |   |   |   Number_of_Casualties >= 1.85 : Serious (7/0) [5/0]
|   |   |   |   |   |   |   |   |   |   |   Time >= 12.91
|   |   |   |   |   |   |   |   |   |   |   |   Longitude < -0.15 : Fatal (3/0) [2/0]
|   |   |   |   |   |   |   |   |   |   |   |   Longitude >= -0.15
|   |   |   |   |   |   |   |   |   |   |   |   |   Road_Type < 4.52
|   |   |   |   |   |   |   |   |   |   |   |   |   |   ID < 748656.15 : Serious (2/0) [2/0]
|   |   |   |   |   |   |   |   |   |   |   |   |   |   ID >= 748656.15 : Fatal (4/0) [4/0]
|   |   |   |   |   |   |   |   |   |   |   |   |   Road_Type >= 4.52 : Serious (36/1) [13/0]
|   |   |   |   |   |   |   |   |   Longitude >= -0.09 : Serious (51/1) [28/2]
|   |   |   |   |   |   |   |   Light_Conditions >= 1.04 : Fatal (48/0) [24/0]
|   |   |   |   |   |   |   Light_Conditions >= 4
|   |   |   |   |   |   |   |   ID < 756280 : Serious (49/0) [19/0]
|   |   |   |   |   |   |   |   ID >= 756280
|   |   |   |   |   |   |   |   |   Longitude < -0.08
|   |   |   |   |   |   |   |   |   |   ID < 756564.5
|   |   |   |   |   |   |   |   |   |   |   Longitude < -0.13 : Serious (2/0) [2/0]
|   |   |   |   |   |   |   |   |   |   |   Longitude >= -0.13 : Fatal (7/0) [4/0]
|   |   |   |   |   |   |   |   |   |   ID >= 756564.5 : Serious (8/0) [4/0]
|   |   |   |   |   |   |   |   |   Longitude >= -0.08 : Serious (39/1) [11/1]
|   |   |   |   ?Accident_Index >= 100343
|   |   |   |   |   ?Accident_Index < 173904.47
|   |   |   |   |   |   ?Accident_Index < 100384.28
|   |   |   |   |   |   |   ?Accident_Index < 100367.32
|   |   |   |   |   |   |   |   Month < 10.93 : Fatal (3/0) [1/0]
|   |   |   |   |   |   |   |   Month >= 10.93 : Serious (38/2) [20/4]
|   |   |   |   |   |   |   ?Accident_Index >= 100367.32 : Fatal (6/0) [1/0]
|   |   |   |   |   |   ?Accident_Index >= 100384.28
|   |   |   |   |   |   |   ID < 763633.27
|   |   |   |   |   |   |   |   Road_Type < 5.43
|   |   |   |   |   |   |   |   |   Road_Type < 3.86 : Serious (439/0) [214/1]
|   |   |   |   |   |   |   |   |   Road_Type >= 3.86 : Fatal (2/0) [2/0]
|   |   |   |   |   |   |   |   Road_Type >= 5.43 : Serious (1873/0) [919/0]
|   |   |   |   |   |   |   ID >= 763633.27 : Fatal (2/0) [0/0]
|   |   |   |   |   ?Accident_Index >= 173904.47
|   |   |   |   |   |   Light_Conditions < 1
|   |   |   |   |   |   |   ID < 759653.3
|   |   |   |   |   |   |   |   Longitude < -0.15
|   |   |   |   |   |   |   |   |   Number_of_Casualties < 1
|   |   |   |   |   |   |   |   |   |   Junction_Control < -0.96 : Serious (20/6) [10/0]
|   |   |   |   |   |   |   |   |   |   Junction_Control >= -0.96 : Fatal (53/4) [30/0]
|   |   |   |   |   |   |   |   |   Number_of_Casualties >= 1 : Fatal (44/0) [17/0]
|   |   |   |   |   |   |   |   Longitude >= -0.15
|   |   |   |   |   |   |   |   |   ID < 751193
|   |   |   |   |   |   |   |   |   |   ?Accident_Index < 176800.14 : Fatal (5/0) [3/0]
|   |   |   |   |   |   |   |   |   |   ?Accident_Index >= 176800.14 : Serious (48/1) [25/0]
|   |   |   |   |   |   |   |   |   ID >= 751193 : Fatal (12/2) [6/2]
|   |   |   |   |   |   |   ID >= 759653.3
|   |   |   |   |   |   |   |   Junction_Control < -1
|   |   |   |   |   |   |   |   |   Number_of_Casualties < 1.02 : Serious (1169/13) [543/3]
|   |   |   |   |   |   |   |   |   Number_of_Casualties >= 1.02
|   |   |   |   |   |   |   |   |   |   Number_of_Casualties < 1.98 : Fatal (16/0) [7/0]
|   |   |   |   |   |   |   |   |   |   Number_of_Casualties >= 1.98
|   |   |   |   |   |   |   |   |   |   |   Time < 16.68 : Serious (164/5) [80/3]
|   |   |   |   |   |   |   |   |   |   |   Time >= 16.68
|   |   |   |   |   |   |   |   |   |   |   |   Longitude < -1.7
|   |   |   |   |   |   |   |   |   |   |   |   |   Speed_limit < 30.04
|   |   |   |   |   |   |   |   |   |   |   |   |   |   Time < 18.43 : Fatal (6/1) [8/3]
|   |   |   |   |   |   |   |   |   |   |   |   |   |   Time >= 18.43 : Serious (7/0) [6/1]
|   |   |   |   |   |   |   |   |   |   |   |   |   Speed_limit >= 30.04 : Fatal (10/0) [8/0]
|   |   |   |   |   |   |   |   |   |   |   |   Longitude >= -1.7 : Serious (19/0) [17/0]
|   |   |   |   |   |   |   |   Junction_Control >= -1
|   |   |   |   |   |   |   |   |   Junction_Control < -0.01 : Fatal (45/0) [21/0]
|   |   |   |   |   |   |   |   |   Junction_Control >= -0.01
|   |   |   |   |   |   |   |   |   |   ID < 778082.5
|   |   |   |   |   |   |   |   |   |   |   Junction_Control < 1.99
|   |   |   |   |   |   |   |   |   |   |   |   Junction_Control < 0.02
|   |   |   |   |   |   |   |   |   |   |   |   |   Pedestrian_Crossing-Physical_Facilities < 0.04
|   |   |   |   |   |   |   |   |   |   |   |   |   |   Month < 9.5 : Serious (136/2) [59/1]
|   |   |   |   |   |   |   |   |   |   |   |   |   |   Month >= 9.5
|   |   |   |   |   |   |   |   |   |   |   |   |   |   |   ?Accident_Index < 6021996.19 : Fatal (10/0) [4/0]
|   |   |   |   |   |   |   |   |   |   |   |   |   |   |   ?Accident_Index >= 6021996.19 : Serious (20/0) [12/0]
|   |   |   |   |   |   |   |   |   |   |   |   |   Pedestrian_Crossing-Physical_Facilities >= 0.04
|   |   |   |   |   |   |   |   |   |   |   |   |   |   Road_Surface_Conditions < 1.5
|   |   |   |   |   |   |   |   |   |   |   |   |   |   |   ?Accident_Index < 6014552.55 : Serious (7/1) [3/1]
|   |   |   |   |   |   |   |   |   |   |   |   |   |   |   ?Accident_Index >= 6014552.55 : Fatal (41/0) [17/0]
|   |   |   |   |   |   |   |   |   |   |   |   |   |   Road_Surface_Conditions >= 1.5 : Serious (9/0) [3/0]
|   |   |   |   |   |   |   |   |   |   |   |   Junction_Control >= 0.02
|   |   |   |   |   |   |   |   |   |   |   |   |   Month < 2.07
|   |   |   |   |   |   |   |   |   |   |   |   |   |   Number_of_Vehicles < 1.5 : Fatal (2/0) [2/0]
|   |   |   |   |   |   |   |   |   |   |   |   |   |   Number_of_Vehicles >= 1.5 : Serious (5/0) [5/2]
|   |   |   |   |   |   |   |   |   |   |   |   |   Month >= 2.07
|   |   |   |   |   |   |   |   |   |   |   |   |   |   Time < 8.92 : Serious (3/0) [1/0]
|   |   |   |   |   |   |   |   |   |   |   |   |   |   Time >= 8.92 : Fatal (84/0) [40/0]
|   |   |   |   |   |   |   |   |   |   |   Junction_Control >= 1.99
|   |   |   |   |   |   |   |   |   |   |   |   Month < 3.5
|   |   |   |   |   |   |   |   |   |   |   |   |   Number_of_Casualties < 1.01 : Serious (47/5) [27/1]
|   |   |   |   |   |   |   |   |   |   |   |   |   Number_of_Casualties >= 1.01
|   |   |   |   |   |   |   |   |   |   |   |   |   |   Month < 1.1 : Serious (7/0) [6/1]
|   |   |   |   |   |   |   |   |   |   |   |   |   |   Month >= 1.1
|   |   |   |   |   |   |   |   |   |   |   |   |   |   |   ?Accident_Index < 531320 : Fatal (23/0) [7/0]
|   |   |   |   |   |   |   |   |   |   |   |   |   |   |   ?Accident_Index >= 531320 : Serious (2/0) [6/0]
|   |   |   |   |   |   |   |   |   |   |   |   Month >= 3.5
|   |   |   |   |   |   |   |   |   |   |   |   |   Longitude < -2.97
|   |   |   |   |   |   |   |   |   |   |   |   |   |   Number_of_Vehicles < 1.5
|   |   |   |   |   |   |   |   |   |   |   |   |   |   |   ?Accident_Index < 502723.5
|   |   |   |   |   |   |   |   |   |   |   |   |   |   |   |   2nd_Road_Number < 2519 : Fatal (11/0) [4/0]
|   |   |   |   |   |   |   |   |   |   |   |   |   |   |   |   2nd_Road_Number >= 2519 : Serious (4/0) [4/0]
|   |   |   |   |   |   |   |   |   |   |   |   |   |   |   ?Accident_Index >= 502723.5 : Serious (13/0) [7/0]
|   |   |   |   |   |   |   |   |   |   |   |   |   |   Number_of_Vehicles >= 1.5 : Serious (52/0) [16/0]
|   |   |   |   |   |   |   |   |   |   |   |   |   Longitude >= -2.97 : Serious (255/1) [123/5]
|   |   |   |   |   |   |   |   |   |   ID >= 778082.5
|   |   |   |   |   |   |   |   |   |   |   ?Accident_Index < 131281159
|   |   |   |   |   |   |   |   |   |   |   |   ID < 792230.35 : Serious (470/8) [227/9]
|   |   |   |   |   |   |   |   |   |   |   |   ID >= 792230.35
|   |   |   |   |   |   |   |   |   |   |   |   |   Junction_Control < 1.97
|   |   |   |   |   |   |   |   |   |   |   |   |   |   Month < 2.5 : Serious (9/0) [3/0]
|   |   |   |   |   |   |   |   |   |   |   |   |   |   Month >= 2.5 : Fatal (17/1) [19/4]
|   |   |   |   |   |   |   |   |   |   |   |   |   Junction_Control >= 1.97 : Serious (89/0) [48/1]
|   |   |   |   |   |   |   |   |   |   |   ?Accident_Index >= 131281159 : Fatal (7/0) [3/0]
|   |   |   |   |   |   Light_Conditions >= 1
|   |   |   |   |   |   |   Light_Conditions < 4 : Fatal (691/0) [323/0]
|   |   |   |   |   |   |   Light_Conditions >= 4
|   |   |   |   |   |   |   |   Number_of_Casualties < 1
|   |   |   |   |   |   |   |   |   ?Accident_Index < 131280774.3
|   |   |   |   |   |   |   |   |   |   Junction_Control < -1 : Serious (519/9) [314/4]
|   |   |   |   |   |   |   |   |   |   Junction_Control >= -1
|   |   |   |   |   |   |   |   |   |   |   Junction_Control < 2
|   |   |   |   |   |   |   |   |   |   |   |   Junction_Control < 0.03
|   |   |   |   |   |   |   |   |   |   |   |   |   Junction_Control < -0.07 : Fatal (10/0) [8/0]
|   |   |   |   |   |   |   |   |   |   |   |   |   Junction_Control >= -0.07 : Serious (174/5) [76/1]
|   |   |   |   |   |   |   |   |   |   |   |   Junction_Control >= 0.03
|   |   |   |   |   |   |   |   |   |   |   |   |   Number_of_Vehicles < 1.95 : Fatal (42/0) [15/0]
|   |   |   |   |   |   |   |   |   |   |   |   |   Number_of_Vehicles >= 1.95 : Serious (2/0) [2/0]
|   |   |   |   |   |   |   |   |   |   |   Junction_Control >= 2 : Serious (238/6) [142/6]
|   |   |   |   |   |   |   |   |   ?Accident_Index >= 131280774.3 : Fatal (19/0) [4/0]
|   |   |   |   |   |   |   |   Number_of_Casualties >= 1
|   |   |   |   |   |   |   |   |   Number_of_Casualties < 1.99 : Fatal (117/0) [51/0]
|   |   |   |   |   |   |   |   |   Number_of_Casualties >= 1.99
|   |   |   |   |   |   |   |   |   |   Number_of_Vehicles < 2
|   |   |   |   |   |   |   |   |   |   |   Number_of_Vehicles < 1.01
|   |   |   |   |   |   |   |   |   |   |   |   Pedestrian_Crossing-Physical_Facilities < 0.14
|   |   |   |   |   |   |   |   |   |   |   |   |   Junction_Control < 0.08 : Serious (89/2) [47/2]
|   |   |   |   |   |   |   |   |   |   |   |   |   Junction_Control >= 0.08 : Fatal (3/0) [3/0]
|   |   |   |   |   |   |   |   |   |   |   |   Pedestrian_Crossing-Physical_Facilities >= 0.14
|   |   |   |   |   |   |   |   |   |   |   |   |   Time < 17
|   |   |   |   |   |   |   |   |   |   |   |   |   |   ID < 747851.5 : Serious (3/0) [1/0]
|   |   |   |   |   |   |   |   |   |   |   |   |   |   ID >= 747851.5 : Fatal (34/0) [12/0]
|   |   |   |   |   |   |   |   |   |   |   |   |   Time >= 17 : Serious (20/0) [12/0]
|   |   |   |   |   |   |   |   |   |   |   Number_of_Vehicles >= 1.01 : Fatal (26/0) [5/0]
|   |   |   |   |   |   |   |   |   |   Number_of_Vehicles >= 2
|   |   |   |   |   |   |   |   |   |   |   Number_of_Vehicles < 6.14
|   |   |   |   |   |   |   |   |   |   |   |   ID < 785493.67 : Serious (169/1) [77/1]
|   |   |   |   |   |   |   |   |   |   |   |   ID >= 785493.67
|   |   |   |   |   |   |   |   |   |   |   |   |   ID < 786770.81 : Fatal (4/0) [2/0]
|   |   |   |   |   |   |   |   |   |   |   |   |   ID >= 786770.81 : Serious (59/2) [36/1]
|   |   |   |   |   |   |   |   |   |   |   Number_of_Vehicles >= 6.14 : Fatal (4/0) [0/0]
|   |   |   Urban_or_Rural_Area >= 1
|   |   |   |   Urban_or_Rural_Area < 2 : Fatal (2886/0) [1494/0]
|   |   |   |   Urban_or_Rural_Area >= 2
|   |   |   |   |   Number_of_Casualties < 1
|   |   |   |   |   |   Number_of_Vehicles < 1
|   |   |   |   |   |   |   Light_Conditions < 1.03
|   |   |   |   |   |   |   |   Longitude < -1.74
|   |   |   |   |   |   |   |   |   ?Accident_Index < 100172011.05
|   |   |   |   |   |   |   |   |   |   Speed_limit < 60.04 : Serious (313/6) [157/4]
|   |   |   |   |   |   |   |   |   |   Speed_limit >= 60.04
|   |   |   |   |   |   |   |   |   |   |   Speed_limit < 69.73 : Fatal (6/0) [3/0]
|   |   |   |   |   |   |   |   |   |   |   Speed_limit >= 69.73 : Serious (59/4) [39/2]
|   |   |   |   |   |   |   |   |   ?Accident_Index >= 100172011.05
|   |   |   |   |   |   |   |   |   |   Month < 4.98
|   |   |   |   |   |   |   |   |   |   |   Junction_Control < -1 : Serious (11/4) [9/0]
|   |   |   |   |   |   |   |   |   |   |   Junction_Control >= -1 : Fatal (13/1) [12/3]
|   |   |   |   |   |   |   |   |   |   Month >= 4.98
|   |   |   |   |   |   |   |   |   |   |   Longitude < -2.34
|   |   |   |   |   |   |   |   |   |   |   |   ID < 786944.67 : Serious (2/0) [2/0]
|   |   |   |   |   |   |   |   |   |   |   |   ID >= 786944.67 : Fatal (3/0) [1/0]
|   |   |   |   |   |   |   |   |   |   |   Longitude >= -2.34 : Serious (77/5) [30/2]
|   |   |   |   |   |   |   |   Longitude >= -1.74 : Serious (267/3) [131/3]
|   |   |   |   |   |   |   Light_Conditions >= 1.03
|   |   |   |   |   |   |   |   Light_Conditions < 3.95 : Fatal (52/0) [18/0]
|   |   |   |   |   |   |   |   Light_Conditions >= 3.95
|   |   |   |   |   |   |   |   |   Month < 6.22 : Serious (256/10) [126/4]
|   |   |   |   |   |   |   |   |   Month >= 6.22
|   |   |   |   |   |   |   |   |   |   ?Accident_Index < 120157107.85
|   |   |   |   |   |   |   |   |   |   |   ID < 769192 : Serious (62/4) [26/0]
|   |   |   |   |   |   |   |   |   |   |   ID >= 769192
|   |   |   |   |   |   |   |   |   |   |   |   Light_Conditions < 5.99
|   |   |   |   |   |   |   |   |   |   |   |   |   Month < 11.77
|   |   |   |   |   |   |   |   |   |   |   |   |   |   ?Accident_Index < 70305663.37
|   |   |   |   |   |   |   |   |   |   |   |   |   |   |   ID < 779547.5
|   |   |   |   |   |   |   |   |   |   |   |   |   |   |   |   1st_Road_Class < 5.5 : Fatal (22/1) [14/3]
|   |   |   |   |   |   |   |   |   |   |   |   |   |   |   |   1st_Road_Class >= 5.5 : Serious (6/0) [2/0]
|   |   |   |   |   |   |   |   |   |   |   |   |   |   |   ID >= 779547.5 : Serious (20/0) [8/0]
|   |   |   |   |   |   |   |   |   |   |   |   |   |   ?Accident_Index >= 70305663.37 : Fatal (17/0) [7/0]
|   |   |   |   |   |   |   |   |   |   |   |   |   Month >= 11.77 : Serious (12/0) [5/1]
|   |   |   |   |   |   |   |   |   |   |   |   Light_Conditions >= 5.99
|   |   |   |   |   |   |   |   |   |   |   |   |   Time < 19.91 : Serious (43/1) [22/0]
|   |   |   |   |   |   |   |   |   |   |   |   |   Time >= 19.91
|   |   |   |   |   |   |   |   |   |   |   |   |   |   ?Accident_Index < 70304661 : Serious (6/0) [6/0]
|   |   |   |   |   |   |   |   |   |   |   |   |   |   ?Accident_Index >= 70304661 : Fatal (15/4) [4/0]
|   |   |   |   |   |   |   |   |   |   ?Accident_Index >= 120157107.85 : Serious (78/2) [41/1]
|   |   |   |   |   |   Number_of_Vehicles >= 1
|   |   |   |   |   |   |   Number_of_Vehicles < 1.99 : Fatal (262/0) [114/0]
|   |   |   |   |   |   |   Number_of_Vehicles >= 1.99
|   |   |   |   |   |   |   |   Junction_Control < -0.99
|   |   |   |   |   |   |   |   |   Longitude < -2.13 : Serious (247/0) [105/4]
|   |   |   |   |   |   |   |   |   Longitude >= -2.13
|   |   |   |   |   |   |   |   |   |   ?Accident_Index < 100284 : Fatal (9/1) [7/3]
|   |   |   |   |   |   |   |   |   |   ?Accident_Index >= 100284
|   |   |   |   |   |   |   |   |   |   |   1st_Road_Class < 4.95
|   |   |   |   |   |   |   |   |   |   |   |   1st_Road_Class < 3.08
|   |   |   |   |   |   |   |   |   |   |   |   |   Month < 9.13 : Serious (109/1) [56/4]
|   |   |   |   |   |   |   |   |   |   |   |   |   Month >= 9.13
|   |   |   |   |   |   |   |   |   |   |   |   |   |   Month < 9.91 : Fatal (5/0) [2/0]
|   |   |   |   |   |   |   |   |   |   |   |   |   |   Month >= 9.91 : Serious (17/1) [14/2]
|   |   |   |   |   |   |   |   |   |   |   |   1st_Road_Class >= 3.08
|   |   |   |   |   |   |   |   |   |   |   |   |   ID < 783690 : Fatal (15/1) [5/3]
|   |   |   |   |   |   |   |   |   |   |   |   |   ID >= 783690
|   |   |   |   |   |   |   |   |   |   |   |   |   |   1st_Road_Class < 3.92 : Fatal (8/0) [4/0]
|   |   |   |   |   |   |   |   |   |   |   |   |   |   1st_Road_Class >= 3.92 : Serious (39/4) [25/0]
|   |   |   |   |   |   |   |   |   |   |   1st_Road_Class >= 4.95 : Serious (77/1) [32/0]
|   |   |   |   |   |   |   |   Junction_Control >= -0.99
|   |   |   |   |   |   |   |   |   Speed_limit < 51.06
|   |   |   |   |   |   |   |   |   |   Light_Conditions < 1.17 : Serious (91/0) [33/0]
|   |   |   |   |   |   |   |   |   |   Light_Conditions >= 1.17
|   |   |   |   |   |   |   |   |   |   |   Light_Conditions < 4 : Fatal (12/0) [10/0]
|   |   |   |   |   |   |   |   |   |   |   Light_Conditions >= 4 : Serious (31/1) [10/0]
|   |   |   |   |   |   |   |   |   Speed_limit >= 51.06
|   |   |   |   |   |   |   |   |   |   Month < 8.33
|   |   |   |   |   |   |   |   |   |   |   Junction_Control < -0.01 : Fatal (15/0) [5/0]
|   |   |   |   |   |   |   |   |   |   |   Junction_Control >= -0.01
|   |   |   |   |   |   |   |   |   |   |   |   ?Accident_Index < 70140557
|   |   |   |   |   |   |   |   |   |   |   |   |   1st_Road_Class < 3.03
|   |   |   |   |   |   |   |   |   |   |   |   |   |   ID < 787991.5
|   |   |   |   |   |   |   |   |   |   |   |   |   |   |   ID < 772583.09 : Fatal (4/0) [2/0]
|   |   |   |   |   |   |   |   |   |   |   |   |   |   |   ID >= 772583.09
|   |   |   |   |   |   |   |   |   |   |   |   |   |   |   |   Time < 5.97 : Fatal (2/0) [0/0]
|   |   |   |   |   |   |   |   |   |   |   |   |   |   |   |   Time >= 5.97
|   |   |   |   |   |   |   |   |   |   |   |   |   |   |   |   |   Junction_Control < 0.48 : Serious (39/0) [23/2]
|   |   |   |   |   |   |   |   |   |   |   |   |   |   |   |   |   Junction_Control >= 0.48
|   |   |   |   |   |   |   |   |   |   |   |   |   |   |   |   |   |   ID < 779068.24 : Serious (5/0) [3/0]
|   |   |   |   |   |   |   |   |   |   |   |   |   |   |   |   |   |   ID >= 779068.24 : Fatal (2/0) [1/0]
|   |   |   |   |   |   |   |   |   |   |   |   |   |   ID >= 787991.5 : Fatal (6/0) [2/0]
|   |   |   |   |   |   |   |   |   |   |   |   |   1st_Road_Class >= 3.03 : Fatal (15/1) [14/3]
|   |   |   |   |   |   |   |   |   |   |   |   ?Accident_Index >= 70140557 : Serious (68/2) [30/0]
|   |   |   |   |   |   |   |   |   |   Month >= 8.33
|   |   |   |   |   |   |   |   |   |   |   ?Accident_Index < 70296078.2
|   |   |   |   |   |   |   |   |   |   |   |   Longitude < -2.39 : Fatal (54/0) [31/0]
|   |   |   |   |   |   |   |   |   |   |   |   Longitude >= -2.39 : Serious (7/1) [2/0]
|   |   |   |   |   |   |   |   |   |   |   ?Accident_Index >= 70296078.2 : Serious (39/13) [15/1]
|   |   |   |   |   Number_of_Casualties >= 1
|   |   |   |   |   |   Number_of_Casualties < 2 : Fatal (884/0) [470/0]
|   |   |   |   |   |   Number_of_Casualties >= 2
|   |   |   |   |   |   |   Number_of_Casualties < 2
|   |   |   |   |   |   |   |   ID < 787222
|   |   |   |   |   |   |   |   |   Junction_Control < 0.34
|   |   |   |   |   |   |   |   |   |   Junction_Control < -0.98 : Serious (332/6) [174/4]
|   |   |   |   |   |   |   |   |   |   Junction_Control >= -0.98
|   |   |   |   |   |   |   |   |   |   |   ID < 771722.43 : Fatal (5/0) [5/0]
|   |   |   |   |   |   |   |   |   |   |   ID >= 771722.43 : Serious (151/7) [74/6]
|   |   |   |   |   |   |   |   |   Junction_Control >= 0.34
|   |   |   |   |   |   |   |   |   |   Junction_Control < 1.96 : Fatal (11/0) [8/0]
|   |   |   |   |   |   |   |   |   |   Junction_Control >= 1.96 : Serious (22/0) [8/2]
|   |   |   |   |   |   |   |   ID >= 787222
|   |   |   |   |   |   |   |   |   Number_of_Vehicles < 1.02 : Serious (98/2) [51/3]
|   |   |   |   |   |   |   |   |   Number_of_Vehicles >= 1.02
|   |   |   |   |   |   |   |   |   |   Number_of_Vehicles < 1.99 : Fatal (38/0) [11/0]
|   |   |   |   |   |   |   |   |   |   Number_of_Vehicles >= 1.99
|   |   |   |   |   |   |   |   |   |   |   Month < 10.01
|   |   |   |   |   |   |   |   |   |   |   |   Light_Conditions < 1.1
|   |   |   |   |   |   |   |   |   |   |   |   |   Number_of_Vehicles < 2.03 : Serious (72/0) [25/1]
|   |   |   |   |   |   |   |   |   |   |   |   |   Number_of_Vehicles >= 2.03
|   |   |   |   |   |   |   |   |   |   |   |   |   |   ID < 789967.5 : Serious (18/0) [14/0]
|   |   |   |   |   |   |   |   |   |   |   |   |   |   ID >= 789967.5
|   |   |   |   |   |   |   |   |   |   |   |   |   |   |   ?Accident_Index < 120154198.05 : Fatal (3/0) [0/0]
|   |   |   |   |   |   |   |   |   |   |   |   |   |   |   ?Accident_Index >= 120154198.05
|   |   |   |   |   |   |   |   |   |   |   |   |   |   |   |   Number_of_Vehicles < 3.22 : Serious (9/0) [10/3]
|   |   |   |   |   |   |   |   |   |   |   |   |   |   |   |   Number_of_Vehicles >= 3.22
|   |   |   |   |   |   |   |   |   |   |   |   |   |   |   |   |   ID < 790427 : Serious (2/0) [2/0]
|   |   |   |   |   |   |   |   |   |   |   |   |   |   |   |   |   ID >= 790427 : Fatal (5/0) [1/0]
|   |   |   |   |   |   |   |   |   |   |   |   Light_Conditions >= 1.1
|   |   |   |   |   |   |   |   |   |   |   |   |   Light_Conditions < 5.96
|   |   |   |   |   |   |   |   |   |   |   |   |   |   ID < 789066.4 : Serious (10/4) [2/0]
|   |   |   |   |   |   |   |   |   |   |   |   |   |   ID >= 789066.4 : Fatal (32/0) [13/0]
|   |   |   |   |   |   |   |   |   |   |   |   |   Light_Conditions >= 5.96 : Serious (29/2) [14/1]
|   |   |   |   |   |   |   |   |   |   |   Month >= 10.01
|   |   |   |   |   |   |   |   |   |   |   |   ID < 790972
|   |   |   |   |   |   |   |   |   |   |   |   |   Light_Conditions < 5.55 : Fatal (50/0) [29/0]
|   |   |   |   |   |   |   |   |   |   |   |   |   Light_Conditions >= 5.55 : Serious (6/0) [7/1]
|   |   |   |   |   |   |   |   |   |   |   |   ID >= 790972 : Serious (24/1) [9/0]
|   |   |   |   |   |   |   Number_of_Casualties >= 2
|   |   |   |   |   |   |   |   Number_of_Casualties < 3 : Fatal (485/0) [239/0]
|   |   |   |   |   |   |   |   Number_of_Casualties >= 3
|   |   |   |   |   |   |   |   |   Number_of_Casualties < 3
|   |   |   |   |   |   |   |   |   |   Light_Conditions < 1.11
|   |   |   |   |   |   |   |   |   |   |   Longitude < -1.27 : Serious (161/5) [85/1]
|   |   |   |   |   |   |   |   |   |   |   Longitude >= -1.27
|   |   |   |   |   |   |   |   |   |   |   |   1st_Road_Class < 3.03 : Serious (13/1) [4/0]
|   |   |   |   |   |   |   |   |   |   |   |   1st_Road_Class >= 3.03 : Fatal (4/0) [2/0]
|   |   |   |   |   |   |   |   |   |   Light_Conditions >= 1.11
|   |   |   |   |   |   |   |   |   |   |   Light_Conditions < 5.85
|   |   |   |   |   |   |   |   |   |   |   |   Junction_Control < -0.94
|   |   |   |   |   |   |   |   |   |   |   |   |   1st_Road_Class < 3.14 : Serious (19/1) [7/1]
|   |   |   |   |   |   |   |   |   |   |   |   |   1st_Road_Class >= 3.14 : Fatal (5/0) [7/0]
|   |   |   |   |   |   |   |   |   |   |   |   Junction_Control >= -0.94 : Fatal (26/0) [10/0]
|   |   |   |   |   |   |   |   |   |   |   Light_Conditions >= 5.85 : Serious (78/2) [43/3]
|   |   |   |   |   |   |   |   |   Number_of_Casualties >= 3
|   |   |   |   |   |   |   |   |   |   Number_of_Casualties < 3.99 : Fatal (219/0) [104/0]
|   |   |   |   |   |   |   |   |   |   Number_of_Casualties >= 3.99
|   |   |   |   |   |   |   |   |   |   |   Number_of_Casualties < 4
|   |   |   |   |   |   |   |   |   |   |   |   ID < 786726.5
|   |   |   |   |   |   |   |   |   |   |   |   |   ID < 784920 : Serious (107/9) [42/4]
|   |   |   |   |   |   |   |   |   |   |   |   |   ID >= 784920 : Fatal (7/0) [3/0]
|   |   |   |   |   |   |   |   |   |   |   |   ID >= 786726.5 : Serious (67/0) [47/2]
|   |   |   |   |   |   |   |   |   |   |   Number_of_Casualties >= 4
|   |   |   |   |   |   |   |   |   |   |   |   Number_of_Casualties < 4.99 : Fatal (82/0) [45/0]
|   |   |   |   |   |   |   |   |   |   |   |   Number_of_Casualties >= 4.99
|   |   |   |   |   |   |   |   |   |   |   |   |   ID < 788023.5 : Serious (99/2) [49/2]
|   |   |   |   |   |   |   |   |   |   |   |   |   ID >= 788023.5
|   |   |   |   |   |   |   |   |   |   |   |   |   |   Number_of_Casualties < 5 : Serious (30/3) [9/0]
|   |   |   |   |   |   |   |   |   |   |   |   |   |   Number_of_Casualties >= 5
|   |   |   |   |   |   |   |   |   |   |   |   |   |   |   Number_of_Casualties < 7.5
|   |   |   |   |   |   |   |   |   |   |   |   |   |   |   |   ID < 789350.8 : Fatal (23/0) [15/0]
|   |   |   |   |   |   |   |   |   |   |   |   |   |   |   |   ID >= 789350.8
|   |   |   |   |   |   |   |   |   |   |   |   |   |   |   |   |   ID < 791378.04 : Serious (10/0) [2/0]
|   |   |   |   |   |   |   |   |   |   |   |   |   |   |   |   |   ID >= 791378.04
|   |   |   |   |   |   |   |   |   |   |   |   |   |   |   |   |   |   ID < 795650.09 : Fatal (17/0) [6/0]
|   |   |   |   |   |   |   |   |   |   |   |   |   |   |   |   |   |   ID >= 795650.09 : Serious (3/0) [1/0]
|   |   |   |   |   |   |   |   |   |   |   |   |   |   |   Number_of_Casualties >= 7.5 : Serious (11/0) [1/0]
|   |   Junction_Control >= 2
|   |   |   Junction_Control < 3 : Fatal (1553/0) [730/0]
|   |   |   Junction_Control >= 3
|   |   |   |   Junction_Control < 3 : Serious (73/1) [43/3]
|   |   |   |   Junction_Control >= 3 : Fatal (1523/0) [751/0]
|   Junction_Control >= 4
|   |   Light_Conditions < 1
|   |   |   ?Accident_Index < 100248
|   |   |   |   ID < 756174.5 : Serious (98/0) [42/0]
|   |   |   |   ID >= 756174.5
|   |   |   |   |   Number_of_Vehicles < 2
|   |   |   |   |   |   Number_of_Vehicles < 1
|   |   |   |   |   |   |   1st_Road_Class < 3.01
|   |   |   |   |   |   |   |   ID < 756623 : Serious (47/1) [18/0]
|   |   |   |   |   |   |   |   ID >= 756623
|   |   |   |   |   |   |   |   |   Time < 13.7
|   |   |   |   |   |   |   |   |   |   Road_Surface_Conditions < 1.5 : Fatal (17/0) [3/0]
|   |   |   |   |   |   |   |   |   |   Road_Surface_Conditions >= 1.5 : Serious (5/1) [4/0]
|   |   |   |   |   |   |   |   |   Time >= 13.7 : Serious (32/2) [15/1]
|   |   |   |   |   |   |   1st_Road_Class >= 3.01
|   |   |   |   |   |   |   |   ID < 756643.17
|   |   |   |   |   |   |   |   |   2nd_Road_Number < 109.78
|   |   |   |   |   |   |   |   |   |   Urban_or_Rural_Area < 1.5
|   |   |   |   |   |   |   |   |   |   |   ?Accident_Index < 100207.49
|   |   |   |   |   |   |   |   |   |   |   |   ID < 756403.46 : Fatal (31/0) [18/0]
|   |   |   |   |   |   |   |   |   |   |   |   ID >= 756403.46
|   |   |   |   |   |   |   |   |   |   |   |   |   Longitude < -0.04
|   |   |   |   |   |   |   |   |   |   |   |   |   |   ID < 756525 : Serious (2/0) [6/0]
|   |   |   |   |   |   |   |   |   |   |   |   |   |   ID >= 756525 : Fatal (3/0) [0/0]
|   |   |   |   |   |   |   |   |   |   |   |   |   Longitude >= -0.04 : Fatal (13/0) [6/0]
|   |   |   |   |   |   |   |   |   |   |   ?Accident_Index >= 100207.49 : Serious (2/0) [3/1]
|   |   |   |   |   |   |   |   |   |   Urban_or_Rural_Area >= 1.5 : Serious (3/0) [1/0]
|   |   |   |   |   |   |   |   |   2nd_Road_Number >= 109.78 : Serious (3/0) [5/0]
|   |   |   |   |   |   |   |   ID >= 756643.17 : Serious (16/1) [12/3]
|   |   |   |   |   |   Number_of_Vehicles >= 1 : Fatal (73/0) [34/0]
|   |   |   |   |   Number_of_Vehicles >= 2
|   |   |   |   |   |   Longitude < -0.11 : Serious (101/3) [59/1]
|   |   |   |   |   |   Longitude >= -0.11
|   |   |   |   |   |   |   Number_of_Casualties < 1.89
|   |   |   |   |   |   |   |   Number_of_Vehicles < 2.03
|   |   |   |   |   |   |   |   |   Longitude < -0.02 : Serious (26/1) [17/2]
|   |   |   |   |   |   |   |   |   Longitude >= -0.02
|   |   |   |   |   |   |   |   |   |   Longitude < 0.02 : Fatal (15/0) [8/0]
|   |   |   |   |   |   |   |   |   |   Longitude >= 0.02 : Serious (9/1) [8/0]
|   |   |   |   |   |   |   |   Number_of_Vehicles >= 2.03
|   |   |   |   |   |   |   |   |   ID < 756749.15 : Fatal (14/0) [5/0]
|   |   |   |   |   |   |   |   |   ID >= 756749.15 : Serious (2/0) [2/0]
|   |   |   |   |   |   |   Number_of_Casualties >= 1.89 : Serious (39/2) [15/0]
|   |   |   ?Accident_Index >= 100248
|   |   |   |   Number_of_Casualties < 1
|   |   |   |   |   Pedestrian_Crossing-Physical_Facilities < 1
|   |   |   |   |   |   Longitude < -2.74
|   |   |   |   |   |   |   2nd_Road_Number < 659.59
|   |   |   |   |   |   |   |   Speed_limit < 40.14
|   |   |   |   |   |   |   |   |   Pedestrian_Crossing-Physical_Facilities < 0.22 : Serious (484/6) [240/2]
|   |   |   |   |   |   |   |   |   Pedestrian_Crossing-Physical_Facilities >= 0.22
|   |   |   |   |   |   |   |   |   |   Month < 5.47 : Fatal (3/0) [1/0]
|   |   |   |   |   |   |   |   |   |   Month >= 5.47 : Serious (13/0) [3/0]
|   |   |   |   |   |   |   |   Speed_limit >= 40.14
|   |   |   |   |   |   |   |   |   Speed_limit < 48.83 : Fatal (5/0) [4/0]
|   |   |   |   |   |   |   |   |   Speed_limit >= 48.83 : Serious (111/5) [43/1]
|   |   |   |   |   |   |   2nd_Road_Number >= 659.59
|   |   |   |   |   |   |   |   Road_Type < 5.99
|   |   |   |   |   |   |   |   |   Road_Type < 2.5 : Serious (8/0) [16/0]
|   |   |   |   |   |   |   |   |   Road_Type >= 2.5 : Fatal (13/0) [5/0]
|   |   |   |   |   |   |   |   Road_Type >= 5.99 : Serious (40/0) [17/1]
|   |   |   |   |   |   Longitude >= -2.74
|   |   |   |   |   |   |   Time < 11.46 : Serious (1165/0) [576/1]
|   |   |   |   |   |   |   Time >= 11.46
|   |   |   |   |   |   |   |   ?Accident_Index < 100280.19
|   |   |   |   |   |   |   |   |   ?Accident_Index < 100265.66 : Serious (9/0) [3/0]
|   |   |   |   |   |   |   |   |   ?Accident_Index >= 100265.66 : Fatal (4/0) [1/0]
|   |   |   |   |   |   |   |   ?Accident_Index >= 100280.19
|   |   |   |   |   |   |   |   |   ?Accident_Index < 130295959
|   |   |   |   |   |   |   |   |   |   Number_of_Vehicles < 2.05 : Serious (2304/10) [1145/7]
|   |   |   |   |   |   |   |   |   |   Number_of_Vehicles >= 2.05
|   |   |   |   |   |   |   |   |   |   |   Number_of_Vehicles < 2.78 : Fatal (4/0) [4/0]
|   |   |   |   |   |   |   |   |   |   |   Number_of_Vehicles >= 2.78 : Serious (95/2) [53/2]
|   |   |   |   |   |   |   |   |   ?Accident_Index >= 130295959
|   |   |   |   |   |   |   |   |   |   ID < 793939.8
|   |   |   |   |   |   |   |   |   |   |   ?Accident_Index < 130512651.7 : Serious (88/3) [41/2]
|   |   |   |   |   |   |   |   |   |   |   ?Accident_Index >= 130512651.7 : Fatal (8/1) [7/3]
|   |   |   |   |   |   |   |   |   |   ID >= 793939.8 : Serious (194/2) [101/1]
|   |   |   |   |   Pedestrian_Crossing-Physical_Facilities >= 1
|   |   |   |   |   |   Pedestrian_Crossing-Physical_Facilities < 3.98 : Fatal (41/0) [14/0]
|   |   |   |   |   |   Pedestrian_Crossing-Physical_Facilities >= 3.98
|   |   |   |   |   |   |   Longitude < -2.96
|   |   |   |   |   |   |   |   Road_Type < 5.96 : Fatal (15/0) [2/0]
|   |   |   |   |   |   |   |   Road_Type >= 5.96 : Serious (40/3) [12/1]
|   |   |   |   |   |   |   Longitude >= -2.96
|   |   |   |   |   |   |   |   Speed_limit < 30.93 : Serious (521/3) [257/3]
|   |   |   |   |   |   |   |   Speed_limit >= 30.93
|   |   |   |   |   |   |   |   |   Speed_limit < 39.74 : Fatal (6/0) [7/0]
|   |   |   |   |   |   |   |   |   Speed_limit >= 39.74
|   |   |   |   |   |   |   |   |   |   ID < 797059.5 : Serious (38/0) [19/1]
|   |   |   |   |   |   |   |   |   |   ID >= 797059.5 : Fatal (3/0) [1/0]
|   |   |   |   Number_of_Casualties >= 1
|   |   |   |   |   Number_of_Casualties < 2 : Fatal (137/0) [67/0]
|   |   |   |   |   Number_of_Casualties >= 2
|   |   |   |   |   |   Longitude < -1.08
|   |   |   |   |   |   |   2nd_Road_Number < 1031.75
|   |   |   |   |   |   |   |   Time < 14.69
|   |   |   |   |   |   |   |   |   Speed_limit < 50.56
|   |   |   |   |   |   |   |   |   |   ID < 774102.97
|   |   |   |   |   |   |   |   |   |   |   ?Accident_Index < 530974.07 : Serious (75/4) [52/3]
|   |   |   |   |   |   |   |   |   |   |   ?Accident_Index >= 530974.07
|   |   |   |   |   |   |   |   |   |   |   |   Number_of_Casualties < 2.23 : Serious (20/0) [12/0]
|   |   |   |   |   |   |   |   |   |   |   |   Number_of_Casualties >= 2.23
|   |   |   |   |   |   |   |   |   |   |   |   |   ID < 767833.52 : Serious (2/0) [2/0]
|   |   |   |   |   |   |   |   |   |   |   |   |   ID >= 767833.52 : Fatal (12/0) [7/0]
|   |   |   |   |   |   |   |   |   |   ID >= 774102.97 : Serious (206/5) [95/4]
|   |   |   |   |   |   |   |   |   Speed_limit >= 50.56
|   |   |   |   |   |   |   |   |   |   ID < 788422.5
|   |   |   |   |   |   |   |   |   |   |   Speed_limit < 57.71 : Fatal (3/0) [1/0]
|   |   |   |   |   |   |   |   |   |   |   Speed_limit >= 57.71 : Serious (78/4) [44/2]
|   |   |   |   |   |   |   |   |   |   ID >= 788422.5
|   |   |   |   |   |   |   |   |   |   |   Longitude < -1.72
|   |   |   |   |   |   |   |   |   |   |   |   2nd_Road_Number < 188.25 : Fatal (13/0) [3/0]
|   |   |   |   |   |   |   |   |   |   |   |   2nd_Road_Number >= 188.25 : Serious (4/0) [5/1]
|   |   |   |   |   |   |   |   |   |   |   Longitude >= -1.72
|   |   |   |   |   |   |   |   |   |   |   |   Number_of_Vehicles < 2.01 : Serious (36/1) [15/2]
|   |   |   |   |   |   |   |   |   |   |   |   Number_of_Vehicles >= 2.01
|   |   |   |   |   |   |   |   |   |   |   |   |   Number_of_Vehicles < 2.98 : Fatal (11/0) [2/0]
|   |   |   |   |   |   |   |   |   |   |   |   |   Number_of_Vehicles >= 2.98 : Serious (14/2) [8/0]
|   |   |   |   |   |   |   |   Time >= 14.69
|   |   |   |   |   |   |   |   |   Speed_limit < 55 : Serious (294/1) [140/1]
|   |   |   |   |   |   |   |   |   Speed_limit >= 55
|   |   |   |   |   |   |   |   |   |   ?Accident_Index < 409081.16
|   |   |   |   |   |   |   |   |   |   |   ID < 766498.11 : Fatal (2/0) [1/0]
|   |   |   |   |   |   |   |   |   |   |   ID >= 766498.11 : Serious (4/0) [4/0]
|   |   |   |   |   |   |   |   |   |   ?Accident_Index >= 409081.16 : Serious (72/1) [50/1]
|   |   |   |   |   |   |   2nd_Road_Number >= 1031.75
|   |   |   |   |   |   |   |   ?Accident_Index < 22018849.21
|   |   |   |   |   |   |   |   |   ID < 770772 : Serious (5/0) [3/0]
|   |   |   |   |   |   |   |   |   ID >= 770772
|   |   |   |   |   |   |   |   |   |   Time < 17.07 : Fatal (25/0) [15/0]
|   |   |   |   |   |   |   |   |   |   Time >= 17.07 : Serious (6/1) [4/1]
|   |   |   |   |   |   |   |   ?Accident_Index >= 22018849.21
|   |   |   |   |   |   |   |   |   ?Accident_Index < 120051543.7 : Serious (55/0) [34/1]
|   |   |   |   |   |   |   |   |   ?Accident_Index >= 120051543.7
|   |   |   |   |   |   |   |   |   |   1st_Road_Class < 3.22 : Serious (14/2) [12/0]
|   |   |   |   |   |   |   |   |   |   1st_Road_Class >= 3.22 : Fatal (10/1) [10/3]
|   |   |   |   |   |   Longitude >= -1.08 : Serious (424/0) [208/0]
|   |   Light_Conditions >= 1
|   |   |   Light_Conditions < 4 : Fatal (878/0) [449/0]
|   |   |   Light_Conditions >= 4
|   |   |   |   Number_of_Vehicles < 2
|   |   |   |   |   Number_of_Vehicles < 1
|   |   |   |   |   |   ?Accident_Index < 100388
|   |   |   |   |   |   |   Longitude < -0.12
|   |   |   |   |   |   |   |   Number_of_Casualties < 1.5
|   |   |   |   |   |   |   |   |   ?Accident_Index < 100208.91
|   |   |   |   |   |   |   |   |   |   Time < 19.07
|   |   |   |   |   |   |   |   |   |   |   Time < 5.17
|   |   |   |   |   |   |   |   |   |   |   |   ?Accident_Index < 100097.7
|   |   |   |   |   |   |   |   |   |   |   |   |   Longitude < -0.19
|   |   |   |   |   |   |   |   |   |   |   |   |   |   Longitude < -0.19 : Fatal (4/0) [1/0]
|   |   |   |   |   |   |   |   |   |   |   |   |   |   Longitude >= -0.19 : Serious (4/0) [4/0]
|   |   |   |   |   |   |   |   |   |   |   |   |   Longitude >= -0.19 : Fatal (24/0) [7/0]
|   |   |   |   |   |   |   |   |   |   |   |   ?Accident_Index >= 100097.7
|   |   |   |   |   |   |   |   |   |   |   |   |   1st_Road_Class < 4.05 : Serious (18/2) [13/5]
|   |   |   |   |   |   |   |   |   |   |   |   |   1st_Road_Class >= 4.05 : Fatal (6/1) [12/3]
|   |   |   |   |   |   |   |   |   |   |   Time >= 5.17 : Fatal (45/0) [25/0]
|   |   |   |   |   |   |   |   |   |   Time >= 19.07 : Serious (39/16) [28/7]
|   |   |   |   |   |   |   |   |   ?Accident_Index >= 100208.91 : Fatal (32/0) [14/0]
|   |   |   |   |   |   |   |   Number_of_Casualties >= 1.5 : Serious (26/2) [12/0]
|   |   |   |   |   |   |   Longitude >= -0.12
|   |   |   |   |   |   |   |   Speed_limit < 30.14 : Serious (78/4) [35/1]
|   |   |   |   |   |   |   |   Speed_limit >= 30.14
|   |   |   |   |   |   |   |   |   ID < 756633 : Serious (6/0) [6/0]
|   |   |   |   |   |   |   |   |   ID >= 756633 : Fatal (17/0) [8/0]
|   |   |   |   |   |   ?Accident_Index >= 100388
|   |   |   |   |   |   |   ?Accident_Index < 176751.98 : Serious (346/1) [173/2]
|   |   |   |   |   |   |   ?Accident_Index >= 176751.98
|   |   |   |   |   |   |   |   ?Accident_Index < 178578.5
|   |   |   |   |   |   |   |   |   Number_of_Casualties < 1
|   |   |   |   |   |   |   |   |   |   Longitude < -0.11 : Serious (16/0) [8/0]
|   |   |   |   |   |   |   |   |   |   Longitude >= -0.11 : Fatal (13/4) [6/0]
|   |   |   |   |   |   |   |   |   Number_of_Casualties >= 1
|   |   |   |   |   |   |   |   |   |   Longitude < -0.28 : Serious (2/0) [2/0]
|   |   |   |   |   |   |   |   |   |   Longitude >= -0.28 : Fatal (37/0) [18/0]
|   |   |   |   |   |   |   |   ?Accident_Index >= 178578.5
|   |   |   |   |   |   |   |   |   Longitude < -2.69 : Serious (215/2) [101/2]
|   |   |   |   |   |   |   |   |   Longitude >= -2.69
|   |   |   |   |   |   |   |   |   |   Longitude < -1.76
|   |   |   |   |   |   |   |   |   |   |   Month < 10.85
|   |   |   |   |   |   |   |   |   |   |   |   Road_Surface_Conditions < 1 : Serious (127/16) [78/5]
|   |   |   |   |   |   |   |   |   |   |   |   Road_Surface_Conditions >= 1
|   |   |   |   |   |   |   |   |   |   |   |   |   Road_Surface_Conditions < 1.98 : Fatal (51/0) [24/0]
|   |   |   |   |   |   |   |   |   |   |   |   |   Road_Surface_Conditions >= 1.98
|   |   |   |   |   |   |   |   |   |   |   |   |   |   Number_of_Casualties < 1.03
|   |   |   |   |   |   |   |   |   |   |   |   |   |   |   Time < 20 : Serious (50/0) [20/2]
|   |   |   |   |   |   |   |   |   |   |   |   |   |   |   Time >= 20
|   |   |   |   |   |   |   |   |   |   |   |   |   |   |   |   Road_Type < 5.89
|   |   |   |   |   |   |   |   |   |   |   |   |   |   |   |   |   ID < 784515.35 : Fatal (6/0) [1/0]
|   |   |   |   |   |   |   |   |   |   |   |   |   |   |   |   |   ID >= 784515.35 : Serious (2/0) [2/0]
|   |   |   |   |   |   |   |   |   |   |   |   |   |   |   |   Road_Type >= 5.89 : Serious (20/2) [7/1]
|   |   |   |   |   |   |   |   |   |   |   |   |   |   Number_of_Casualties >= 1.03
|   |   |   |   |   |   |   |   |   |   |   |   |   |   |   Number_of_Casualties < 2.94 : Fatal (15/0) [7/0]
|   |   |   |   |   |   |   |   |   |   |   |   |   |   |   Number_of_Casualties >= 2.94
|   |   |   |   |   |   |   |   |   |   |   |   |   |   |   |   ID < 772077.5 : Serious (7/0) [1/0]
|   |   |   |   |   |   |   |   |   |   |   |   |   |   |   |   ID >= 772077.5
|   |   |   |   |   |   |   |   |   |   |   |   |   |   |   |   |   ?Accident_Index < 6009445 : Fatal (2/0) [1/0]
|   |   |   |   |   |   |   |   |   |   |   |   |   |   |   |   |   ?Accident_Index >= 6009445 : Serious (2/0) [2/0]
|   |   |   |   |   |   |   |   |   |   |   Month >= 10.85 : Serious (88/2) [35/1]
|   |   |   |   |   |   |   |   |   |   Longitude >= -1.76
|   |   |   |   |   |   |   |   |   |   |   Speed_limit < 30.04 : Serious (210/1) [111/4]
|   |   |   |   |   |   |   |   |   |   |   Speed_limit >= 30.04
|   |   |   |   |   |   |   |   |   |   |   |   ?Accident_Index < 100363501.6
|   |   |   |   |   |   |   |   |   |   |   |   |   Longitude < -1.22 : Fatal (22/6) [14/2]
|   |   |   |   |   |   |   |   |   |   |   |   |   Longitude >= -1.22 : Serious (16/0) [10/2]
|   |   |   |   |   |   |   |   |   |   |   |   ?Accident_Index >= 100363501.6 : Serious (62/0) [26/0]
|   |   |   |   |   Number_of_Vehicles >= 1 : Fatal (129/0) [70/0]
|   |   |   |   Number_of_Vehicles >= 2
|   |   |   |   |   Speed_limit < 30.41
|   |   |   |   |   |   ?Accident_Index < 130038920.85 : Serious (1173/12) [562/3]
|   |   |   |   |   |   ?Accident_Index >= 130038920.85
|   |   |   |   |   |   |   ID < 791275.5 : Fatal (5/0) [4/0]
|   |   |   |   |   |   |   ID >= 791275.5
|   |   |   |   |   |   |   |   Number_of_Vehicles < 3.5 : Serious (131/1) [59/1]
|   |   |   |   |   |   |   |   Number_of_Vehicles >= 3.5
|   |   |   |   |   |   |   |   |   Longitude < -1.65 : Fatal (3/0) [1/0]
|   |   |   |   |   |   |   |   |   Longitude >= -1.65 : Serious (7/0) [5/0]
|   |   |   |   |   Speed_limit >= 30.41
|   |   |   |   |   |   2nd_Road_Number < 61.5
|   |   |   |   |   |   |   Light_Conditions < 4.03
|   |   |   |   |   |   |   |   Pedestrian_Crossing-Physical_Facilities < 0.55 : Serious (67/0) [56/3]
|   |   |   |   |   |   |   |   Pedestrian_Crossing-Physical_Facilities >= 0.55
|   |   |   |   |   |   |   |   |   Pedestrian_Crossing-Physical_Facilities < 3.88 : Fatal (5/0) [2/0]
|   |   |   |   |   |   |   |   |   Pedestrian_Crossing-Physical_Facilities >= 3.88 : Serious (10/1) [3/0]
|   |   |   |   |   |   |   Light_Conditions >= 4.03
|   |   |   |   |   |   |   |   Light_Conditions < 5.99 : Fatal (26/0) [11/0]
|   |   |   |   |   |   |   |   Light_Conditions >= 5.99 : Serious (49/5) [25/1]
|   |   |   |   |   |   2nd_Road_Number >= 61.5 : Serious (83/0) [37/0]
ID >= 797626.14
|   Speed_limit < 30
|   |   Number_of_Vehicles < 2
|   |   |   Number_of_Vehicles < 1
|   |   |   |   Did_Police_Officer_Attend_Scene_of_Accident < 2
|   |   |   |   |   Number_of_Casualties < 1
|   |   |   |   |   |   Pedestrian_Crossing-Physical_Facilities < 0
|   |   |   |   |   |   |   ?Accident_Index < 3400439
|   |   |   |   |   |   |   |   1st_Road_Class < 4.5
|   |   |   |   |   |   |   |   |   ID < 875070
|   |   |   |   |   |   |   |   |   |   1st_Road_Class < 3.5
|   |   |   |   |   |   |   |   |   |   |   ?Accident_Index < 502035.5
|   |   |   |   |   |   |   |   |   |   |   |   ?Accident_Index < 502007.5
|   |   |   |   |   |   |   |   |   |   |   |   |   Time < 4.56 : Serious (3/0) [1/0]
|   |   |   |   |   |   |   |   |   |   |   |   |   Time >= 4.56 : Slight (18/0) [4/0]
|   |   |   |   |   |   |   |   |   |   |   |   ?Accident_Index >= 502007.5
|   |   |   |   |   |   |   |   |   |   |   |   |   Month < 9.5 : Serious (25/9) [20/4]
|   |   |   |   |   |   |   |   |   |   |   |   |   Month >= 9.5 : Slight (5/1) [3/0]
|   |   |   |   |   |   |   |   |   |   |   ?Accident_Index >= 502035.5 : Slight (14/0) [3/0]
|   |   |   |   |   |   |   |   |   |   1st_Road_Class >= 3.5 : Slight (21/0) [10/0]
|   |   |   |   |   |   |   |   |   ID >= 875070 : Slight (35/0) [20/1]
|   |   |   |   |   |   |   |   1st_Road_Class >= 4.5
|   |   |   |   |   |   |   |   |   ?Accident_Index < 503021.5
|   |   |   |   |   |   |   |   |   |   ID < 876591
|   |   |   |   |   |   |   |   |   |   |   Time < 21.08
|   |   |   |   |   |   |   |   |   |   |   |   ID < 874073
|   |   |   |   |   |   |   |   |   |   |   |   |   Time < 12.77 : Slight (40/9) [24/3]
|   |   |   |   |   |   |   |   |   |   |   |   |   Time >= 12.77
|   |   |   |   |   |   |   |   |   |   |   |   |   |   ?Accident_Index < 502062
|   |   |   |   |   |   |   |   |   |   |   |   |   |   |   Time < 13.17 : Serious (8/0) [4/0]
|   |   |   |   |   |   |   |   |   |   |   |   |   |   |   Time >= 13.17
|   |   |   |   |   |   |   |   |   |   |   |   |   |   |   |   Time < 13.87 : Slight (4/0) [3/0]
|   |   |   |   |   |   |   |   |   |   |   |   |   |   |   |   Time >= 13.87
|   |   |   |   |   |   |   |   |   |   |   |   |   |   |   |   |   Urban_or_Rural_Area < 1.5
|   |   |   |   |   |   |   |   |   |   |   |   |   |   |   |   |   |   Longitude < -4.16 : Serious (16/1) [8/3]
|   |   |   |   |   |   |   |   |   |   |   |   |   |   |   |   |   |   Longitude >= -4.16
|   |   |   |   |   |   |   |   |   |   |   |   |   |   |   |   |   |   |   Time < 16.78 : Serious (14/4) [9/3]
|   |   |   |   |   |   |   |   |   |   |   |   |   |   |   |   |   |   |   Time >= 16.78 : Slight (4/0) [5/0]
|   |   |   |   |   |   |   |   |   |   |   |   |   |   |   |   |   Urban_or_Rural_Area >= 1.5
|   |   |   |   |   |   |   |   |   |   |   |   |   |   |   |   |   |   Light_Conditions < 5 : Slight (9/0) [2/0]
|   |   |   |   |   |   |   |   |   |   |   |   |   |   |   |   |   |   Light_Conditions >= 5 : Serious (8/2) [3/1]
|   |   |   |   |   |   |   |   |   |   |   |   |   |   ?Accident_Index >= 502062 : Slight (6/0) [3/0]
|   |   |   |   |   |   |   |   |   |   |   |   ID >= 874073
|   |   |   |   |   |   |   |   |   |   |   |   |   ID < 874674
|   |   |   |   |   |   |   |   |   |   |   |   |   |   Road_Type < 7.5 : Slight (41/0) [22/8]
|   |   |   |   |   |   |   |   |   |   |   |   |   |   Road_Type >= 7.5 : Serious (4/1) [1/0]
|   |   |   |   |   |   |   |   |   |   |   |   |   ID >= 874674
|   |   |   |   |   |   |   |   |   |   |   |   |   |   Time < 8.77
|   |   |   |   |   |   |   |   |   |   |   |   |   |   |   Time < 2.46 : Slight (6/0) [2/0]
|   |   |   |   |   |   |   |   |   |   |   |   |   |   |   Time >= 2.46
|   |   |   |   |   |   |   |   |   |   |   |   |   |   |   |   Longitude < -3.8
|   |   |   |   |   |   |   |   |   |   |   |   |   |   |   |   |   ?Accident_Index < 502007.5 : Serious (2/0) [2/0]
|   |   |   |   |   |   |   |   |   |   |   |   |   |   |   |   |   ?Accident_Index >= 502007.5 : Slight (3/0) [1/0]
|   |   |   |   |   |   |   |   |   |   |   |   |   |   |   |   Longitude >= -3.8 : Serious (15/0) [6/1]
|   |   |   |   |   |   |   |   |   |   |   |   |   |   Time >= 8.77
|   |   |   |   |   |   |   |   |   |   |   |   |   |   |   Month < 4.5 : Slight (22/1) [9/0]
|   |   |   |   |   |   |   |   |   |   |   |   |   |   |   Month >= 4.5
|   |   |   |   |   |   |   |   |   |   |   |   |   |   |   |   Longitude < -3.65
|   |   |   |   |   |   |   |   |   |   |   |   |   |   |   |   |   Time < 15.58 : Slight (8/1) [8/3]
|   |   |   |   |   |   |   |   |   |   |   |   |   |   |   |   |   Time >= 15.58 : Serious (26/6) [15/3]
|   |   |   |   |   |   |   |   |   |   |   |   |   |   |   |   Longitude >= -3.65
|   |   |   |   |   |   |   |   |   |   |   |   |   |   |   |   |   Month < 7.5
|   |   |   |   |   |   |   |   |   |   |   |   |   |   |   |   |   |   Longitude < -3.55 : Slight (6/0) [2/0]
|   |   |   |   |   |   |   |   |   |   |   |   |   |   |   |   |   |   Longitude >= -3.55
|   |   |   |   |   |   |   |   |   |   |   |   |   |   |   |   |   |   |   Time < 14.23 : Serious (4/0) [5/1]
|   |   |   |   |   |   |   |   |   |   |   |   |   |   |   |   |   |   |   Time >= 14.23
|   |   |   |   |   |   |   |   |   |   |   |   |   |   |   |   |   |   |   |   ID < 874686.5 : Serious (2/0) [3/1]
|   |   |   |   |   |   |   |   |   |   |   |   |   |   |   |   |   |   |   |   ID >= 874686.5 : Slight (6/0) [1/0]
|   |   |   |   |   |   |   |   |   |   |   |   |   |   |   |   |   Month >= 7.5 : Slight (18/0) [4/0]
|   |   |   |   |   |   |   |   |   |   |   Time >= 21.08 : Slight (23/0) [12/0]
|   |   |   |   |   |   |   |   |   |   ID >= 876591 : Serious (12/3) [4/1]
|   |   |   |   |   |   |   |   |   ?Accident_Index >= 503021.5 : Slight (13/0) [7/0]
|   |   |   |   |   |   |   ?Accident_Index >= 3400439
|   |   |   |   |   |   |   |   1st_Road_Class < 5.99
|   |   |   |   |   |   |   |   |   1st_Road_Class < 5.02
|   |   |   |   |   |   |   |   |   |   Longitude < 1.31
|   |   |   |   |   |   |   |   |   |   |   Did_Police_Officer_Attend_Scene_of_Accident < 1.03
|   |   |   |   |   |   |   |   |   |   |   |   1st_Road_Class < 3.05
|   |   |   |   |   |   |   |   |   |   |   |   |   Longitude < -3.93
|   |   |   |   |   |   |   |   |   |   |   |   |   |   Longitude < -3.95
|   |   |   |   |   |   |   |   |   |   |   |   |   |   |   Longitude < -4.24
|   |   |   |   |   |   |   |   |   |   |   |   |   |   |   |   Time < 23.17
|   |   |   |   |   |   |   |   |   |   |   |   |   |   |   |   |   Longitude < -5.07 : Slight (4/0) [2/0]
|   |   |   |   |   |   |   |   |   |   |   |   |   |   |   |   |   Longitude >= -5.07
|   |   |   |   |   |   |   |   |   |   |   |   |   |   |   |   |   |   ?Accident_Index < 9714506
|   |   |   |   |   |   |   |   |   |   |   |   |   |   |   |   |   |   |   ID < 901387
|   |   |   |   |   |   |   |   |   |   |   |   |   |   |   |   |   |   |   |   ?Accident_Index < 9705110.5
|   |   |   |   |   |   |   |   |   |   |   |   |   |   |   |   |   |   |   |   |   ID < 900372.5
|   |   |   |   |   |   |   |   |   |   |   |   |   |   |   |   |   |   |   |   |   |   ?Accident_Index < 9701453
|   |   |   |   |   |   |   |   |   |   |   |   |   |   |   |   |   |   |   |   |   |   |   ?Accident_Index < 9701004.5
|   |   |   |   |   |   |   |   |   |   |   |   |   |   |   |   |   |   |   |   |   |   |   |   ?Accident_Index < 6321559
|   |   |   |   |   |   |   |   |   |   |   |   |   |   |   |   |   |   |   |   |   |   |   |   |   Time < 15.79
|   |   |   |   |   |   |   |   |   |   |   |   |   |   |   |   |   |   |   |   |   |   |   |   |   |   ID < 891967 : Slight (3/0) [1/0]
|   |   |   |   |   |   |   |   |   |   |   |   |   |   |   |   |   |   |   |   |   |   |   |   |   |   ID >= 891967 : Serious (3/0) [1/0]
|   |   |   |   |   |   |   |   |   |   |   |   |   |   |   |   |   |   |   |   |   |   |   |   |   Time >= 15.79 : Serious (8/0) [4/0]
|   |   |   |   |   |   |   |   |   |   |   |   |   |   |   |   |   |   |   |   |   |   |   |   ?Accident_Index >= 6321559 : Slight (5/0) [6/0]
|   |   |   |   |   |   |   |   |   |   |   |   |   |   |   |   |   |   |   |   |   |   |   ?Accident_Index >= 9701004.5 : Serious (11/0) [2/1]
|   |   |   |   |   |   |   |   |   |   |   |   |   |   |   |   |   |   |   |   |   |   ?Accident_Index >= 9701453
|   |   |   |   |   |   |   |   |   |   |   |   |   |   |   |   |   |   |   |   |   |   |   ?Accident_Index < 9704304 : Slight (9/0) [6/0]
|   |   |   |   |   |   |   |   |   |   |   |   |   |   |   |   |   |   |   |   |   |   |   ?Accident_Index >= 9704304 : Serious (2/0) [3/1]
|   |   |   |   |   |   |   |   |   |   |   |   |   |   |   |   |   |   |   |   |   ID >= 900372.5 : Serious (33/4) [10/3]
|   |   |   |   |   |   |   |   |   |   |   |   |   |   |   |   |   |   |   |   ?Accident_Index >= 9705110.5 : Slight (3/0) [1/0]
|   |   |   |   |   |   |   |   |   |   |   |   |   |   |   |   |   |   |   ID >= 901387
|   |   |   |   |   |   |   |   |   |   |   |   |   |   |   |   |   |   |   |   Time < 11 : Serious (9/3) [2/0]
|   |   |   |   |   |   |   |   |   |   |   |   |   |   |   |   |   |   |   |   Time >= 11 : Slight (12/0) [2/0]
|   |   |   |   |   |   |   |   |   |   |   |   |   |   |   |   |   |   ?Accident_Index >= 9714506
|   |   |   |   |   |   |   |   |   |   |   |   |   |   |   |   |   |   |   ID < 886623 : Slight (2/0) [0/0]
|   |   |   |   |   |   |   |   |   |   |   |   |   |   |   |   |   |   |   ID >= 886623
|   |   |   |   |   |   |   |   |   |   |   |   |   |   |   |   |   |   |   |   Road_Surface_Conditions < 1.5 : Serious (23/0) [16/3]
|   |   |   |   |   |   |   |   |   |   |   |   |   |   |   |   |   |   |   |   Road_Surface_Conditions >= 1.5
|   |   |   |   |   |   |   |   |   |   |   |   |   |   |   |   |   |   |   |   |   ID < 900261.5 : Serious (10/0) [6/0]
|   |   |   |   |   |   |   |   |   |   |   |   |   |   |   |   |   |   |   |   |   ID >= 900261.5
|   |   |   |   |   |   |   |   |   |   |   |   |   |   |   |   |   |   |   |   |   |   Time < 2.93 : Serious (7/0) [2/1]
|   |   |   |   |   |   |   |   |   |   |   |   |   |   |   |   |   |   |   |   |   |   Time >= 2.93 : Slight (7/1) [8/4]
|   |   |   |   |   |   |   |   |   |   |   |   |   |   |   |   Time >= 23.17 : Slight (3/1) [1/0]
|   |   |   |   |   |   |   |   |   |   |   |   |   |   |   Longitude >= -4.24
|   |   |   |   |   |   |   |   |   |   |   |   |   |   |   |   Longitude < -4.22 : Slight (13/2) [1/0]
|   |   |   |   |   |   |   |   |   |   |   |   |   |   |   |   Longitude >= -4.22
|   |   |   |   |   |   |   |   |   |   |   |   |   |   |   |   |   Longitude < -4.18 : Serious (17/5) [13/1]
|   |   |   |   |   |   |   |   |   |   |   |   |   |   |   |   |   Longitude >= -4.18
|   |   |   |   |   |   |   |   |   |   |   |   |   |   |   |   |   |   Urban_or_Rural_Area < 1.5
|   |   |   |   |   |   |   |   |   |   |   |   |   |   |   |   |   |   |   Month < 9.5
|   |   |   |   |   |   |   |   |   |   |   |   |   |   |   |   |   |   |   |   Longitude < -3.97
|   |   |   |   |   |   |   |   |   |   |   |   |   |   |   |   |   |   |   |   |   Month < 8.5
|   |   |   |   |   |   |   |   |   |   |   |   |   |   |   |   |   |   |   |   |   |   ?Accident_Index < 9701206.5 : Slight (5/0) [2/0]
|   |   |   |   |   |   |   |   |   |   |   |   |   |   |   |   |   |   |   |   |   |   ?Accident_Index >= 9701206.5
|   |   |   |   |   |   |   |   |   |   |   |   |   |   |   |   |   |   |   |   |   |   |   Longitude < -4.04 : Slight (3/0) [1/0]
|   |   |   |   |   |   |   |   |   |   |   |   |   |   |   |   |   |   |   |   |   |   |   Longitude >= -4.04
|   |   |   |   |   |   |   |   |   |   |   |   |   |   |   |   |   |   |   |   |   |   |   |   Longitude < -4 : Serious (12/0) [4/0]
|   |   |   |   |   |   |   |   |   |   |   |   |   |   |   |   |   |   |   |   |   |   |   |   Longitude >= -4
|   |   |   |   |   |   |   |   |   |   |   |   |   |   |   |   |   |   |   |   |   |   |   |   |   ?Accident_Index < 9702656.5 : Serious (2/0) [2/0]
|   |   |   |   |   |   |   |   |   |   |   |   |   |   |   |   |   |   |   |   |   |   |   |   |   ?Accident_Index >= 9702656.5 : Slight (4/0) [1/0]
|   |   |   |   |   |   |   |   |   |   |   |   |   |   |   |   |   |   |   |   |   Month >= 8.5 : Serious (9/0) [4/1]
|   |   |   |   |   |   |   |   |   |   |   |   |   |   |   |   |   |   |   |   Longitude >= -3.97 : Slight (5/0) [1/0]
|   |   |   |   |   |   |   |   |   |   |   |   |   |   |   |   |   |   |   Month >= 9.5 : Slight (8/0) [2/0]
|   |   |   |   |   |   |   |   |   |   |   |   |   |   |   |   |   |   Urban_or_Rural_Area >= 1.5 : Slight (18/1) [6/3]
|   |   |   |   |   |   |   |   |   |   |   |   |   |   Longitude >= -3.95 : Fatal (10/3) [3/1]
|   |   |   |   |   |   |   |   |   |   |   |   |   Longitude >= -3.93
|   |   |   |   |   |   |   |   |   |   |   |   |   |   Junction_Control < -0.5
|   |   |   |   |   |   |   |   |   |   |   |   |   |   |   Month < 4.5
|   |   |   |   |   |   |   |   |   |   |   |   |   |   |   |   Longitude < -3.06
|   |   |   |   |   |   |   |   |   |   |   |   |   |   |   |   |   Longitude < -3.59
|   |   |   |   |   |   |   |   |   |   |   |   |   |   |   |   |   |   ID < 898588
|   |   |   |   |   |   |   |   |   |   |   |   |   |   |   |   |   |   |   ID < 888887.5 : Slight (2/0) [1/0]
|   |   |   |   |   |   |   |   |   |   |   |   |   |   |   |   |   |   |   ID >= 888887.5
|   |   |   |   |   |   |   |   |   |   |   |   |   |   |   |   |   |   |   |   Longitude < -3.66
|   |   |   |   |   |   |   |   |   |   |   |   |   |   |   |   |   |   |   |   |   ID < 897640.5 : Slight (2/0) [1/0]
|   |   |   |   |   |   |   |   |   |   |   |   |   |   |   |   |   |   |   |   |   ID >= 897640.5 : Serious (2/0) [3/1]
|   |   |   |   |   |   |   |   |   |   |   |   |   |   |   |   |   |   |   |   Longitude >= -3.66 : Serious (5/0) [3/0]
|   |   |   |   |   |   |   |   |   |   |   |   |   |   |   |   |   |   ID >= 898588 : Slight (4/0) [2/0]
|   |   |   |   |   |   |   |   |   |   |   |   |   |   |   |   |   Longitude >= -3.59 : Slight (15/0) [3/0]
|   |   |   |   |   |   |   |   |   |   |   |   |   |   |   |   Longitude >= -3.06
|   |   |   |   |   |   |   |   |   |   |   |   |   |   |   |   |   Longitude < -0.21
|   |   |   |   |   |   |   |   |   |   |   |   |   |   |   |   |   |   Road_Surface_Conditions < 2.5
|   |   |   |   |   |   |   |   |   |   |   |   |   |   |   |   |   |   |   Longitude < -2.9 : Serious (10/0) [4/2]
|   |   |   |   |   |   |   |   |   |   |   |   |   |   |   |   |   |   |   Longitude >= -2.9
|   |   |   |   |   |   |   |   |   |   |   |   |   |   |   |   |   |   |   |   ID < 877446.5
|   |   |   |   |   |   |   |   |   |   |   |   |   |   |   |   |   |   |   |   |   Urban_or_Rural_Area < 1.5
|   |   |   |   |   |   |   |   |   |   |   |   |   |   |   |   |   |   |   |   |   |   ?Accident_Index < 20024651.5 : Serious (37/8) [12/1]
|   |   |   |   |   |   |   |   |   |   |   |   |   |   |   |   |   |   |   |   |   |   ?Accident_Index >= 20024651.5
|   |   |   |   |   |   |   |   |   |   |   |   |   |   |   |   |   |   |   |   |   |   |   Time < 14.83
|   |   |   |   |   |   |   |   |   |   |   |   |   |   |   |   |   |   |   |   |   |   |   |   ID < 812436 : Slight (6/0) [1/0]
|   |   |   |   |   |   |   |   |   |   |   |   |   |   |   |   |   |   |   |   |   |   |   |   ID >= 812436
|   |   |   |   |   |   |   |   |   |   |   |   |   |   |   |   |   |   |   |   |   |   |   |   |   Longitude < -0.51 : Serious (31/4) [23/2]
|   |   |   |   |   |   |   |   |   |   |   |   |   |   |   |   |   |   |   |   |   |   |   |   |   Longitude >= -0.51 : Slight (2/0) [1/0]
|   |   |   |   |   |   |   |   |   |   |   |   |   |   |   |   |   |   |   |   |   |   |   Time >= 14.83
|   |   |   |   |   |   |   |   |   |   |   |   |   |   |   |   |   |   |   |   |   |   |   |   ID < 876997.5 : Slight (17/1) [8/3]
|   |   |   |   |   |   |   |   |   |   |   |   |   |   |   |   |   |   |   |   |   |   |   |   ID >= 876997.5 : Serious (2/0) [6/0]
|   |   |   |   |   |   |   |   |   |   |   |   |   |   |   |   |   |   |   |   |   Urban_or_Rural_Area >= 1.5
|   |   |   |   |   |   |   |   |   |   |   |   |   |   |   |   |   |   |   |   |   |   Light_Conditions < 2.5
|   |   |   |   |   |   |   |   |   |   |   |   |   |   |   |   |   |   |   |   |   |   |   Road_Surface_Conditions < 1.5
|   |   |   |   |   |   |   |   |   |   |   |   |   |   |   |   |   |   |   |   |   |   |   |   Time < 17.29 : Serious (20/1) [6/1]
|   |   |   |   |   |   |   |   |   |   |   |   |   |   |   |   |   |   |   |   |   |   |   |   Time >= 17.29 : Slight (2/0) [1/0]
|   |   |   |   |   |   |   |   |   |   |   |   |   |   |   |   |   |   |   |   |   |   |   Road_Surface_Conditions >= 1.5 : Slight (3/0) [0/0]
|   |   |   |   |   |   |   |   |   |   |   |   |   |   |   |   |   |   |   |   |   |   Light_Conditions >= 2.5 : Serious (21/0) [10/7]
|   |   |   |   |   |   |   |   |   |   |   |   |   |   |   |   |   |   |   |   ID >= 877446.5
|   |   |   |   |   |   |   |   |   |   |   |   |   |   |   |   |   |   |   |   |   Longitude < -2.52
|   |   |   |   |   |   |   |   |   |   |   |   |   |   |   |   |   |   |   |   |   |   Road_Surface_Conditions < 1.5 : Serious (4/1) [7/2]
|   |   |   |   |   |   |   |   |   |   |   |   |   |   |   |   |   |   |   |   |   |   Road_Surface_Conditions >= 1.5 : Slight (3/0) [0/0]
|   |   |   |   |   |   |   |   |   |   |   |   |   |   |   |   |   |   |   |   |   Longitude >= -2.52 : Slight (6/0) [2/0]
|   |   |   |   |   |   |   |   |   |   |   |   |   |   |   |   |   |   Road_Surface_Conditions >= 2.5
|   |   |   |   |   |   |   |   |   |   |   |   |   |   |   |   |   |   |   ID < 808442 : Serious (3/0) [1/0]
|   |   |   |   |   |   |   |   |   |   |   |   |   |   |   |   |   |   |   ID >= 808442 : Slight (9/2) [7/3]
|   |   |   |   |   |   |   |   |   |   |   |   |   |   |   |   |   Longitude >= -0.21
|   |   |   |   |   |   |   |   |   |   |   |   |   |   |   |   |   |   Longitude < 0.53 : Slight (11/0) [7/1]
|   |   |   |   |   |   |   |   |   |   |   |   |   |   |   |   |   |   Longitude >= 0.53
|   |   |   |   |   |   |   |   |   |   |   |   |   |   |   |   |   |   |   Time < 12.99 : Serious (5/0) [5/2]
|   |   |   |   |   |   |   |   |   |   |   |   |   |   |   |   |   |   |   Time >= 12.99
|   |   |   |   |   |   |   |   |   |   |   |   |   |   |   |   |   |   |   |   ID < 863538 : Slight (5/0) [1/0]
|   |   |   |   |   |   |   |   |   |   |   |   |   |   |   |   |   |   |   |   ID >= 863538 : Serious (6/2) [4/0]
|   |   |   |   |   |   |   |   |   |   |   |   |   |   |   Month >= 4.5
|   |   |   |   |   |   |   |   |   |   |   |   |   |   |   |   Longitude < 0.9
|   |   |   |   |   |   |   |   |   |   |   |   |   |   |   |   |   ?Accident_Index < 20140851.5
|   |   |   |   |   |   |   |   |   |   |   |   |   |   |   |   |   |   ID < 862268
|   |   |   |   |   |   |   |   |   |   |   |   |   |   |   |   |   |   |   Longitude < -0.3
|   |   |   |   |   |   |   |   |   |   |   |   |   |   |   |   |   |   |   |   ?Accident_Index < 20041801.5
|   |   |   |   |   |   |   |   |   |   |   |   |   |   |   |   |   |   |   |   |   ?Accident_Index < 3440389 : Slight (8/0) [0/0]
|   |   |   |   |   |   |   |   |   |   |   |   |   |   |   |   |   |   |   |   |   ?Accident_Index >= 3440389
|   |   |   |   |   |   |   |   |   |   |   |   |   |   |   |   |   |   |   |   |   |   Time < 2.43 : Slight (5/0) [1/0]
|   |   |   |   |   |   |   |   |   |   |   |   |   |   |   |   |   |   |   |   |   |   Time >= 2.43
|   |   |   |   |   |   |   |   |   |   |   |   |   |   |   |   |   |   |   |   |   |   |   ID < 803281 : Slight (4/0) [2/0]
|   |   |   |   |   |   |   |   |   |   |   |   |   |   |   |   |   |   |   |   |   |   |   ID >= 803281
|   |   |   |   |   |   |   |   |   |   |   |   |   |   |   |   |   |   |   |   |   |   |   |   Urban_or_Rural_Area < 1.5
|   |   |   |   |   |   |   |   |   |   |   |   |   |   |   |   |   |   |   |   |   |   |   |   |   ID < 859533
|   |   |   |   |   |   |   |   |   |   |   |   |   |   |   |   |   |   |   |   |   |   |   |   |   |   ID < 858621.5
|   |   |   |   |   |   |   |   |   |   |   |   |   |   |   |   |   |   |   |   |   |   |   |   |   |   |   ID < 809064
|   |   |   |   |   |   |   |   |   |   |   |   |   |   |   |   |   |   |   |   |   |   |   |   |   |   |   |   Time < 5.71 : Serious (2/0) [2/0]
|   |   |   |   |   |   |   |   |   |   |   |   |   |   |   |   |   |   |   |   |   |   |   |   |   |   |   |   Time >= 5.71 : Slight (3/0) [2/0]
|   |   |   |   |   |   |   |   |   |   |   |   |   |   |   |   |   |   |   |   |   |   |   |   |   |   |   ID >= 809064 : Serious (10/0) [11/1]
|   |   |   |   |   |   |   |   |   |   |   |   |   |   |   |   |   |   |   |   |   |   |   |   |   |   ID >= 858621.5 : Slight (3/0) [4/0]
|   |   |   |   |   |   |   |   |   |   |   |   |   |   |   |   |   |   |   |   |   |   |   |   |   ID >= 859533 : Serious (10/0) [7/1]
|   |   |   |   |   |   |   |   |   |   |   |   |   |   |   |   |   |   |   |   |   |   |   |   Urban_or_Rural_Area >= 1.5
|   |   |   |   |   |   |   |   |   |   |   |   |   |   |   |   |   |   |   |   |   |   |   |   |   ID < 859276 : Serious (6/1) [6/3]
|   |   |   |   |   |   |   |   |   |   |   |   |   |   |   |   |   |   |   |   |   |   |   |   |   ID >= 859276 : Slight (6/0) [0/0]
|   |   |   |   |   |   |   |   |   |   |   |   |   |   |   |   |   |   |   |   ?Accident_Index >= 20041801.5
|   |   |   |   |   |   |   |   |   |   |   |   |   |   |   |   |   |   |   |   |   Time < 19.06 : Slight (18/0) [8/0]
|   |   |   |   |   |   |   |   |   |   |   |   |   |   |   |   |   |   |   |   |   Time >= 19.06
|   |   |   |   |   |   |   |   |   |   |   |   |   |   |   |   |   |   |   |   |   |   Time < 19.49 : Serious (4/0) [4/0]
|   |   |   |   |   |   |   |   |   |   |   |   |   |   |   |   |   |   |   |   |   |   Time >= 19.49 : Slight (5/0) [2/0]
|   |   |   |   |   |   |   |   |   |   |   |   |   |   |   |   |   |   |   Longitude >= -0.3 : Slight (9/0) [2/0]
|   |   |   |   |   |   |   |   |   |   |   |   |   |   |   |   |   |   ID >= 862268 : Slight (12/0) [5/1]
|   |   |   |   |   |   |   |   |   |   |   |   |   |   |   |   |   ?Accident_Index >= 20140851.5
|   |   |   |   |   |   |   |   |   |   |   |   |   |   |   |   |   |   Time < 14.79
|   |   |   |   |   |   |   |   |   |   |   |   |   |   |   |   |   |   |   Longitude < -1.07
|   |   |   |   |   |   |   |   |   |   |   |   |   |   |   |   |   |   |   |   Time < 13.38
|   |   |   |   |   |   |   |   |   |   |   |   |   |   |   |   |   |   |   |   |   ID < 896974
|   |   |   |   |   |   |   |   |   |   |   |   |   |   |   |   |   |   |   |   |   |   Time < 11.04
|   |   |   |   |   |   |   |   |   |   |   |   |   |   |   |   |   |   |   |   |   |   |   Longitude < -1.27
|   |   |   |   |   |   |   |   |   |   |   |   |   |   |   |   |   |   |   |   |   |   |   |   Month < 8.5 : Serious (47/13) [18/4]
|   |   |   |   |   |   |   |   |   |   |   |   |   |   |   |   |   |   |   |   |   |   |   |   Month >= 8.5
|   |   |   |   |   |   |   |   |   |   |   |   |   |   |   |   |   |   |   |   |   |   |   |   |   Time < 2.02 : Serious (13/2) [9/4]
|   |   |   |   |   |   |   |   |   |   |   |   |   |   |   |   |   |   |   |   |   |   |   |   |   Time >= 2.02
|   |   |   |   |   |   |   |   |   |   |   |   |   |   |   |   |   |   |   |   |   |   |   |   |   |   ?Accident_Index < 20237802.5 : Serious (6/2) [0/0]
|   |   |   |   |   |   |   |   |   |   |   |   |   |   |   |   |   |   |   |   |   |   |   |   |   |   ?Accident_Index >= 20237802.5
|   |   |   |   |   |   |   |   |   |   |   |   |   |   |   |   |   |   |   |   |   |   |   |   |   |   |   Longitude < -3.33
|   |   |   |   |   |   |   |   |   |   |   |   |   |   |   |   |   |   |   |   |   |   |   |   |   |   |   |   Longitude < -3.44 : Slight (3/0) [1/0]
|   |   |   |   |   |   |   |   |   |   |   |   |   |   |   |   |   |   |   |   |   |   |   |   |   |   |   |   Longitude >= -3.44 : Serious (2/0) [2/0]
|   |   |   |   |   |   |   |   |   |   |   |   |   |   |   |   |   |   |   |   |   |   |   |   |   |   |   Longitude >= -3.33 : Slight (14/0) [11/0]
|   |   |   |   |   |   |   |   |   |   |   |   |   |   |   |   |   |   |   |   |   |   |   Longitude >= -1.27 : Slight (6/0) [0/0]
|   |   |   |   |   |   |   |   |   |   |   |   |   |   |   |   |   |   |   |   |   |   Time >= 11.04
|   |   |   |   |   |   |   |   |   |   |   |   |   |   |   |   |   |   |   |   |   |   |   Longitude < -1.6
|   |   |   |   |   |   |   |   |   |   |   |   |   |   |   |   |   |   |   |   |   |   |   |   Month < 9.5
|   |   |   |   |   |   |   |   |   |   |   |   |   |   |   |   |   |   |   |   |   |   |   |   |   Longitude < -3.1 : Slight (2/0) [1/0]
|   |   |   |   |   |   |   |   |   |   |   |   |   |   |   |   |   |   |   |   |   |   |   |   |   Longitude >= -3.1 : Serious (23/4) [5/0]
|   |   |   |   |   |   |   |   |   |   |   |   |   |   |   |   |   |   |   |   |   |   |   |   Month >= 9.5 : Slight (3/0) [3/0]
|   |   |   |   |   |   |   |   |   |   |   |   |   |   |   |   |   |   |   |   |   |   |   Longitude >= -1.6 : Serious (16/0) [4/0]
|   |   |   |   |   |   |   |   |   |   |   |   |   |   |   |   |   |   |   |   |   ID >= 896974 : Slight (8/0) [5/0]
|   |   |   |   |   |   |   |   |   |   |   |   |   |   |   |   |   |   |   |   Time >= 13.38 : Slight (10/0) [8/0]
|   |   |   |   |   |   |   |   |   |   |   |   |   |   |   |   |   |   |   Longitude >= -1.07
|   |   |   |   |   |   |   |   |   |   |   |   |   |   |   |   |   |   |   |   Month < 9.5 : Slight (12/0) [4/0]
|   |   |   |   |   |   |   |   |   |   |   |   |   |   |   |   |   |   |   |   Month >= 9.5
|   |   |   |   |   |   |   |   |   |   |   |   |   |   |   |   |   |   |   |   |   Time < 2.98 : Serious (5/1) [5/1]
|   |   |   |   |   |   |   |   |   |   |   |   |   |   |   |   |   |   |   |   |   Time >= 2.98
|   |   |   |   |   |   |   |   |   |   |   |   |   |   |   |   |   |   |   |   |   |   Time < 13.16 : Slight (9/0) [3/0]
|   |   |   |   |   |   |   |   |   |   |   |   |   |   |   |   |   |   |   |   |   |   Time >= 13.16
|   |   |   |   |   |   |   |   |   |   |   |   |   |   |   |   |   |   |   |   |   |   |   ID < 862463.5 : Serious (2/0) [2/0]
|   |   |   |   |   |   |   |   |   |   |   |   |   |   |   |   |   |   |   |   |   |   |   ID >= 862463.5 : Slight (2/0) [0/0]
|   |   |   |   |   |   |   |   |   |   |   |   |   |   |   |   |   |   Time >= 14.79
|   |   |   |   |   |   |   |   |   |   |   |   |   |   |   |   |   |   |   ?Accident_Index < 32307309
|   |   |   |   |   |   |   |   |   |   |   |   |   |   |   |   |   |   |   |   Longitude < -1.47
|   |   |   |   |   |   |   |   |   |   |   |   |   |   |   |   |   |   |   |   |   Month < 6.5 : Slight (5/0) [1/0]
|   |   |   |   |   |   |   |   |   |   |   |   |   |   |   |   |   |   |   |   |   Month >= 6.5
|   |   |   |   |   |   |   |   |   |   |   |   |   |   |   |   |   |   |   |   |   |   Time < 21.91
|   |   |   |   |   |   |   |   |   |   |   |   |   |   |   |   |   |   |   |   |   |   |   Light_Conditions < 2.5 : Serious (9/1) [7/3]
|   |   |   |   |   |   |   |   |   |   |   |   |   |   |   |   |   |   |   |   |   |   |   Light_Conditions >= 2.5
|   |   |   |   |   |   |   |   |   |   |   |   |   |   |   |   |   |   |   |   |   |   |   |   ID < 818777 : Slight (6/0) [2/0]
|   |   |   |   |   |   |   |   |   |   |   |   |   |   |   |   |   |   |   |   |   |   |   |   ID >= 818777 : Serious (2/0) [2/0]
|   |   |   |   |   |   |   |   |   |   |   |   |   |   |   |   |   |   |   |   |   |   Time >= 21.91 : Serious (5/0) [5/2]
|   |   |   |   |   |   |   |   |   |   |   |   |   |   |   |   |   |   |   |   Longitude >= -1.47 : Slight (15/0) [7/0]
|   |   |   |   |   |   |   |   |   |   |   |   |   |   |   |   |   |   |   ?Accident_Index >= 32307309
|   |   |   |   |   |   |   |   |   |   |   |   |   |   |   |   |   |   |   |   ID < 834819.5
|   |   |   |   |   |   |   |   |   |   |   |   |   |   |   |   |   |   |   |   |   Longitude < -0.91
|   |   |   |   |   |   |   |   |   |   |   |   |   |   |   |   |   |   |   |   |   |   ID < 819276.5
|   |   |   |   |   |   |   |   |   |   |   |   |   |   |   |   |   |   |   |   |   |   |   Road_Surface_Conditions < 1.5 : Serious (7/0) [5/4]
|   |   |   |   |   |   |   |   |   |   |   |   |   |   |   |   |   |   |   |   |   |   |   Road_Surface_Conditions >= 1.5 : Slight (2/0) [1/0]
|   |   |   |   |   |   |   |   |   |   |   |   |   |   |   |   |   |   |   |   |   |   ID >= 819276.5 : Slight (3/0) [4/0]
|   |   |   |   |   |   |   |   |   |   |   |   |   |   |   |   |   |   |   |   |   Longitude >= -0.91 : Serious (15/0) [1/0]
|   |   |   |   |   |   |   |   |   |   |   |   |   |   |   |   |   |   |   |   ID >= 834819.5
|   |   |   |   |   |   |   |   |   |   |   |   |   |   |   |   |   |   |   |   |   Time < 16.32
|   |   |   |   |   |   |   |   |   |   |   |   |   |   |   |   |   |   |   |   |   |   ?Accident_Index < 43158074 : Serious (13/0) [3/0]
|   |   |   |   |   |   |   |   |   |   |   |   |   |   |   |   |   |   |   |   |   |   ?Accident_Index >= 43158074
|   |   |   |   |   |   |   |   |   |   |   |   |   |   |   |   |   |   |   |   |   |   |   ID < 890099 : Slight (17/7) [9/4]
|   |   |   |   |   |   |   |   |   |   |   |   |   |   |   |   |   |   |   |   |   |   |   ID >= 890099 : Serious (14/2) [9/1]
|   |   |   |   |   |   |   |   |   |   |   |   |   |   |   |   |   |   |   |   |   Time >= 16.32
|   |   |   |   |   |   |   |   |   |   |   |   |   |   |   |   |   |   |   |   |   |   ID < 866297.5
|   |   |   |   |   |   |   |   |   |   |   |   |   |   |   |   |   |   |   |   |   |   |   Time < 20.09 : Slight (20/2) [3/0]
|   |   |   |   |   |   |   |   |   |   |   |   |   |   |   |   |   |   |   |   |   |   |   Time >= 20.09
|   |   |   |   |   |   |   |   |   |   |   |   |   |   |   |   |   |   |   |   |   |   |   |   Month < 10.5 : Slight (4/0) [2/0]
|   |   |   |   |   |   |   |   |   |   |   |   |   |   |   |   |   |   |   |   |   |   |   |   Month >= 10.5 : Serious (3/0) [7/2]
|   |   |   |   |   |   |   |   |   |   |   |   |   |   |   |   |   |   |   |   |   |   ID >= 866297.5
|   |   |   |   |   |   |   |   |   |   |   |   |   |   |   |   |   |   |   |   |   |   |   Longitude < -0.95
|   |   |   |   |   |   |   |   |   |   |   |   |   |   |   |   |   |   |   |   |   |   |   |   Longitude < -3.16
|   |   |   |   |   |   |   |   |   |   |   |   |   |   |   |   |   |   |   |   |   |   |   |   |   ID < 889873.5 : Slight (4/0) [4/0]
|   |   |   |   |   |   |   |   |   |   |   |   |   |   |   |   |   |   |   |   |   |   |   |   |   ID >= 889873.5 : Serious (17/5) [7/3]
|   |   |   |   |   |   |   |   |   |   |   |   |   |   |   |   |   |   |   |   |   |   |   |   Longitude >= -3.16 : Slight (13/1) [8/1]
|   |   |   |   |   |   |   |   |   |   |   |   |   |   |   |   |   |   |   |   |   |   |   Longitude >= -0.95 : Serious (13/2) [6/1]
|   |   |   |   |   |   |   |   |   |   |   |   |   |   |   |   Longitude >= 0.9 : Slight (14/0) [2/0]
|   |   |   |   |   |   |   |   |   |   |   |   |   |   Junction_Control >= -0.5
|   |   |   |   |   |   |   |   |   |   |   |   |   |   |   ID < 817680.5
|   |   |   |   |   |   |   |   |   |   |   |   |   |   |   |   2nd_Road_Number < 52.5
|   |   |   |   |   |   |   |   |   |   |   |   |   |   |   |   |   2nd_Road_Number < 38.5
|   |   |   |   |   |   |   |   |   |   |   |   |   |   |   |   |   |   Road_Surface_Conditions < 2.5
|   |   |   |   |   |   |   |   |   |   |   |   |   |   |   |   |   |   |   Road_Surface_Conditions < 1.5
|   |   |   |   |   |   |   |   |   |   |   |   |   |   |   |   |   |   |   |   Time < 14.18
|   |   |   |   |   |   |   |   |   |   |   |   |   |   |   |   |   |   |   |   |   Time < 1.26 : Slight (5/0) [1/1]
|   |   |   |   |   |   |   |   |   |   |   |   |   |   |   |   |   |   |   |   |   Time >= 1.26
|   |   |   |   |   |   |   |   |   |   |   |   |   |   |   |   |   |   |   |   |   |   ID < 812725.5
|   |   |   |   |   |   |   |   |   |   |   |   |   |   |   |   |   |   |   |   |   |   |   ID < 808699
|   |   |   |   |   |   |   |   |   |   |   |   |   |   |   |   |   |   |   |   |   |   |   |   Month < 4.5 : Slight (4/0) [1/0]
|   |   |   |   |   |   |   |   |   |   |   |   |   |   |   |   |   |   |   |   |   |   |   |   Month >= 4.5
|   |   |   |   |   |   |   |   |   |   |   |   |   |   |   |   |   |   |   |   |   |   |   |   |   Time < 1.97 : Serious (9/0) [8/1]
|   |   |   |   |   |   |   |   |   |   |   |   |   |   |   |   |   |   |   |   |   |   |   |   |   Time >= 1.97
|   |   |   |   |   |   |   |   |   |   |   |   |   |   |   |   |   |   |   |   |   |   |   |   |   |   Time < 9.13
|   |   |   |   |   |   |   |   |   |   |   |   |   |   |   |   |   |   |   |   |   |   |   |   |   |   |   Road_Type < 4.5 : Serious (3/1) [2/0]
|   |   |   |   |   |   |   |   |   |   |   |   |   |   |   |   |   |   |   |   |   |   |   |   |   |   |   Road_Type >= 4.5 : Slight (6/0) [3/0]
|   |   |   |   |   |   |   |   |   |   |   |   |   |   |   |   |   |   |   |   |   |   |   |   |   |   Time >= 9.13
|   |   |   |   |   |   |   |   |   |   |   |   |   |   |   |   |   |   |   |   |   |   |   |   |   |   |   ID < 800953.5 : Serious (10/0) [8/2]
|   |   |   |   |   |   |   |   |   |   |   |   |   |   |   |   |   |   |   |   |   |   |   |   |   |   |   ID >= 800953.5
|   |   |   |   |   |   |   |   |   |   |   |   |   |   |   |   |   |   |   |   |   |   |   |   |   |   |   |   ID < 801393 : Slight (2/0) [0/0]
|   |   |   |   |   |   |   |   |   |   |   |   |   |   |   |   |   |   |   |   |   |   |   |   |   |   |   |   ID >= 801393
|   |   |   |   |   |   |   |   |   |   |   |   |   |   |   |   |   |   |   |   |   |   |   |   |   |   |   |   |   Time < 12.42
|   |   |   |   |   |   |   |   |   |   |   |   |   |   |   |   |   |   |   |   |   |   |   |   |   |   |   |   |   |   ID < 807261.5 : Slight (3/0) [1/0]
|   |   |   |   |   |   |   |   |   |   |   |   |   |   |   |   |   |   |   |   |   |   |   |   |   |   |   |   |   |   ID >= 807261.5 : Serious (4/0) [0/0]
|   |   |   |   |   |   |   |   |   |   |   |   |   |   |   |   |   |   |   |   |   |   |   |   |   |   |   |   |   Time >= 12.42 : Serious (6/0) [2/0]
|   |   |   |   |   |   |   |   |   |   |   |   |   |   |   |   |   |   |   |   |   |   |   ID >= 808699 : Serious (9/0) [5/2]
|   |   |   |   |   |   |   |   |   |   |   |   |   |   |   |   |   |   |   |   |   |   ID >= 812725.5 : Slight (4/0) [1/0]
|   |   |   |   |   |   |   |   |   |   |   |   |   |   |   |   |   |   |   |   Time >= 14.18
|   |   |   |   |   |   |   |   |   |   |   |   |   |   |   |   |   |   |   |   |   Junction_Control < 3 : Slight (10/0) [3/1]
|   |   |   |   |   |   |   |   |   |   |   |   |   |   |   |   |   |   |   |   |   Junction_Control >= 3
|   |   |   |   |   |   |   |   |   |   |   |   |   |   |   |   |   |   |   |   |   |   Time < 20.51
|   |   |   |   |   |   |   |   |   |   |   |   |   |   |   |   |   |   |   |   |   |   |   Time < 19.3
|   |   |   |   |   |   |   |   |   |   |   |   |   |   |   |   |   |   |   |   |   |   |   |   Month < 4.5 : Slight (8/0) [9/1]
|   |   |   |   |   |   |   |   |   |   |   |   |   |   |   |   |   |   |   |   |   |   |   |   Month >= 4.5
|   |   |   |   |   |   |   |   |   |   |   |   |   |   |   |   |   |   |   |   |   |   |   |   |   ID < 799503.5 : Serious (4/0) [5/1]
|   |   |   |   |   |   |   |   |   |   |   |   |   |   |   |   |   |   |   |   |   |   |   |   |   ID >= 799503.5
|   |   |   |   |   |   |   |   |   |   |   |   |   |   |   |   |   |   |   |   |   |   |   |   |   |   ?Accident_Index < 22905419.5
|   |   |   |   |   |   |   |   |   |   |   |   |   |   |   |   |   |   |   |   |   |   |   |   |   |   |   Longitude < -1.39 : Slight (14/0) [7/0]
|   |   |   |   |   |   |   |   |   |   |   |   |   |   |   |   |   |   |   |   |   |   |   |   |   |   |   Longitude >= -1.39 : Serious (4/1) [6/1]
|   |   |   |   |   |   |   |   |   |   |   |   |   |   |   |   |   |   |   |   |   |   |   |   |   |   ?Accident_Index >= 22905419.5 : Serious (5/1) [5/1]
|   |   |   |   |   |   |   |   |   |   |   |   |   |   |   |   |   |   |   |   |   |   |   Time >= 19.3 : Serious (8/1) [2/1]
|   |   |   |   |   |   |   |   |   |   |   |   |   |   |   |   |   |   |   |   |   |   Time >= 20.51 : Slight (6/0) [0/0]
|   |   |   |   |   |   |   |   |   |   |   |   |   |   |   |   |   |   |   Road_Surface_Conditions >= 1.5
|   |   |   |   |   |   |   |   |   |   |   |   |   |   |   |   |   |   |   |   2nd_Road_Number < 3
|   |   |   |   |   |   |   |   |   |   |   |   |   |   |   |   |   |   |   |   |   Light_Conditions < 2.5
|   |   |   |   |   |   |   |   |   |   |   |   |   |   |   |   |   |   |   |   |   |   ID < 808741
|   |   |   |   |   |   |   |   |   |   |   |   |   |   |   |   |   |   |   |   |   |   |   Longitude < -0.26 : Slight (9/2) [2/0]
|   |   |   |   |   |   |   |   |   |   |   |   |   |   |   |   |   |   |   |   |   |   |   Longitude >= -0.26 : Serious (3/0) [1/0]
|   |   |   |   |   |   |   |   |   |   |   |   |   |   |   |   |   |   |   |   |   |   ID >= 808741 : Serious (4/0) [8/0]
|   |   |   |   |   |   |   |   |   |   |   |   |   |   |   |   |   |   |   |   |   Light_Conditions >= 2.5
|   |   |   |   |   |   |   |   |   |   |   |   |   |   |   |   |   |   |   |   |   |   Longitude < -2.2 : Slight (2/0) [0/0]
|   |   |   |   |   |   |   |   |   |   |   |   |   |   |   |   |   |   |   |   |   |   Longitude >= -2.2
|   |   |   |   |   |   |   |   |   |   |   |   |   |   |   |   |   |   |   |   |   |   |   Month < 2.5 : Serious (11/0) [9/4]
|   |   |   |   |   |   |   |   |   |   |   |   |   |   |   |   |   |   |   |   |   |   |   Month >= 2.5
|   |   |   |   |   |   |   |   |   |   |   |   |   |   |   |   |   |   |   |   |   |   |   |   ?Accident_Index < 14167509 : Slight (3/0) [1/0]
|   |   |   |   |   |   |   |   |   |   |   |   |   |   |   |   |   |   |   |   |   |   |   |   ?Accident_Index >= 14167509 : Serious (24/4) [5/1]
|   |   |   |   |   |   |   |   |   |   |   |   |   |   |   |   |   |   |   |   2nd_Road_Number >= 3 : Slight (4/0) [2/0]
|   |   |   |   |   |   |   |   |   |   |   |   |   |   |   |   |   |   Road_Surface_Conditions >= 2.5 : Slight (10/1) [3/3]
|   |   |   |   |   |   |   |   |   |   |   |   |   |   |   |   |   2nd_Road_Number >= 38.5
|   |   |   |   |   |   |   |   |   |   |   |   |   |   |   |   |   |   Time < 13.04 : Slight (2/0) [1/0]
|   |   |   |   |   |   |   |   |   |   |   |   |   |   |   |   |   |   Time >= 13.04 : Serious (16/1) [7/2]
|   |   |   |   |   |   |   |   |   |   |   |   |   |   |   |   2nd_Road_Number >= 52.5
|   |   |   |   |   |   |   |   |   |   |   |   |   |   |   |   |   2nd_Road_Number < 455 : Slight (21/0) [12/0]
|   |   |   |   |   |   |   |   |   |   |   |   |   |   |   |   |   2nd_Road_Number >= 455
|   |   |   |   |   |   |   |   |   |   |   |   |   |   |   |   |   |   2nd_Road_Number < 460.5 : Serious (5/0) [3/0]
|   |   |   |   |   |   |   |   |   |   |   |   |   |   |   |   |   |   2nd_Road_Number >= 460.5
|   |   |   |   |   |   |   |   |   |   |   |   |   |   |   |   |   |   |   2nd_Road_Number < 4143.5 : Slight (10/0) [8/0]
|   |   |   |   |   |   |   |   |   |   |   |   |   |   |   |   |   |   |   2nd_Road_Number >= 4143.5
|   |   |   |   |   |   |   |   |   |   |   |   |   |   |   |   |   |   |   |   Road_Surface_Conditions < 1.5 : Serious (16/7) [9/2]
|   |   |   |   |   |   |   |   |   |   |   |   |   |   |   |   |   |   |   |   Road_Surface_Conditions >= 1.5 : Slight (7/0) [0/0]
|   |   |   |   |   |   |   |   |   |   |   |   |   |   |   ID >= 817680.5
|   |   |   |   |   |   |   |   |   |   |   |   |   |   |   |   Longitude < -0.87
|   |   |   |   |   |   |   |   |   |   |   |   |   |   |   |   |   ?Accident_Index < 520904731
|   |   |   |   |   |   |   |   |   |   |   |   |   |   |   |   |   |   ?Accident_Index < 520903724
|   |   |   |   |   |   |   |   |   |   |   |   |   |   |   |   |   |   |   ID < 897425.5
|   |   |   |   |   |   |   |   |   |   |   |   |   |   |   |   |   |   |   |   ID < 885188
|   |   |   |   |   |   |   |   |   |   |   |   |   |   |   |   |   |   |   |   |   ?Accident_Index < 520900628.5
|   |   |   |   |   |   |   |   |   |   |   |   |   |   |   |   |   |   |   |   |   |   Longitude < -1.76
|   |   |   |   |   |   |   |   |   |   |   |   |   |   |   |   |   |   |   |   |   |   |   ?Accident_Index < 55903654
|   |   |   |   |   |   |   |   |   |   |   |   |   |   |   |   |   |   |   |   |   |   |   |   Time < 3.39 : Slight (2/0) [0/0]
|   |   |   |   |   |   |   |   |   |   |   |   |   |   |   |   |   |   |   |   |   |   |   |   Time >= 3.39
|   |   |   |   |   |   |   |   |   |   |   |   |   |   |   |   |   |   |   |   |   |   |   |   |   ID < 882432.5 : Serious (22/1) [10/3]
|   |   |   |   |   |   |   |   |   |   |   |   |   |   |   |   |   |   |   |   |   |   |   |   |   ID >= 882432.5
|   |   |   |   |   |   |   |   |   |   |   |   |   |   |   |   |   |   |   |   |   |   |   |   |   |   Time < 19.68
|   |   |   |   |   |   |   |   |   |   |   |   |   |   |   |   |   |   |   |   |   |   |   |   |   |   |   ?Accident_Index < 55901713 : Slight (6/0) [7/4]
|   |   |   |   |   |   |   |   |   |   |   |   |   |   |   |   |   |   |   |   |   |   |   |   |   |   |   ?Accident_Index >= 55901713
|   |   |   |   |   |   |   |   |   |   |   |   |   |   |   |   |   |   |   |   |   |   |   |   |   |   |   |   ?Accident_Index < 55902412 : Serious (5/0) [3/0]
|   |   |   |   |   |   |   |   |   |   |   |   |   |   |   |   |   |   |   |   |   |   |   |   |   |   |   |   ?Accident_Index >= 55902412 : Slight (2/0) [2/0]
|   |   |   |   |   |   |   |   |   |   |   |   |   |   |   |   |   |   |   |   |   |   |   |   |   |   Time >= 19.68 : Serious (13/1) [9/1]
|   |   |   |   |   |   |   |   |   |   |   |   |   |   |   |   |   |   |   |   |   |   |   ?Accident_Index >= 55903654 : Serious (18/0) [11/1]
|   |   |   |   |   |   |   |   |   |   |   |   |   |   |   |   |   |   |   |   |   |   Longitude >= -1.76
|   |   |   |   |   |   |   |   |   |   |   |   |   |   |   |   |   |   |   |   |   |   |   ID < 819601 : Slight (5/0) [1/0]
|   |   |   |   |   |   |   |   |   |   |   |   |   |   |   |   |   |   |   |   |   |   |   ID >= 819601
|   |   |   |   |   |   |   |   |   |   |   |   |   |   |   |   |   |   |   |   |   |   |   |   ID < 857942.5
|   |   |   |   |   |   |   |   |   |   |   |   |   |   |   |   |   |   |   |   |   |   |   |   |   Time < 1.43 : Slight (2/0) [0/0]
|   |   |   |   |   |   |   |   |   |   |   |   |   |   |   |   |   |   |   |   |   |   |   |   |   Time >= 1.43
|   |   |   |   |   |   |   |   |   |   |   |   |   |   |   |   |   |   |   |   |   |   |   |   |   |   2nd_Road_Number < -0.5 : Slight (2/0) [0/0]
|   |   |   |   |   |   |   |   |   |   |   |   |   |   |   |   |   |   |   |   |   |   |   |   |   |   2nd_Road_Number >= -0.5
|   |   |   |   |   |   |   |   |   |   |   |   |   |   |   |   |   |   |   |   |   |   |   |   |   |   |   Road_Type < 4.5
|   |   |   |   |   |   |   |   |   |   |   |   |   |   |   |   |   |   |   |   |   |   |   |   |   |   |   |   Road_Type < 2.5 : Serious (31/10) [11/4]
|   |   |   |   |   |   |   |   |   |   |   |   |   |   |   |   |   |   |   |   |   |   |   |   |   |   |   |   Road_Type >= 2.5 : Slight (5/0) [2/0]
|   |   |   |   |   |   |   |   |   |   |   |   |   |   |   |   |   |   |   |   |   |   |   |   |   |   |   Road_Type >= 4.5
|   |   |   |   |   |   |   |   |   |   |   |   |   |   |   |   |   |   |   |   |   |   |   |   |   |   |   |   Longitude < -0.89
|   |   |   |   |   |   |   |   |   |   |   |   |   |   |   |   |   |   |   |   |   |   |   |   |   |   |   |   |   ?Accident_Index < 3442379 : Slight (2/0) [1/0]
|   |   |   |   |   |   |   |   |   |   |   |   |   |   |   |   |   |   |   |   |   |   |   |   |   |   |   |   |   ?Accident_Index >= 3442379
|   |   |   |   |   |   |   |   |   |   |   |   |   |   |   |   |   |   |   |   |   |   |   |   |   |   |   |   |   |   Time < 21.71
|   |   |   |   |   |   |   |   |   |   |   |   |   |   |   |   |   |   |   |   |   |   |   |   |   |   |   |   |   |   |   ID < 856551
|   |   |   |   |   |   |   |   |   |   |   |   |   |   |   |   |   |   |   |   |   |   |   |   |   |   |   |   |   |   |   |   ID < 856102.5
|   |   |   |   |   |   |   |   |   |   |   |   |   |   |   |   |   |   |   |   |   |   |   |   |   |   |   |   |   |   |   |   |   ID < 855178.5
|   |   |   |   |   |   |   |   |   |   |   |   |   |   |   |   |   |   |   |   |   |   |   |   |   |   |   |   |   |   |   |   |   |   Time < 16.63
|   |   |   |   |   |   |   |   |   |   |   |   |   |   |   |   |   |   |   |   |   |   |   |   |   |   |   |   |   |   |   |   |   |   |   Time < 15.48
|   |   |   |   |   |   |   |   |   |   |   |   |   |   |   |   |   |   |   |   |   |   |   |   |   |   |   |   |   |   |   |   |   |   |   |   ?Accident_Index < 30000317 : Serious (15/0) [6/1]
|   |   |   |   |   |   |   |   |   |   |   |   |   |   |   |   |   |   |   |   |   |   |   |   |   |   |   |   |   |   |   |   |   |   |   |   ?Accident_Index >= 30000317
|   |   |   |   |   |   |   |   |   |   |   |   |   |   |   |   |   |   |   |   |   |   |   |   |   |   |   |   |   |   |   |   |   |   |   |   |   Time < 8.83
|   |   |   |   |   |   |   |   |   |   |   |   |   |   |   |   |   |   |   |   |   |   |   |   |   |   |   |   |   |   |   |   |   |   |   |   |   |   ID < 824423 : Serious (7/2) [4/1]
|   |   |   |   |   |   |   |   |   |   |   |   |   |   |   |   |   |   |   |   |   |   |   |   |   |   |   |   |   |   |   |   |   |   |   |   |   |   ID >= 824423 : Slight (6/0) [2/0]
|   |   |   |   |   |   |   |   |   |   |   |   |   |   |   |   |   |   |   |   |   |   |   |   |   |   |   |   |   |   |   |   |   |   |   |   |   Time >= 8.83
|   |   |   |   |   |   |   |   |   |   |   |   |   |   |   |   |   |   |   |   |   |   |   |   |   |   |   |   |   |   |   |   |   |   |   |   |   |   ID < 821027.5 : Slight (2/0) [0/0]
|   |   |   |   |   |   |   |   |   |   |   |   |   |   |   |   |   |   |   |   |   |   |   |   |   |   |   |   |   |   |   |   |   |   |   |   |   |   ID >= 821027.5
|   |   |   |   |   |   |   |   |   |   |   |   |   |   |   |   |   |   |   |   |   |   |   |   |   |   |   |   |   |   |   |   |   |   |   |   |   |   |   Road_Surface_Conditions < 1.5
|   |   |   |   |   |   |   |   |   |   |   |   |   |   |   |   |   |   |   |   |   |   |   |   |   |   |   |   |   |   |   |   |   |   |   |   |   |   |   |   ID < 850212.5
|   |   |   |   |   |   |   |   |   |   |   |   |   |   |   |   |   |   |   |   |   |   |   |   |   |   |   |   |   |   |   |   |   |   |   |   |   |   |   |   |   Time < 15.06 : Slight (5/0) [1/0]
|   |   |   |   |   |   |   |   |   |   |   |   |   |   |   |   |   |   |   |   |   |   |   |   |   |   |   |   |   |   |   |   |   |   |   |   |   |   |   |   |   Time >= 15.06 : Serious (3/0) [1/0]
|   |   |   |   |   |   |   |   |   |   |   |   |   |   |   |   |   |   |   |   |   |   |   |   |   |   |   |   |   |   |   |   |   |   |   |   |   |   |   |   ID >= 850212.5 : Serious (14/1) [3/0]
|   |   |   |   |   |   |   |   |   |   |   |   |   |   |   |   |   |   |   |   |   |   |   |   |   |   |   |   |   |   |   |   |   |   |   |   |   |   |   Road_Surface_Conditions >= 1.5 : Serious (15/0) [5/0]
|   |   |   |   |   |   |   |   |   |   |   |   |   |   |   |   |   |   |   |   |   |   |   |   |   |   |   |   |   |   |   |   |   |   |   Time >= 15.48 : Slight (7/0) [2/0]
|   |   |   |   |   |   |   |   |   |   |   |   |   |   |   |   |   |   |   |   |   |   |   |   |   |   |   |   |   |   |   |   |   |   Time >= 16.63 : Serious (29/3) [23/5]
|   |   |   |   |   |   |   |   |   |   |   |   |   |   |   |   |   |   |   |   |   |   |   |   |   |   |   |   |   |   |   |   |   ID >= 855178.5 : Serious (12/0) [12/0]
|   |   |   |   |   |   |   |   |   |   |   |   |   |   |   |   |   |   |   |   |   |   |   |   |   |   |   |   |   |   |   |   ID >= 856102.5 : Slight (2/0) [0/0]
|   |   |   |   |   |   |   |   |   |   |   |   |   |   |   |   |   |   |   |   |   |   |   |   |   |   |   |   |   |   |   ID >= 856551 : Serious (9/0) [9/2]
|   |   |   |   |   |   |   |   |   |   |   |   |   |   |   |   |   |   |   |   |   |   |   |   |   |   |   |   |   |   Time >= 21.71
|   |   |   |   |   |   |   |   |   |   |   |   |   |   |   |   |   |   |   |   |   |   |   |   |   |   |   |   |   |   |   Longitude < -1.25 : Serious (3/0) [1/0]
|   |   |   |   |   |   |   |   |   |   |   |   |   |   |   |   |   |   |   |   |   |   |   |   |   |   |   |   |   |   |   Longitude >= -1.25 : Slight (5/0) [0/0]
|   |   |   |   |   |   |   |   |   |   |   |   |   |   |   |   |   |   |   |   |   |   |   |   |   |   |   |   Longitude >= -0.89 : Serious (9/0) [4/1]
|   |   |   |   |   |   |   |   |   |   |   |   |   |   |   |   |   |   |   |   |   |   |   |   ID >= 857942.5 : Slight (4/0) [4/0]
|   |   |   |   |   |   |   |   |   |   |   |   |   |   |   |   |   |   |   |   |   ?Accident_Index >= 520900628.5 : Slight (2/0) [2/0]
|   |   |   |   |   |   |   |   |   |   |   |   |   |   |   |   |   |   |   |   ID >= 885188
|   |   |   |   |   |   |   |   |   |   |   |   |   |   |   |   |   |   |   |   |   Month < 7.5 : Serious (6/2) [5/1]
|   |   |   |   |   |   |   |   |   |   |   |   |   |   |   |   |   |   |   |   |   Month >= 7.5 : Slight (5/0) [1/0]
|   |   |   |   |   |   |   |   |   |   |   |   |   |   |   |   |   |   |   ID >= 897425.5 : Serious (8/0) [2/2]
|   |   |   |   |   |   |   |   |   |   |   |   |   |   |   |   |   |   ?Accident_Index >= 520903724 : Serious (9/0) [4/1]
|   |   |   |   |   |   |   |   |   |   |   |   |   |   |   |   |   ?Accident_Index >= 520904731
|   |   |   |   |   |   |   |   |   |   |   |   |   |   |   |   |   |   Longitude < -3.32 : Serious (67/17) [22/8]
|   |   |   |   |   |   |   |   |   |   |   |   |   |   |   |   |   |   Longitude >= -3.32
|   |   |   |   |   |   |   |   |   |   |   |   |   |   |   |   |   |   |   Longitude < -3.21 : Slight (13/0) [1/0]
|   |   |   |   |   |   |   |   |   |   |   |   |   |   |   |   |   |   |   Longitude >= -3.21
|   |   |   |   |   |   |   |   |   |   |   |   |   |   |   |   |   |   |   |   ID < 894234.5
|   |   |   |   |   |   |   |   |   |   |   |   |   |   |   |   |   |   |   |   |   Time < 13.86
|   |   |   |   |   |   |   |   |   |   |   |   |   |   |   |   |   |   |   |   |   |   2nd_Road_Number < 707
|   |   |   |   |   |   |   |   |   |   |   |   |   |   |   |   |   |   |   |   |   |   |   ID < 881298.5 : Serious (8/0) [6/2]
|   |   |   |   |   |   |   |   |   |   |   |   |   |   |   |   |   |   |   |   |   |   |   ID >= 881298.5
|   |   |   |   |   |   |   |   |   |   |   |   |   |   |   |   |   |   |   |   |   |   |   |   Time < 13.32
|   |   |   |   |   |   |   |   |   |   |   |   |   |   |   |   |   |   |   |   |   |   |   |   |   Longitude < -3.19 : Serious (2/0) [3/1]
|   |   |   |   |   |   |   |   |   |   |   |   |   |   |   |   |   |   |   |   |   |   |   |   |   Longitude >= -3.19 : Slight (5/0) [3/0]
|   |   |   |   |   |   |   |   |   |   |   |   |   |   |   |   |   |   |   |   |   |   |   |   Time >= 13.32 : Serious (3/0) [2/1]
|   |   |   |   |   |   |   |   |   |   |   |   |   |   |   |   |   |   |   |   |   |   2nd_Road_Number >= 707 : Slight (5/0) [0/0]
|   |   |   |   |   |   |   |   |   |   |   |   |   |   |   |   |   |   |   |   |   Time >= 13.86 : Slight (28/2) [14/6]
|   |   |   |   |   |   |   |   |   |   |   |   |   |   |   |   |   |   |   |   ID >= 894234.5
|   |   |   |   |   |   |   |   |   |   |   |   |   |   |   |   |   |   |   |   |   ID < 894911.5 : Serious (11/0) [5/0]
|   |   |   |   |   |   |   |   |   |   |   |   |   |   |   |   |   |   |   |   |   ID >= 894911.5
|   |   |   |   |   |   |   |   |   |   |   |   |   |   |   |   |   |   |   |   |   |   Month < 3.5 : Slight (3/0) [1/0]
|   |   |   |   |   |   |   |   |   |   |   |   |   |   |   |   |   |   |   |   |   |   Month >= 3.5
|   |   |   |   |   |   |   |   |   |   |   |   |   |   |   |   |   |   |   |   |   |   |   Longitude < -2.96
|   |   |   |   |   |   |   |   |   |   |   |   |   |   |   |   |   |   |   |   |   |   |   |   Longitude < -3.21 : Serious (3/0) [1/0]
|   |   |   |   |   |   |   |   |   |   |   |   |   |   |   |   |   |   |   |   |   |   |   |   Longitude >= -3.21 : Slight (6/0) [3/0]
|   |   |   |   |   |   |   |   |   |   |   |   |   |   |   |   |   |   |   |   |   |   |   Longitude >= -2.96
|   |   |   |   |   |   |   |   |   |   |   |   |   |   |   |   |   |   |   |   |   |   |   |   Time < 14.46 : Serious (11/0) [2/1]
|   |   |   |   |   |   |   |   |   |   |   |   |   |   |   |   |   |   |   |   |   |   |   |   Time >= 14.46 : Slight (6/3) [4/1]
|   |   |   |   |   |   |   |   |   |   |   |   |   |   |   |   Longitude >= -0.87
|   |   |   |   |   |   |   |   |   |   |   |   |   |   |   |   |   Longitude < 0.46
|   |   |   |   |   |   |   |   |   |   |   |   |   |   |   |   |   |   Time < 3.17 : Slight (16/1) [8/3]
|   |   |   |   |   |   |   |   |   |   |   |   |   |   |   |   |   |   Time >= 3.17
|   |   |   |   |   |   |   |   |   |   |   |   |   |   |   |   |   |   |   ?Accident_Index < 4536511.5
|   |   |   |   |   |   |   |   |   |   |   |   |   |   |   |   |   |   |   |   Month < 1.5 : Slight (2/0) [3/0]
|   |   |   |   |   |   |   |   |   |   |   |   |   |   |   |   |   |   |   |   Month >= 1.5
|   |   |   |   |   |   |   |   |   |   |   |   |   |   |   |   |   |   |   |   |   Time < 17.71
|   |   |   |   |   |   |   |   |   |   |   |   |   |   |   |   |   |   |   |   |   |   Longitude < -0.71
|   |   |   |   |   |   |   |   |   |   |   |   |   |   |   |   |   |   |   |   |   |   |   Month < 5.5 : Slight (2/0) [2/0]
|   |   |   |   |   |   |   |   |   |   |   |   |   |   |   |   |   |   |   |   |   |   |   Month >= 5.5 : Serious (6/1) [3/0]
