=== Run information ===

Scheme:       weka.classifiers.trees.J48 -C 0.25 -M 2
Relation:     2006new-weka.filters.unsupervised.attribute.Remove-R1,3-7,9-10,15-17,20-23,29,32-weka.filters.supervised.instance.StratifiedRemoveFolds-S0-N10-F1
Instances:    29504
Attributes:   18
              ?Accident_Index
              Number_of_Vehicles
              Month
              Date
              Day_of_Week
              Time
              1st_Road_Number
              Road_Type
              2nd_Road_Number
              Pedestrian_Crossing-Human_Control
              Pedestrian_Crossing-Physical_Facilities
              Light_Conditions
              Weather_Conditions
              Special_Conditions_at_Site
              Carriageway_Hazards
              Did_Police_Officer_Attend_Scene_of_Accident
              LSOA_of_Accident_Location
              Accident_Severity
Test mode:    10-fold cross-validation

=== Classifier model (full training set) ===

J48 pruned tree
------------------

Did_Police_Officer_Attend_Scene_of_Accident <= 1.987263
|   ?Accident_Index <= 2146618.607
|   |   ?Accident_Index <= 109077.8665
|   |   |   1st_Road_Number <= 0.017766
|   |   |   |   Road_Type <= 5.969717
|   |   |   |   |   LSOA_of_Accident_Location <= 1002984: Serious (3.0)
|   |   |   |   |   LSOA_of_Accident_Location > 1002984: Fatal (5.0)
|   |   |   |   Road_Type > 5.969717
|   |   |   |   |   Month <= 7.300706
|   |   |   |   |   |   2nd_Road_Number <= 21.087564: Serious (48.0)
|   |   |   |   |   |   2nd_Road_Number > 21.087564
|   |   |   |   |   |   |   Date <= 12.637809: Fatal (2.0)
|   |   |   |   |   |   |   Date > 12.637809: Serious (2.0)
|   |   |   |   |   Month > 7.300706
|   |   |   |   |   |   Month <= 7.860698: Fatal (2.0)
|   |   |   |   |   |   Month > 7.860698
|   |   |   |   |   |   |   LSOA_of_Accident_Location <= 1003338: Serious (28.0/3.0)
|   |   |   |   |   |   |   LSOA_of_Accident_Location > 1003338
|   |   |   |   |   |   |   |   Day_of_Week <= 5
|   |   |   |   |   |   |   |   |   Number_of_Vehicles <= 1.029586: Serious (3.0)
|   |   |   |   |   |   |   |   |   Number_of_Vehicles > 1.029586: Fatal (8.0/1.0)
|   |   |   |   |   |   |   |   Day_of_Week > 5: Serious (4.0)
|   |   |   1st_Road_Number > 0.017766
|   |   |   |   Date <= 3.03359
|   |   |   |   |   ?Accident_Index <= 100041.1728: Fatal (3.0)
|   |   |   |   |   ?Accident_Index > 100041.1728
|   |   |   |   |   |   Date <= 1.748178
|   |   |   |   |   |   |   Date <= 1.231726: Serious (10.0/1.0)
|   |   |   |   |   |   |   Date > 1.231726: Fatal (2.0)
|   |   |   |   |   |   Date > 1.748178: Serious (15.0)
|   |   |   |   Date > 3.03359
|   |   |   |   |   Day_of_Week <= 6.99544
|   |   |   |   |   |   Pedestrian_Crossing-Physical_Facilities <= 4.982173
|   |   |   |   |   |   |   1st_Road_Number <= 2986.176738
|   |   |   |   |   |   |   |   Day_of_Week <= 1.007003
|   |   |   |   |   |   |   |   |   Date <= 26.589472
|   |   |   |   |   |   |   |   |   |   Weather_Conditions <= 1.151911
|   |   |   |   |   |   |   |   |   |   |   LSOA_of_Accident_Location <= 1001792.413: Serious (3.0)
|   |   |   |   |   |   |   |   |   |   |   LSOA_of_Accident_Location > 1001792.413: Fatal (14.0/3.0)
|   |   |   |   |   |   |   |   |   |   Weather_Conditions > 1.151911: Fatal (2.0)
|   |   |   |   |   |   |   |   |   Date > 26.589472: Serious (7.0)
|   |   |   |   |   |   |   |   Day_of_Week > 1.007003
|   |   |   |   |   |   |   |   |   Light_Conditions <= 1.000743
|   |   |   |   |   |   |   |   |   |   Weather_Conditions <= 1.722681
|   |   |   |   |   |   |   |   |   |   |   Time <= 7.523231: Serious (9.0/1.0)
|   |   |   |   |   |   |   |   |   |   |   Time > 7.523231
|   |   |   |   |   |   |   |   |   |   |   |   Pedestrian_Crossing-Physical_Facilities <= 0.028093
|   |   |   |   |   |   |   |   |   |   |   |   |   LSOA_of_Accident_Location <= 1001478.93
|   |   |   |   |   |   |   |   |   |   |   |   |   |   Time <= 18.645492: Fatal (34.0)
|   |   |   |   |   |   |   |   |   |   |   |   |   |   Time > 18.645492: Serious (3.0/1.0)
|   |   |   |   |   |   |   |   |   |   |   |   |   LSOA_of_Accident_Location > 1001478.93
|   |   |   |   |   |   |   |   |   |   |   |   |   |   Carriageway_Hazards <= 0.122568
|   |   |   |   |   |   |   |   |   |   |   |   |   |   |   Day_of_Week <= 3.928471
|   |   |   |   |   |   |   |   |   |   |   |   |   |   |   |   Date <= 23.555371
|   |   |   |   |   |   |   |   |   |   |   |   |   |   |   |   |   Time <= 13.230625: Fatal (15.0)
|   |   |   |   |   |   |   |   |   |   |   |   |   |   |   |   |   Time > 13.230625
|   |   |   |   |   |   |   |   |   |   |   |   |   |   |   |   |   |   LSOA_of_Accident_Location <= 1002459: Serious (4.0)
|   |   |   |   |   |   |   |   |   |   |   |   |   |   |   |   |   |   LSOA_of_Accident_Location > 1002459: Fatal (13.0/2.0)
|   |   |   |   |   |   |   |   |   |   |   |   |   |   |   |   Date > 23.555371: Serious (3.0)
|   |   |   |   |   |   |   |   |   |   |   |   |   |   |   Day_of_Week > 3.928471
|   |   |   |   |   |   |   |   |   |   |   |   |   |   |   |   Road_Type <= 2.890024: Fatal (3.0)
|   |   |   |   |   |   |   |   |   |   |   |   |   |   |   |   Road_Type > 2.890024: Serious (20.0/4.0)
|   |   |   |   |   |   |   |   |   |   |   |   |   |   Carriageway_Hazards > 0.122568: Fatal (2.0)
|   |   |   |   |   |   |   |   |   |   |   |   Pedestrian_Crossing-Physical_Facilities > 0.028093
|   |   |   |   |   |   |   |   |   |   |   |   |   Pedestrian_Crossing-Physical_Facilities <= 3.99776: Fatal (62.0/1.0)
|   |   |   |   |   |   |   |   |   |   |   |   |   Pedestrian_Crossing-Physical_Facilities > 3.99776
|   |   |   |   |   |   |   |   |   |   |   |   |   |   Pedestrian_Crossing-Physical_Facilities <= 4.023435
|   |   |   |   |   |   |   |   |   |   |   |   |   |   |   Time <= 14.55: Serious (4.0)
|   |   |   |   |   |   |   |   |   |   |   |   |   |   |   Time > 14.55: Fatal (4.0/1.0)
|   |   |   |   |   |   |   |   |   |   |   |   |   |   Pedestrian_Crossing-Physical_Facilities > 4.023435: Fatal (15.0)
|   |   |   |   |   |   |   |   |   |   Weather_Conditions > 1.722681: Serious (8.0/1.0)
|   |   |   |   |   |   |   |   |   Light_Conditions > 1.000743
|   |   |   |   |   |   |   |   |   |   Light_Conditions <= 3.999707: Fatal (262.0)
|   |   |   |   |   |   |   |   |   |   Light_Conditions > 3.999707
|   |   |   |   |   |   |   |   |   |   |   Month <= 1.085713: Serious (6.0/1.0)
|   |   |   |   |   |   |   |   |   |   |   Month > 1.085713: Fatal (165.0/18.0)
|   |   |   |   |   |   |   1st_Road_Number > 2986.176738
|   |   |   |   |   |   |   |   1st_Road_Number <= 3229.114533: Serious (13.0/1.0)
|   |   |   |   |   |   |   |   1st_Road_Number > 3229.114533
|   |   |   |   |   |   |   |   |   1st_Road_Number <= 4121
|   |   |   |   |   |   |   |   |   |   1st_Road_Number <= 4006
|   |   |   |   |   |   |   |   |   |   |   Number_of_Vehicles <= 1.080321: Serious (3.0)
|   |   |   |   |   |   |   |   |   |   |   Number_of_Vehicles > 1.080321
|   |   |   |   |   |   |   |   |   |   |   |   Number_of_Vehicles <= 2.944652: Fatal (6.0)
|   |   |   |   |   |   |   |   |   |   |   |   Number_of_Vehicles > 2.944652: Serious (2.0)
|   |   |   |   |   |   |   |   |   |   1st_Road_Number > 4006: Fatal (14.0)
|   |   |   |   |   |   |   |   |   1st_Road_Number > 4121: Serious (4.0)
|   |   |   |   |   |   Pedestrian_Crossing-Physical_Facilities > 4.982173
|   |   |   |   |   |   |   Pedestrian_Crossing-Physical_Facilities <= 5
|   |   |   |   |   |   |   |   Time <= 19.484755
|   |   |   |   |   |   |   |   |   Weather_Conditions <= 1.92459
|   |   |   |   |   |   |   |   |   |   1st_Road_Number <= 91.900615: Fatal (23.0/4.0)
|   |   |   |   |   |   |   |   |   |   1st_Road_Number > 91.900615
|   |   |   |   |   |   |   |   |   |   |   Date <= 18.494474
|   |   |   |   |   |   |   |   |   |   |   |   Date <= 13.527966
|   |   |   |   |   |   |   |   |   |   |   |   |   Time <= 17.221383: Serious (8.0)
|   |   |   |   |   |   |   |   |   |   |   |   |   Time > 17.221383: Fatal (3.0/1.0)
|   |   |   |   |   |   |   |   |   |   |   |   Date > 13.527966: Fatal (7.0)
|   |   |   |   |   |   |   |   |   |   |   Date > 18.494474: Serious (12.0/1.0)
|   |   |   |   |   |   |   |   |   Weather_Conditions > 1.92459: Serious (4.0)
|   |   |   |   |   |   |   |   Time > 19.484755: Serious (15.0)
|   |   |   |   |   |   |   Pedestrian_Crossing-Physical_Facilities > 5: Fatal (14.0/1.0)
|   |   |   |   |   Day_of_Week > 6.99544
|   |   |   |   |   |   Special_Conditions_at_Site <= 0.253899
|   |   |   |   |   |   |   ?Accident_Index <= 100154.558
|   |   |   |   |   |   |   |   Time <= 3.083333: Serious (5.0)
|   |   |   |   |   |   |   |   Time > 3.083333
|   |   |   |   |   |   |   |   |   Date <= 4.547938: Serious (3.0)
|   |   |   |   |   |   |   |   |   Date > 4.547938: Fatal (19.0/2.0)
|   |   |   |   |   |   |   ?Accident_Index > 100154.558: Serious (27.0/2.0)
|   |   |   |   |   |   Special_Conditions_at_Site > 0.253899: Fatal (4.0)
|   |   ?Accident_Index > 109077.8665
|   |   |   LSOA_of_Accident_Location <= 1005331.152: Serious (959.0)
|   |   |   LSOA_of_Accident_Location > 1005331.152
|   |   |   |   1st_Road_Number <= 0.146771
|   |   |   |   |   Light_Conditions <= 1.112933
|   |   |   |   |   |   Number_of_Vehicles <= 1.063891: Serious (102.0/1.0)
|   |   |   |   |   |   Number_of_Vehicles > 1.063891
|   |   |   |   |   |   |   Number_of_Vehicles <= 1.875513: Fatal (8.0)
|   |   |   |   |   |   |   Number_of_Vehicles > 1.875513: Serious (106.0/4.0)
|   |   |   |   |   Light_Conditions > 1.112933
|   |   |   |   |   |   Light_Conditions <= 3.945047: Fatal (21.0)
|   |   |   |   |   |   Light_Conditions > 3.945047
|   |   |   |   |   |   |   2nd_Road_Number <= 8.45915: Serious (80.0/3.0)
|   |   |   |   |   |   |   2nd_Road_Number > 8.45915
|   |   |   |   |   |   |   |   Light_Conditions <= 4.576723: Serious (4.0)
|   |   |   |   |   |   |   |   Light_Conditions > 4.576723: Fatal (2.0)
|   |   |   |   1st_Road_Number > 0.146771
|   |   |   |   |   1st_Road_Number <= 5000
|   |   |   |   |   |   1st_Road_Number <= 1287.515848
|   |   |   |   |   |   |   1st_Road_Number <= 553.807515
|   |   |   |   |   |   |   |   Road_Type <= 3.035042
|   |   |   |   |   |   |   |   |   1st_Road_Number <= 71.894238
|   |   |   |   |   |   |   |   |   |   Road_Type <= 1.903198: Fatal (2.0)
|   |   |   |   |   |   |   |   |   |   Road_Type > 1.903198
|   |   |   |   |   |   |   |   |   |   |   Pedestrian_Crossing-Physical_Facilities <= 5.245806
|   |   |   |   |   |   |   |   |   |   |   |   2nd_Road_Number <= 172.316457
|   |   |   |   |   |   |   |   |   |   |   |   |   Day_of_Week <= 1.536502
|   |   |   |   |   |   |   |   |   |   |   |   |   |   ?Accident_Index <= 776051.1364: Serious (2.0)
|   |   |   |   |   |   |   |   |   |   |   |   |   |   ?Accident_Index > 776051.1364: Fatal (2.0)
|   |   |   |   |   |   |   |   |   |   |   |   |   Day_of_Week > 1.536502: Serious (38.0/1.0)
|   |   |   |   |   |   |   |   |   |   |   |   2nd_Road_Number > 172.316457
|   |   |   |   |   |   |   |   |   |   |   |   |   ?Accident_Index <= 406434: Fatal (3.0)
|   |   |   |   |   |   |   |   |   |   |   |   |   ?Accident_Index > 406434: Serious (2.0)
|   |   |   |   |   |   |   |   |   |   |   Pedestrian_Crossing-Physical_Facilities > 5.245806: Fatal (2.0)
|   |   |   |   |   |   |   |   |   1st_Road_Number > 71.894238: Fatal (15.0/1.0)
|   |   |   |   |   |   |   |   Road_Type > 3.035042
|   |   |   |   |   |   |   |   |   Road_Type <= 5.980328: Fatal (127.0)
|   |   |   |   |   |   |   |   |   Road_Type > 5.980328
|   |   |   |   |   |   |   |   |   |   1st_Road_Number <= 5.782326: Fatal (28.0)
|   |   |   |   |   |   |   |   |   |   1st_Road_Number > 5.782326
|   |   |   |   |   |   |   |   |   |   |   1st_Road_Number <= 68.476179
|   |   |   |   |   |   |   |   |   |   |   |   LSOA_of_Accident_Location <= 1020623.479
|   |   |   |   |   |   |   |   |   |   |   |   |   LSOA_of_Accident_Location <= 1012490
|   |   |   |   |   |   |   |   |   |   |   |   |   |   Light_Conditions <= 1.065579: Serious (10.0)
|   |   |   |   |   |   |   |   |   |   |   |   |   |   Light_Conditions > 1.065579: Fatal (14.0/2.0)
|   |   |   |   |   |   |   |   |   |   |   |   |   LSOA_of_Accident_Location > 1012490: Fatal (18.0)
|   |   |   |   |   |   |   |   |   |   |   |   LSOA_of_Accident_Location > 1020623.479
|   |   |   |   |   |   |   |   |   |   |   |   |   Light_Conditions <= 3.665412
|   |   |   |   |   |   |   |   |   |   |   |   |   |   Light_Conditions <= 1.741646: Serious (27.0/3.0)
|   |   |   |   |   |   |   |   |   |   |   |   |   |   Light_Conditions > 1.741646: Fatal (3.0)
|   |   |   |   |   |   |   |   |   |   |   |   |   Light_Conditions > 3.665412: Serious (17.0)
|   |   |   |   |   |   |   |   |   |   |   1st_Road_Number > 68.476179
|   |   |   |   |   |   |   |   |   |   |   |   Light_Conditions <= 1.063705
|   |   |   |   |   |   |   |   |   |   |   |   |   Date <= 21.672568
|   |   |   |   |   |   |   |   |   |   |   |   |   |   LSOA_of_Accident_Location <= 1020809
|   |   |   |   |   |   |   |   |   |   |   |   |   |   |   Day_of_Week <= 2.018888: Serious (3.0/1.0)
|   |   |   |   |   |   |   |   |   |   |   |   |   |   |   Day_of_Week > 2.018888
|   |   |   |   |   |   |   |   |   |   |   |   |   |   |   |   Pedestrian_Crossing-Physical_Facilities <= 0.748519
|   |   |   |   |   |   |   |   |   |   |   |   |   |   |   |   |   Month <= 2.123517: Serious (3.0)
|   |   |   |   |   |   |   |   |   |   |   |   |   |   |   |   |   Month > 2.123517: Fatal (11.0/2.0)
|   |   |   |   |   |   |   |   |   |   |   |   |   |   |   |   Pedestrian_Crossing-Physical_Facilities > 0.748519: Fatal (2.0)
|   |   |   |   |   |   |   |   |   |   |   |   |   |   LSOA_of_Accident_Location > 1020809: Fatal (10.0)
|   |   |   |   |   |   |   |   |   |   |   |   |   Date > 21.672568: Serious (5.0)
|   |   |   |   |   |   |   |   |   |   |   |   Light_Conditions > 1.063705
|   |   |   |   |   |   |   |   |   |   |   |   |   Date <= 2.785296: Serious (4.0/1.0)
|   |   |   |   |   |   |   |   |   |   |   |   |   Date > 2.785296: Fatal (49.0)
|   |   |   |   |   |   |   1st_Road_Number > 553.807515
|   |   |   |   |   |   |   |   Light_Conditions <= 1.011807
|   |   |   |   |   |   |   |   |   ?Accident_Index <= 722630.2751: Serious (88.0/7.0)
|   |   |   |   |   |   |   |   |   ?Accident_Index > 722630.2751
|   |   |   |   |   |   |   |   |   |   1st_Road_Number <= 688.729222: Fatal (10.0/1.0)
|   |   |   |   |   |   |   |   |   |   1st_Road_Number > 688.729222: Serious (8.0)
|   |   |   |   |   |   |   |   Light_Conditions > 1.011807
|   |   |   |   |   |   |   |   |   Light_Conditions <= 3.999068: Fatal (31.0)
|   |   |   |   |   |   |   |   |   Light_Conditions > 3.999068
|   |   |   |   |   |   |   |   |   |   Light_Conditions <= 4.145709
|   |   |   |   |   |   |   |   |   |   |   Time <= 6.2507
|   |   |   |   |   |   |   |   |   |   |   |   2nd_Road_Number <= 868
|   |   |   |   |   |   |   |   |   |   |   |   |   Pedestrian_Crossing-Physical_Facilities <= 0.172304: Serious (5.0)
|   |   |   |   |   |   |   |   |   |   |   |   |   Pedestrian_Crossing-Physical_Facilities > 0.172304: Fatal (2.0)
|   |   |   |   |   |   |   |   |   |   |   |   2nd_Road_Number > 868: Fatal (4.0)
|   |   |   |   |   |   |   |   |   |   |   Time > 6.2507: Serious (36.0/1.0)
|   |   |   |   |   |   |   |   |   |   Light_Conditions > 4.145709
|   |   |   |   |   |   |   |   |   |   |   Light_Conditions <= 5.934258: Fatal (10.0)
|   |   |   |   |   |   |   |   |   |   |   Light_Conditions > 5.934258: Serious (2.0)
|   |   |   |   |   |   1st_Road_Number > 1287.515848: Fatal (84.0/1.0)
|   |   |   |   |   1st_Road_Number > 5000
|   |   |   |   |   |   Special_Conditions_at_Site <= 0.03993
|   |   |   |   |   |   |   Month <= 9.656987
|   |   |   |   |   |   |   |   ?Accident_Index <= 1115344.144
|   |   |   |   |   |   |   |   |   Number_of_Vehicles <= 1.004657: Serious (34.0)
|   |   |   |   |   |   |   |   |   Number_of_Vehicles > 1.004657
|   |   |   |   |   |   |   |   |   |   Number_of_Vehicles <= 1.962535: Fatal (13.0)
|   |   |   |   |   |   |   |   |   |   Number_of_Vehicles > 1.962535
|   |   |   |   |   |   |   |   |   |   |   Number_of_Vehicles <= 2.206316: Serious (42.0/1.0)
|   |   |   |   |   |   |   |   |   |   |   Number_of_Vehicles > 2.206316
|   |   |   |   |   |   |   |   |   |   |   |   Number_of_Vehicles <= 2.828751: Fatal (2.0)
|   |   |   |   |   |   |   |   |   |   |   |   Number_of_Vehicles > 2.828751: Serious (9.0/1.0)
|   |   |   |   |   |   |   |   ?Accident_Index > 1115344.144: Fatal (8.0/1.0)
|   |   |   |   |   |   |   Month > 9.656987: Serious (36.0)
|   |   |   |   |   |   Special_Conditions_at_Site > 0.03993
|   |   |   |   |   |   |   Road_Type <= 4.499356: Serious (3.0)
|   |   |   |   |   |   |   Road_Type > 4.499356: Fatal (6.0)
|   ?Accident_Index > 2146618.607
|   |   1st_Road_Number <= 0
|   |   |   Number_of_Vehicles <= 1.997498
|   |   |   |   Number_of_Vehicles <= 1.002602
|   |   |   |   |   LSOA_of_Accident_Location <= 1013088
|   |   |   |   |   |   LSOA_of_Accident_Location <= 1010470
|   |   |   |   |   |   |   ?Accident_Index <= 14158458.2
|   |   |   |   |   |   |   |   ?Accident_Index <= 6017511.687
|   |   |   |   |   |   |   |   |   Day_of_Week <= 2.49923
|   |   |   |   |   |   |   |   |   |   LSOA_of_Accident_Location <= 1000294.041: Serious (4.0)
|   |   |   |   |   |   |   |   |   |   LSOA_of_Accident_Location > 1000294.041: Slight (5.0/1.0)
|   |   |   |   |   |   |   |   |   Day_of_Week > 2.49923: Slight (14.0/3.0)
|   |   |   |   |   |   |   |   ?Accident_Index > 6017511.687
|   |   |   |   |   |   |   |   |   LSOA_of_Accident_Location <= 1007861.822
|   |   |   |   |   |   |   |   |   |   Pedestrian_Crossing-Physical_Facilities <= 0.327295
|   |   |   |   |   |   |   |   |   |   |   Light_Conditions <= 1.234815: Serious (60.0/6.0)
|   |   |   |   |   |   |   |   |   |   |   Light_Conditions > 1.234815
|   |   |   |   |   |   |   |   |   |   |   |   Light_Conditions <= 3.99597: Fatal (8.0)
|   |   |   |   |   |   |   |   |   |   |   |   Light_Conditions > 3.99597: Serious (35.0/4.0)
|   |   |   |   |   |   |   |   |   |   Pedestrian_Crossing-Physical_Facilities > 0.327295
|   |   |   |   |   |   |   |   |   |   |   Pedestrian_Crossing-Physical_Facilities <= 3.822901: Fatal (5.0)
|   |   |   |   |   |   |   |   |   |   |   Pedestrian_Crossing-Physical_Facilities > 3.822901: Serious (4.0)
|   |   |   |   |   |   |   |   |   LSOA_of_Accident_Location > 1007861.822
|   |   |   |   |   |   |   |   |   |   Time <= 16.033333: Slight (5.0)
|   |   |   |   |   |   |   |   |   |   Time > 16.033333: Serious (5.0/1.0)
|   |   |   |   |   |   |   ?Accident_Index > 14158458.2
|   |   |   |   |   |   |   |   Time <= 7.688679
|   |   |   |   |   |   |   |   |   ?Accident_Index <= 20031001: Fatal (7.0)
|   |   |   |   |   |   |   |   |   ?Accident_Index > 20031001
|   |   |   |   |   |   |   |   |   |   Road_Type <= 5.484776
|   |   |   |   |   |   |   |   |   |   |   Day_of_Week <= 6.938169
|   |   |   |   |   |   |   |   |   |   |   |   Time <= 1.869978: Slight (2.0)
|   |   |   |   |   |   |   |   |   |   |   |   Time > 1.869978: Fatal (6.0)
|   |   |   |   |   |   |   |   |   |   |   Day_of_Week > 6.938169: Serious (2.0)
|   |   |   |   |   |   |   |   |   |   Road_Type > 5.484776: Serious (14.0/2.0)
|   |   |   |   |   |   |   |   Time > 7.688679
|   |   |   |   |   |   |   |   |   Light_Conditions <= 4.235102
|   |   |   |   |   |   |   |   |   |   Road_Type <= 2.709849
|   |   |   |   |   |   |   |   |   |   |   Road_Type <= 2: Slight (8.0/1.0)
|   |   |   |   |   |   |   |   |   |   |   Road_Type > 2: Fatal (3.0)
|   |   |   |   |   |   |   |   |   |   Road_Type > 2.709849
|   |   |   |   |   |   |   |   |   |   |   Day_of_Week <= 1.498375
|   |   |   |   |   |   |   |   |   |   |   |   Road_Type <= 4.499356: Serious (5.0)
|   |   |   |   |   |   |   |   |   |   |   |   Road_Type > 4.499356
|   |   |   |   |   |   |   |   |   |   |   |   |   LSOA_of_Accident_Location <= 1001196: Slight (4.0)
|   |   |   |   |   |   |   |   |   |   |   |   |   LSOA_of_Accident_Location > 1001196
|   |   |   |   |   |   |   |   |   |   |   |   |   |   Month <= 1.491569: Slight (2.0)
|   |   |   |   |   |   |   |   |   |   |   |   |   |   Month > 1.491569: Serious (11.0/1.0)
|   |   |   |   |   |   |   |   |   |   |   Day_of_Week > 1.498375
|   |   |   |   |   |   |   |   |   |   |   |   2nd_Road_Number <= 19
|   |   |   |   |   |   |   |   |   |   |   |   |   Light_Conditions <= 1.673674
|   |   |   |   |   |   |   |   |   |   |   |   |   |   Date <= 2.498941: Slight (8.0)
|   |   |   |   |   |   |   |   |   |   |   |   |   |   Date > 2.498941
|   |   |   |   |   |   |   |   |   |   |   |   |   |   |   Day_of_Week <= 6.499406
|   |   |   |   |   |   |   |   |   |   |   |   |   |   |   |   Road_Type <= 5.591194
|   |   |   |   |   |   |   |   |   |   |   |   |   |   |   |   |   Road_Type <= 3.851199
|   |   |   |   |   |   |   |   |   |   |   |   |   |   |   |   |   |   Month <= 8.499734: Slight (3.0/1.0)
|   |   |   |   |   |   |   |   |   |   |   |   |   |   |   |   |   |   Month > 8.499734: Serious (2.0)
|   |   |   |   |   |   |   |   |   |   |   |   |   |   |   |   |   Road_Type > 3.851199: Fatal (2.0)
|   |   |   |   |   |   |   |   |   |   |   |   |   |   |   |   Road_Type > 5.591194
|   |   |   |   |   |   |   |   |   |   |   |   |   |   |   |   |   Day_of_Week <= 4.226624
|   |   |   |   |   |   |   |   |   |   |   |   |   |   |   |   |   |   Day_of_Week <= 3.498525: Slight (38.0/15.0)
|   |   |   |   |   |   |   |   |   |   |   |   |   |   |   |   |   |   Day_of_Week > 3.498525: Serious (23.0/9.0)
|   |   |   |   |   |   |   |   |   |   |   |   |   |   |   |   |   Day_of_Week > 4.226624
|   |   |   |   |   |   |   |   |   |   |   |   |   |   |   |   |   |   Road_Type <= 7.457955
|   |   |   |   |   |   |   |   |   |   |   |   |   |   |   |   |   |   |   Time <= 10.733333: Slight (8.0/1.0)
|   |   |   |   |   |   |   |   |   |   |   |   |   |   |   |   |   |   |   Time > 10.733333
|   |   |   |   |   |   |   |   |   |   |   |   |   |   |   |   |   |   |   |   LSOA_of_Accident_Location <= 1009290
|   |   |   |   |   |   |   |   |   |   |   |   |   |   |   |   |   |   |   |   |   LSOA_of_Accident_Location <= 1009066: Serious (10.0/3.0)
|   |   |   |   |   |   |   |   |   |   |   |   |   |   |   |   |   |   |   |   |   LSOA_of_Accident_Location > 1009066: Fatal (7.0/3.0)
|   |   |   |   |   |   |   |   |   |   |   |   |   |   |   |   |   |   |   |   LSOA_of_Accident_Location > 1009290
|   |   |   |   |   |   |   |   |   |   |   |   |   |   |   |   |   |   |   |   |   Time <= 15.188985: Serious (6.0/1.0)
|   |   |   |   |   |   |   |   |   |   |   |   |   |   |   |   |   |   |   |   |   Time > 15.188985: Slight (9.0)
|   |   |   |   |   |   |   |   |   |   |   |   |   |   |   |   |   |   Road_Type > 7.457955: Slight (2.0)
|   |   |   |   |   |   |   |   |   |   |   |   |   |   |   Day_of_Week > 6.499406
|   |   |   |   |   |   |   |   |   |   |   |   |   |   |   |   Month <= 9.499011: Slight (11.0/1.0)
|   |   |   |   |   |   |   |   |   |   |   |   |   |   |   |   Month > 9.499011: Serious (3.0/1.0)
|   |   |   |   |   |   |   |   |   |   |   |   |   Light_Conditions > 1.673674
|   |   |   |   |   |   |   |   |   |   |   |   |   |   Time <= 13.918849: Fatal (4.0)
|   |   |   |   |   |   |   |   |   |   |   |   |   |   Time > 13.918849
|   |   |   |   |   |   |   |   |   |   |   |   |   |   |   Pedestrian_Crossing-Physical_Facilities <= 5.984393
|   |   |   |   |   |   |   |   |   |   |   |   |   |   |   |   LSOA_of_Accident_Location <= 1009332.874
|   |   |   |   |   |   |   |   |   |   |   |   |   |   |   |   |   Time <= 21.833333: Serious (18.0/1.0)
|   |   |   |   |   |   |   |   |   |   |   |   |   |   |   |   |   Time > 21.833333: Slight (3.0)
|   |   |   |   |   |   |   |   |   |   |   |   |   |   |   |   LSOA_of_Accident_Location > 1009332.874
|   |   |   |   |   |   |   |   |   |   |   |   |   |   |   |   |   Month <= 4: Slight (6.0)
|   |   |   |   |   |   |   |   |   |   |   |   |   |   |   |   |   Month > 4
|   |   |   |   |   |   |   |   |   |   |   |   |   |   |   |   |   |   Day_of_Week <= 4.499517: Fatal (3.0/1.0)
|   |   |   |   |   |   |   |   |   |   |   |   |   |   |   |   |   |   Day_of_Week > 4.499517
|   |   |   |   |   |   |   |   |   |   |   |   |   |   |   |   |   |   |   Weather_Conditions <= 1.499805
|   |   |   |   |   |   |   |   |   |   |   |   |   |   |   |   |   |   |   |   Date <= 22.499924: Slight (7.0/1.0)
|   |   |   |   |   |   |   |   |   |   |   |   |   |   |   |   |   |   |   |   Date > 22.499924: Serious (4.0)
|   |   |   |   |   |   |   |   |   |   |   |   |   |   |   |   |   |   |   Weather_Conditions > 1.499805: Serious (3.0)
|   |   |   |   |   |   |   |   |   |   |   |   |   |   |   Pedestrian_Crossing-Physical_Facilities > 5.984393: Slight (2.0)
|   |   |   |   |   |   |   |   |   |   |   |   2nd_Road_Number > 19: Slight (10.0)
|   |   |   |   |   |   |   |   |   Light_Conditions > 4.235102
|   |   |   |   |   |   |   |   |   |   Light_Conditions <= 6.494364: Fatal (6.0/1.0)
|   |   |   |   |   |   |   |   |   |   Light_Conditions > 6.494364: Slight (3.0)
|   |   |   |   |   |   LSOA_of_Accident_Location > 1010470
|   |   |   |   |   |   |   ?Accident_Index <= 17036635.97
|   |   |   |   |   |   |   |   Light_Conditions <= 1.718656
|   |   |   |   |   |   |   |   |   LSOA_of_Accident_Location <= 1012240: Serious (20.0/2.0)
|   |   |   |   |   |   |   |   |   LSOA_of_Accident_Location > 1012240
|   |   |   |   |   |   |   |   |   |   LSOA_of_Accident_Location <= 1012866.9
|   |   |   |   |   |   |   |   |   |   |   Road_Type <= 4.499356: Serious (3.0/1.0)
|   |   |   |   |   |   |   |   |   |   |   Road_Type > 4.499356: Slight (9.0/1.0)
|   |   |   |   |   |   |   |   |   |   LSOA_of_Accident_Location > 1012866.9: Serious (14.0/3.0)
|   |   |   |   |   |   |   |   Light_Conditions > 1.718656
|   |   |   |   |   |   |   |   |   Light_Conditions <= 3.851352: Fatal (2.0)
|   |   |   |   |   |   |   |   |   Light_Conditions > 3.851352
|   |   |   |   |   |   |   |   |   |   Pedestrian_Crossing-Physical_Facilities <= 0.498526
|   |   |   |   |   |   |   |   |   |   |   ?Accident_Index <= 16002530
|   |   |   |   |   |   |   |   |   |   |   |   Month <= 2.548551: Serious (3.0/1.0)
|   |   |   |   |   |   |   |   |   |   |   |   Month > 2.548551: Fatal (3.0)
|   |   |   |   |   |   |   |   |   |   |   ?Accident_Index > 16002530: Serious (15.0/3.0)
|   |   |   |   |   |   |   |   |   |   Pedestrian_Crossing-Physical_Facilities > 0.498526: Slight (4.0/1.0)
|   |   |   |   |   |   |   ?Accident_Index > 17036635.97
|   |   |   |   |   |   |   |   Light_Conditions <= 3.937531
|   |   |   |   |   |   |   |   |   Light_Conditions <= 1.004236: Serious (74.0/4.0)
|   |   |   |   |   |   |   |   |   Light_Conditions > 1.004236: Fatal (7.0)
|   |   |   |   |   |   |   |   Light_Conditions > 3.937531: Serious (27.0)
|   |   |   |   |   LSOA_of_Accident_Location > 1013088
|   |   |   |   |   |   ?Accident_Index <= 9100873
|   |   |   |   |   |   |   Special_Conditions_at_Site <= 0.381196
|   |   |   |   |   |   |   |   Pedestrian_Crossing-Physical_Facilities <= 0.498526
|   |   |   |   |   |   |   |   |   LSOA_of_Accident_Location <= 1032137
|   |   |   |   |   |   |   |   |   |   Light_Conditions <= 5.805522
|   |   |   |   |   |   |   |   |   |   |   LSOA_of_Accident_Location <= 1015503: Slight (34.0/7.0)
|   |   |   |   |   |   |   |   |   |   |   LSOA_of_Accident_Location > 1015503
|   |   |   |   |   |   |   |   |   |   |   |   LSOA_of_Accident_Location <= 1019014.334
|   |   |   |   |   |   |   |   |   |   |   |   |   Date <= 20: Fatal (7.0/1.0)
|   |   |   |   |   |   |   |   |   |   |   |   |   Date > 20
|   |   |   |   |   |   |   |   |   |   |   |   |   |   Date <= 27: Serious (3.0)
|   |   |   |   |   |   |   |   |   |   |   |   |   |   Date > 27: Slight (2.0)
|   |   |   |   |   |   |   |   |   |   |   |   LSOA_of_Accident_Location > 1019014.334
|   |   |   |   |   |   |   |   |   |   |   |   |   Road_Type <= 2.497012: Serious (2.0)
|   |   |   |   |   |   |   |   |   |   |   |   |   Road_Type > 2.497012
|   |   |   |   |   |   |   |   |   |   |   |   |   |   Light_Conditions <= 2.499744
|   |   |   |   |   |   |   |   |   |   |   |   |   |   |   Date <= 22.499924
|   |   |   |   |   |   |   |   |   |   |   |   |   |   |   |   Day_of_Week <= 3.498525
|   |   |   |   |   |   |   |   |   |   |   |   |   |   |   |   |   LSOA_of_Accident_Location <= 1020221: Serious (4.0/1.0)
|   |   |   |   |   |   |   |   |   |   |   |   |   |   |   |   |   LSOA_of_Accident_Location > 1020221: Slight (8.0)
|   |   |   |   |   |   |   |   |   |   |   |   |   |   |   |   Day_of_Week > 3.498525
|   |   |   |   |   |   |   |   |   |   |   |   |   |   |   |   |   Day_of_Week <= 4.499517: Serious (3.0)
|   |   |   |   |   |   |   |   |   |   |   |   |   |   |   |   |   Day_of_Week > 4.499517
|   |   |   |   |   |   |   |   |   |   |   |   |   |   |   |   |   |   ?Accident_Index <= 5026466.446: Serious (3.0)
|   |   |   |   |   |   |   |   |   |   |   |   |   |   |   |   |   |   ?Accident_Index > 5026466.446
|   |   |   |   |   |   |   |   |   |   |   |   |   |   |   |   |   |   |   Day_of_Week <= 6
|   |   |   |   |   |   |   |   |   |   |   |   |   |   |   |   |   |   |   |   Date <= 9.4987: Serious (3.0/1.0)
|   |   |   |   |   |   |   |   |   |   |   |   |   |   |   |   |   |   |   |   Date > 9.4987: Slight (2.0)
|   |   |   |   |   |   |   |   |   |   |   |   |   |   |   |   |   |   |   Day_of_Week > 6: Slight (5.0/1.0)
|   |   |   |   |   |   |   |   |   |   |   |   |   |   |   Date > 22.499924: Slight (7.0/1.0)
|   |   |   |   |   |   |   |   |   |   |   |   |   |   Light_Conditions > 2.499744: Slight (12.0/3.0)
|   |   |   |   |   |   |   |   |   |   Light_Conditions > 5.805522
|   |   |   |   |   |   |   |   |   |   |   Weather_Conditions <= 3.493
|   |   |   |   |   |   |   |   |   |   |   |   Weather_Conditions <= 1.499805
|   |   |   |   |   |   |   |   |   |   |   |   |   Date <= 3: Serious (3.0)
|   |   |   |   |   |   |   |   |   |   |   |   |   Date > 3
|   |   |   |   |   |   |   |   |   |   |   |   |   |   ?Accident_Index <= 2244845.351: Serious (3.0/1.0)
|   |   |   |   |   |   |   |   |   |   |   |   |   |   ?Accident_Index > 2244845.351: Slight (9.0)
|   |   |   |   |   |   |   |   |   |   |   |   Weather_Conditions > 1.499805: Serious (4.0/1.0)
|   |   |   |   |   |   |   |   |   |   |   Weather_Conditions > 3.493: Slight (2.0)
|   |   |   |   |   |   |   |   |   LSOA_of_Accident_Location > 1032137
|   |   |   |   |   |   |   |   |   |   Weather_Conditions <= 1.499805
|   |   |   |   |   |   |   |   |   |   |   LSOA_of_Accident_Location <= 1032238
|   |   |   |   |   |   |   |   |   |   |   |   Date <= 12.499048: Serious (4.0)
|   |   |   |   |   |   |   |   |   |   |   |   Date > 12.499048: Slight (4.0/1.0)
|   |   |   |   |   |   |   |   |   |   |   LSOA_of_Accident_Location > 1032238
|   |   |   |   |   |   |   |   |   |   |   |   Light_Conditions <= 3.38862
|   |   |   |   |   |   |   |   |   |   |   |   |   Light_Conditions <= 1.853804: Serious (4.0/1.0)
|   |   |   |   |   |   |   |   |   |   |   |   |   Light_Conditions > 1.853804: Fatal (2.0)
|   |   |   |   |   |   |   |   |   |   |   |   Light_Conditions > 3.38862: Serious (5.0)
|   |   |   |   |   |   |   |   |   |   Weather_Conditions > 1.499805: Slight (4.0/1.0)
|   |   |   |   |   |   |   |   Pedestrian_Crossing-Physical_Facilities > 0.498526
|   |   |   |   |   |   |   |   |   ?Accident_Index <= 5023447
|   |   |   |   |   |   |   |   |   |   Month <= 6.499841: Slight (2.0)
|   |   |   |   |   |   |   |   |   |   Month > 6.499841: Serious (3.0)
|   |   |   |   |   |   |   |   |   ?Accident_Index > 5023447: Fatal (2.0)
|   |   |   |   |   |   |   Special_Conditions_at_Site > 0.381196: Fatal (7.0/2.0)
|   |   |   |   |   |   ?Accident_Index > 9100873
|   |   |   |   |   |   |   Light_Conditions <= 1.048604
|   |   |   |   |   |   |   |   Weather_Conditions <= 1.499805
|   |   |   |   |   |   |   |   |   Month <= 3.168513
|   |   |   |   |   |   |   |   |   |   2nd_Road_Number <= 1
|   |   |   |   |   |   |   |   |   |   |   Date <= 3.49837: Slight (7.0)
|   |   |   |   |   |   |   |   |   |   |   Date > 3.49837
|   |   |   |   |   |   |   |   |   |   |   |   Pedestrian_Crossing-Physical_Facilities <= 2.499769
|   |   |   |   |   |   |   |   |   |   |   |   |   Road_Type <= 4.499356: Slight (5.0/1.0)
|   |   |   |   |   |   |   |   |   |   |   |   |   Road_Type > 4.499356: Serious (71.0/34.0)
|   |   |   |   |   |   |   |   |   |   |   |   Pedestrian_Crossing-Physical_Facilities > 2.499769
|   |   |   |   |   |   |   |   |   |   |   |   |   Date <= 13.498763: Serious (9.0)
|   |   |   |   |   |   |   |   |   |   |   |   |   Date > 13.498763
|   |   |   |   |   |   |   |   |   |   |   |   |   |   ?Accident_Index <= 49626515.2: Slight (2.0)
|   |   |   |   |   |   |   |   |   |   |   |   |   |   ?Accident_Index > 49626515.2: Serious (2.0)
|   |   |   |   |   |   |   |   |   |   2nd_Road_Number > 1: Slight (4.0)
|   |   |   |   |   |   |   |   |   Month > 3.168513
|   |   |   |   |   |   |   |   |   |   Date <= 17.531116
|   |   |   |   |   |   |   |   |   |   |   Carriageway_Hazards <= 1
|   |   |   |   |   |   |   |   |   |   |   |   Road_Type <= 5.901524
|   |   |   |   |   |   |   |   |   |   |   |   |   Road_Type <= 4.299633
|   |   |   |   |   |   |   |   |   |   |   |   |   |   Day_of_Week <= 1.498375: Serious (4.0/1.0)
|   |   |   |   |   |   |   |   |   |   |   |   |   |   Day_of_Week > 1.498375
|   |   |   |   |   |   |   |   |   |   |   |   |   |   |   Road_Type <= 2.497012
|   |   |   |   |   |   |   |   |   |   |   |   |   |   |   |   Month <= 5.498698: Serious (6.0/1.0)
|   |   |   |   |   |   |   |   |   |   |   |   |   |   |   |   Month > 5.498698: Slight (9.0/1.0)
|   |   |   |   |   |   |   |   |   |   |   |   |   |   |   Road_Type > 2.497012: Slight (3.0)
|   |   |   |   |   |   |   |   |   |   |   |   |   Road_Type > 4.299633: Fatal (2.0)
|   |   |   |   |   |   |   |   |   |   |   |   Road_Type > 5.901524
|   |   |   |   |   |   |   |   |   |   |   |   |   Day_of_Week <= 4.909071
|   |   |   |   |   |   |   |   |   |   |   |   |   |   Month <= 9.499011
|   |   |   |   |   |   |   |   |   |   |   |   |   |   |   LSOA_of_Accident_Location <= 1016007
|   |   |   |   |   |   |   |   |   |   |   |   |   |   |   |   Day_of_Week <= 3.498525: Slight (12.0)
|   |   |   |   |   |   |   |   |   |   |   |   |   |   |   |   Day_of_Week > 3.498525
|   |   |   |   |   |   |   |   |   |   |   |   |   |   |   |   |   Time <= 13.64838: Slight (2.0)
|   |   |   |   |   |   |   |   |   |   |   |   |   |   |   |   |   Time > 13.64838: Serious (2.0)
|   |   |   |   |   |   |   |   |   |   |   |   |   |   |   LSOA_of_Accident_Location > 1016007
|   |   |   |   |   |   |   |   |   |   |   |   |   |   |   |   LSOA_of_Accident_Location <= 1022716
|   |   |   |   |   |   |   |   |   |   |   |   |   |   |   |   |   Day_of_Week <= 4.248712
|   |   |   |   |   |   |   |   |   |   |   |   |   |   |   |   |   |   Time <= 17.433333
|   |   |   |   |   |   |   |   |   |   |   |   |   |   |   |   |   |   |   Time <= 15.666612: Serious (17.0/5.0)
|   |   |   |   |   |   |   |   |   |   |   |   |   |   |   |   |   |   |   Time > 15.666612: Slight (12.0/3.0)
|   |   |   |   |   |   |   |   |   |   |   |   |   |   |   |   |   |   Time > 17.433333: Serious (11.0/1.0)
|   |   |   |   |   |   |   |   |   |   |   |   |   |   |   |   |   Day_of_Week > 4.248712: Fatal (2.0)
|   |   |   |   |   |   |   |   |   |   |   |   |   |   |   |   LSOA_of_Accident_Location > 1022716
|   |   |   |   |   |   |   |   |   |   |   |   |   |   |   |   |   ?Accident_Index <= 460124775
|   |   |   |   |   |   |   |   |   |   |   |   |   |   |   |   |   |   Month <= 6: Serious (4.0)
|   |   |   |   |   |   |   |   |   |   |   |   |   |   |   |   |   |   Month > 6: Slight (5.0/1.0)
|   |   |   |   |   |   |   |   |   |   |   |   |   |   |   |   |   ?Accident_Index > 460124775: Slight (13.0)
|   |   |   |   |   |   |   |   |   |   |   |   |   |   Month > 9.499011
|   |   |   |   |   |   |   |   |   |   |   |   |   |   |   Month <= 10.493122: Serious (10.0/1.0)
|   |   |   |   |   |   |   |   |   |   |   |   |   |   |   Month > 10.493122
|   |   |   |   |   |   |   |   |   |   |   |   |   |   |   |   ?Accident_Index <= 493115889.3: Slight (9.0/3.0)
|   |   |   |   |   |   |   |   |   |   |   |   |   |   |   |   ?Accident_Index > 493115889.3: Serious (6.0)
|   |   |   |   |   |   |   |   |   |   |   |   |   Day_of_Week > 4.909071: Serious (97.0/34.0)
|   |   |   |   |   |   |   |   |   |   |   Carriageway_Hazards > 1
|   |   |   |   |   |   |   |   |   |   |   |   Carriageway_Hazards <= 6.440381: Serious (7.0/1.0)
|   |   |   |   |   |   |   |   |   |   |   |   Carriageway_Hazards > 6.440381: Slight (2.0)
|   |   |   |   |   |   |   |   |   |   Date > 17.531116
|   |   |   |   |   |   |   |   |   |   |   Road_Type <= 2.497012: Serious (8.0/1.0)
|   |   |   |   |   |   |   |   |   |   |   Road_Type > 2.497012
|   |   |   |   |   |   |   |   |   |   |   |   Day_of_Week <= 2.49923
|   |   |   |   |   |   |   |   |   |   |   |   |   Carriageway_Hazards <= 1
|   |   |   |   |   |   |   |   |   |   |   |   |   |   Day_of_Week <= 1.498375
|   |   |   |   |   |   |   |   |   |   |   |   |   |   |   Time <= 12.486368: Slight (4.0)
|   |   |   |   |   |   |   |   |   |   |   |   |   |   |   Time > 12.486368: Serious (9.0/2.0)
|   |   |   |   |   |   |   |   |   |   |   |   |   |   Day_of_Week > 1.498375
|   |   |   |   |   |   |   |   |   |   |   |   |   |   |   Month <= 9.499011
|   |   |   |   |   |   |   |   |   |   |   |   |   |   |   |   Month <= 5.498698: Slight (2.0)
|   |   |   |   |   |   |   |   |   |   |   |   |   |   |   |   Month > 5.498698
|   |   |   |   |   |   |   |   |   |   |   |   |   |   |   |   |   Month <= 8.499734
|   |   |   |   |   |   |   |   |   |   |   |   |   |   |   |   |   |   ?Accident_Index <= 22068514.15: Slight (3.0)
|   |   |   |   |   |   |   |   |   |   |   |   |   |   |   |   |   |   ?Accident_Index > 22068514.15: Serious (7.0/2.0)
|   |   |   |   |   |   |   |   |   |   |   |   |   |   |   |   |   Month > 8.499734: Serious (2.0)
|   |   |   |   |   |   |   |   |   |   |   |   |   |   |   Month > 9.499011: Slight (5.0)
|   |   |   |   |   |   |   |   |   |   |   |   |   Carriageway_Hazards > 1: Serious (3.0/1.0)
|   |   |   |   |   |   |   |   |   |   |   |   Day_of_Week > 2.49923
|   |   |   |   |   |   |   |   |   |   |   |   |   Road_Type <= 7.457955: Serious (118.0/37.0)
|   |   |   |   |   |   |   |   |   |   |   |   |   Road_Type > 7.457955: Slight (4.0/1.0)
|   |   |   |   |   |   |   |   Weather_Conditions > 1.499805
|   |   |   |   |   |   |   |   |   Day_of_Week <= 5.499801: Slight (64.0/21.0)
|   |   |   |   |   |   |   |   |   Day_of_Week > 5.499801
|   |   |   |   |   |   |   |   |   |   Date <= 10: Slight (3.0/1.0)
|   |   |   |   |   |   |   |   |   |   Date > 10
|   |   |   |   |   |   |   |   |   |   |   LSOA_of_Accident_Location <= 1022051
|   |   |   |   |   |   |   |   |   |   |   |   Date <= 26.497274: Serious (9.0/1.0)
|   |   |   |   |   |   |   |   |   |   |   |   Date > 26.497274: Slight (2.0)
|   |   |   |   |   |   |   |   |   |   |   LSOA_of_Accident_Location > 1022051: Slight (2.0)
|   |   |   |   |   |   |   Light_Conditions > 1.048604
|   |   |   |   |   |   |   |   Light_Conditions <= 3.939541: Fatal (12.0)
|   |   |   |   |   |   |   |   Light_Conditions > 3.939541
|   |   |   |   |   |   |   |   |   Road_Type <= 4.783247
|   |   |   |   |   |   |   |   |   |   Did_Police_Officer_Attend_Scene_of_Accident <= 1.172294
|   |   |   |   |   |   |   |   |   |   |   Road_Type <= 3.127865
|   |   |   |   |   |   |   |   |   |   |   |   Weather_Conditions <= 6.482064
|   |   |   |   |   |   |   |   |   |   |   |   |   LSOA_of_Accident_Location <= 1015116: Slight (4.0)
|   |   |   |   |   |   |   |   |   |   |   |   |   LSOA_of_Accident_Location > 1015116
|   |   |   |   |   |   |   |   |   |   |   |   |   |   Month <= 8.499734: Serious (12.0/3.0)
|   |   |   |   |   |   |   |   |   |   |   |   |   |   Month > 8.499734
|   |   |   |   |   |   |   |   |   |   |   |   |   |   |   Month <= 11.499504: Slight (6.0/1.0)
|   |   |   |   |   |   |   |   |   |   |   |   |   |   |   Month > 11.499504: Serious (3.0)
|   |   |   |   |   |   |   |   |   |   |   |   Weather_Conditions > 6.482064: Slight (2.0)
|   |   |   |   |   |   |   |   |   |   |   Road_Type > 3.127865: Fatal (2.0)
|   |   |   |   |   |   |   |   |   |   Did_Police_Officer_Attend_Scene_of_Accident > 1.172294: Fatal (2.0)
|   |   |   |   |   |   |   |   |   Road_Type > 4.783247
|   |   |   |   |   |   |   |   |   |   Date <= 9.4987
|   |   |   |   |   |   |   |   |   |   |   Month <= 9.499011
|   |   |   |   |   |   |   |   |   |   |   |   Weather_Conditions <= 1.782197
|   |   |   |   |   |   |   |   |   |   |   |   |   Light_Conditions <= 5.499339
|   |   |   |   |   |   |   |   |   |   |   |   |   |   Light_Conditions <= 4.497912
|   |   |   |   |   |   |   |   |   |   |   |   |   |   |   Date <= 8.496828: Serious (34.0/7.0)
|   |   |   |   |   |   |   |   |   |   |   |   |   |   |   Date > 8.496828: Slight (3.0/1.0)
|   |   |   |   |   |   |   |   |   |   |   |   |   |   Light_Conditions > 4.497912: Slight (2.0)
|   |   |   |   |   |   |   |   |   |   |   |   |   Light_Conditions > 5.499339
|   |   |   |   |   |   |   |   |   |   |   |   |   |   Day_of_Week <= 1.498375: Fatal (3.0/1.0)
|   |   |   |   |   |   |   |   |   |   |   |   |   |   Day_of_Week > 1.498375: Serious (13.0/2.0)
|   |   |   |   |   |   |   |   |   |   |   |   Weather_Conditions > 1.782197
|   |   |   |   |   |   |   |   |   |   |   |   |   Weather_Conditions <= 6.482064: Slight (5.0)
|   |   |   |   |   |   |   |   |   |   |   |   |   Weather_Conditions > 6.482064: Serious (4.0/1.0)
|   |   |   |   |   |   |   |   |   |   |   Month > 9.499011
|   |   |   |   |   |   |   |   |   |   |   |   Pedestrian_Crossing-Physical_Facilities <= 2.499769
|   |   |   |   |   |   |   |   |   |   |   |   |   ?Accident_Index <= 42450248.51: Slight (12.0/1.0)
|   |   |   |   |   |   |   |   |   |   |   |   |   ?Accident_Index > 42450248.51
|   |   |   |   |   |   |   |   |   |   |   |   |   |   Day_of_Week <= 3: Serious (3.0)
|   |   |   |   |   |   |   |   |   |   |   |   |   |   Day_of_Week > 3
|   |   |   |   |   |   |   |   |   |   |   |   |   |   |   Day_of_Week <= 5.499801: Slight (2.0)
|   |   |   |   |   |   |   |   |   |   |   |   |   |   |   Day_of_Week > 5.499801
|   |   |   |   |   |   |   |   |   |   |   |   |   |   |   |   Month <= 11.499504: Slight (3.0/1.0)
|   |   |   |   |   |   |   |   |   |   |   |   |   |   |   |   Month > 11.499504: Serious (3.0)
|   |   |   |   |   |   |   |   |   |   |   |   Pedestrian_Crossing-Physical_Facilities > 2.499769: Serious (3.0/1.0)
|   |   |   |   |   |   |   |   |   |   Date > 9.4987
|   |   |   |   |   |   |   |   |   |   |   Carriageway_Hazards <= 1
|   |   |   |   |   |   |   |   |   |   |   |   Light_Conditions <= 5.499339
|   |   |   |   |   |   |   |   |   |   |   |   |   Light_Conditions <= 4.497912: Serious (141.0/61.0)
|   |   |   |   |   |   |   |   |   |   |   |   |   Light_Conditions > 4.497912
|   |   |   |   |   |   |   |   |   |   |   |   |   |   LSOA_of_Accident_Location <= 1016636: Slight (2.0)
|   |   |   |   |   |   |   |   |   |   |   |   |   |   LSOA_of_Accident_Location > 1016636
|   |   |   |   |   |   |   |   |   |   |   |   |   |   |   Time <= 18.956868: Slight (2.0)
|   |   |   |   |   |   |   |   |   |   |   |   |   |   |   Time > 18.956868: Serious (2.0)
|   |   |   |   |   |   |   |   |   |   |   |   Light_Conditions > 5.499339
|   |   |   |   |   |   |   |   |   |   |   |   |   Weather_Conditions <= 6
|   |   |   |   |   |   |   |   |   |   |   |   |   |   Time <= 0.41429: Slight (4.0)
|   |   |   |   |   |   |   |   |   |   |   |   |   |   Time > 0.41429
|   |   |   |   |   |   |   |   |   |   |   |   |   |   |   Date <= 27: Serious (48.0/8.0)
|   |   |   |   |   |   |   |   |   |   |   |   |   |   |   Date > 27
|   |   |   |   |   |   |   |   |   |   |   |   |   |   |   |   Date <= 29: Slight (4.0)
|   |   |   |   |   |   |   |   |   |   |   |   |   |   |   |   Date > 29
|   |   |   |   |   |   |   |   |   |   |   |   |   |   |   |   |   LSOA_of_Accident_Location <= 1021547: Serious (4.0)
|   |   |   |   |   |   |   |   |   |   |   |   |   |   |   |   |   LSOA_of_Accident_Location > 1021547: Slight (4.0/1.0)
|   |   |   |   |   |   |   |   |   |   |   |   |   Weather_Conditions > 6: Slight (7.0/2.0)
|   |   |   |   |   |   |   |   |   |   |   Carriageway_Hazards > 1: Slight (9.0/2.0)
|   |   |   |   Number_of_Vehicles > 1.002602: Fatal (111.0)
|   |   |   Number_of_Vehicles > 1.997498
|   |   |   |   Pedestrian_Crossing-Physical_Facilities <= 0.073156
|   |   |   |   |   Number_of_Vehicles <= 2.044998
|   |   |   |   |   |   Road_Type <= 2.497012
|   |   |   |   |   |   |   Date <= 2.498941: Serious (6.0/2.0)
|   |   |   |   |   |   |   Date > 2.498941: Slight (101.0/21.0)
|   |   |   |   |   |   Road_Type > 2.497012
|   |   |   |   |   |   |   LSOA_of_Accident_Location <= 1001879.468
|   |   |   |   |   |   |   |   Road_Type <= 4.499356
|   |   |   |   |   |   |   |   |   Month <= 3: Serious (3.0)
|   |   |   |   |   |   |   |   |   Month > 3: Slight (9.0/1.0)
|   |   |   |   |   |   |   |   Road_Type > 4.499356: Slight (149.0/39.0)
|   |   |   |   |   |   |   LSOA_of_Accident_Location > 1001879.468
|   |   |   |   |   |   |   |   LSOA_of_Accident_Location <= 1007665.729
|   |   |   |   |   |   |   |   |   LSOA_of_Accident_Location <= 1006352.656: Serious (27.0)
|   |   |   |   |   |   |   |   |   LSOA_of_Accident_Location > 1006352.656
|   |   |   |   |   |   |   |   |   |   2nd_Road_Number <= 158: Serious (14.0/3.0)
|   |   |   |   |   |   |   |   |   |   2nd_Road_Number > 158: Fatal (2.0)
|   |   |   |   |   |   |   |   LSOA_of_Accident_Location > 1007665.729
|   |   |   |   |   |   |   |   |   2nd_Road_Number <= 4
|   |   |   |   |   |   |   |   |   |   Weather_Conditions <= 7.906445
|   |   |   |   |   |   |   |   |   |   |   ?Accident_Index <= 20054002
|   |   |   |   |   |   |   |   |   |   |   |   Day_of_Week <= 3.498525
|   |   |   |   |   |   |   |   |   |   |   |   |   Month <= 10.493122
|   |   |   |   |   |   |   |   |   |   |   |   |   |   Month <= 7.494763
|   |   |   |   |   |   |   |   |   |   |   |   |   |   |   Light_Conditions <= 2.499744: Slight (95.0/41.0)
|   |   |   |   |   |   |   |   |   |   |   |   |   |   |   Light_Conditions > 2.499744
|   |   |   |   |   |   |   |   |   |   |   |   |   |   |   |   Road_Type <= 4.499356: Serious (2.0)
|   |   |   |   |   |   |   |   |   |   |   |   |   |   |   |   Road_Type > 4.499356
|   |   |   |   |   |   |   |   |   |   |   |   |   |   |   |   |   LSOA_of_Accident_Location <= 1009517: Slight (4.0)
|   |   |   |   |   |   |   |   |   |   |   |   |   |   |   |   |   LSOA_of_Accident_Location > 1009517
|   |   |   |   |   |   |   |   |   |   |   |   |   |   |   |   |   |   Weather_Conditions <= 1.499805
|   |   |   |   |   |   |   |   |   |   |   |   |   |   |   |   |   |   |   Date <= 16: Serious (8.0/2.0)
|   |   |   |   |   |   |   |   |   |   |   |   |   |   |   |   |   |   |   Date > 16: Slight (3.0)
|   |   |   |   |   |   |   |   |   |   |   |   |   |   |   |   |   |   Weather_Conditions > 1.499805
|   |   |   |   |   |   |   |   |   |   |   |   |   |   |   |   |   |   |   Time <= 5.453904: Slight (2.0)
|   |   |   |   |   |   |   |   |   |   |   |   |   |   |   |   |   |   |   Time > 5.453904: Serious (3.0)
|   |   |   |   |   |   |   |   |   |   |   |   |   |   Month > 7.494763
|   |   |   |   |   |   |   |   |   |   |   |   |   |   |   Time <= 18.17476
|   |   |   |   |   |   |   |   |   |   |   |   |   |   |   |   Weather_Conditions <= 1.499805
|   |   |   |   |   |   |   |   |   |   |   |   |   |   |   |   |   ?Accident_Index <= 17051906: Serious (20.0/5.0)
|   |   |   |   |   |   |   |   |   |   |   |   |   |   |   |   |   ?Accident_Index > 17051906: Slight (2.0)
|   |   |   |   |   |   |   |   |   |   |   |   |   |   |   |   Weather_Conditions > 1.499805
|   |   |   |   |   |   |   |   |   |   |   |   |   |   |   |   |   Time <= 12.8: Slight (2.0)
|   |   |   |   |   |   |   |   |   |   |   |   |   |   |   |   |   Time > 12.8: Serious (2.0)
|   |   |   |   |   |   |   |   |   |   |   |   |   |   |   Time > 18.17476
|   |   |   |   |   |   |   |   |   |   |   |   |   |   |   |   Date <= 19.492385: Slight (10.0)
|   |   |   |   |   |   |   |   |   |   |   |   |   |   |   |   Date > 19.492385: Serious (3.0/1.0)
|   |   |   |   |   |   |   |   |   |   |   |   |   Month > 10.493122: Slight (30.0/6.0)
|   |   |   |   |   |   |   |   |   |   |   |   Day_of_Week > 3.498525
|   |   |   |   |   |   |   |   |   |   |   |   |   Day_of_Week <= 6.499406: Slight (207.0/61.0)
|   |   |   |   |   |   |   |   |   |   |   |   |   Day_of_Week > 6.499406: Serious (40.0/18.0)
|   |   |   |   |   |   |   |   |   |   |   ?Accident_Index > 20054002
|   |   |   |   |   |   |   |   |   |   |   |   LSOA_of_Accident_Location <= 1013475
|   |   |   |   |   |   |   |   |   |   |   |   |   LSOA_of_Accident_Location <= 1010547
|   |   |   |   |   |   |   |   |   |   |   |   |   |   Time <= 7.783333
|   |   |   |   |   |   |   |   |   |   |   |   |   |   |   Date <= 23.486346: Serious (8.0)
|   |   |   |   |   |   |   |   |   |   |   |   |   |   |   Date > 23.486346
|   |   |   |   |   |   |   |   |   |   |   |   |   |   |   |   ?Accident_Index <= 20073365.22: Fatal (2.0)
|   |   |   |   |   |   |   |   |   |   |   |   |   |   |   |   ?Accident_Index > 20073365.22: Slight (2.0/1.0)
|   |   |   |   |   |   |   |   |   |   |   |   |   |   Time > 7.783333
|   |   |   |   |   |   |   |   |   |   |   |   |   |   |   Day_of_Week <= 1.498375
|   |   |   |   |   |   |   |   |   |   |   |   |   |   |   |   LSOA_of_Accident_Location <= 1009898
|   |   |   |   |   |   |   |   |   |   |   |   |   |   |   |   |   Month <= 11: Slight (6.0)
|   |   |   |   |   |   |   |   |   |   |   |   |   |   |   |   |   Month > 11: Serious (3.0/1.0)
|   |   |   |   |   |   |   |   |   |   |   |   |   |   |   |   LSOA_of_Accident_Location > 1009898: Fatal (2.0)
|   |   |   |   |   |   |   |   |   |   |   |   |   |   |   Day_of_Week > 1.498375
|   |   |   |   |   |   |   |   |   |   |   |   |   |   |   |   Light_Conditions <= 2.499744
|   |   |   |   |   |   |   |   |   |   |   |   |   |   |   |   |   Weather_Conditions <= 3.493
|   |   |   |   |   |   |   |   |   |   |   |   |   |   |   |   |   |   Weather_Conditions <= 1.499805
|   |   |   |   |   |   |   |   |   |   |   |   |   |   |   |   |   |   |   Day_of_Week <= 4.499517: Serious (17.0/7.0)
|   |   |   |   |   |   |   |   |   |   |   |   |   |   |   |   |   |   |   Day_of_Week > 4.499517
|   |   |   |   |   |   |   |   |   |   |   |   |   |   |   |   |   |   |   |   Date <= 15.496667: Slight (11.0)
|   |   |   |   |   |   |   |   |   |   |   |   |   |   |   |   |   |   |   |   Date > 15.496667
|   |   |   |   |   |   |   |   |   |   |   |   |   |   |   |   |   |   |   |   |   Date <= 21.49849: Serious (6.0/1.0)
|   |   |   |   |   |   |   |   |   |   |   |   |   |   |   |   |   |   |   |   |   Date > 21.49849
|   |   |   |   |   |   |   |   |   |   |   |   |   |   |   |   |   |   |   |   |   |   Month <= 5.498698: Serious (3.0/1.0)
|   |   |   |   |   |   |   |   |   |   |   |   |   |   |   |   |   |   |   |   |   |   Month > 5.498698: Slight (8.0)
|   |   |   |   |   |   |   |   |   |   |   |   |   |   |   |   |   |   Weather_Conditions > 1.499805: Slight (9.0/1.0)
|   |   |   |   |   |   |   |   |   |   |   |   |   |   |   |   |   Weather_Conditions > 3.493: Serious (2.0)
|   |   |   |   |   |   |   |   |   |   |   |   |   |   |   |   Light_Conditions > 2.499744
|   |   |   |   |   |   |   |   |   |   |   |   |   |   |   |   |   Time <= 18.983333: Serious (7.0/1.0)
|   |   |   |   |   |   |   |   |   |   |   |   |   |   |   |   |   Time > 18.983333: Slight (11.0/2.0)
|   |   |   |   |   |   |   |   |   |   |   |   |   LSOA_of_Accident_Location > 1010547
|   |   |   |   |   |   |   |   |   |   |   |   |   |   Weather_Conditions <= 2.504302: Serious (69.0/6.0)
|   |   |   |   |   |   |   |   |   |   |   |   |   |   Weather_Conditions > 2.504302
|   |   |   |   |   |   |   |   |   |   |   |   |   |   |   ?Accident_Index <= 130493706: Serious (2.0)
|   |   |   |   |   |   |   |   |   |   |   |   |   |   |   ?Accident_Index > 130493706: Fatal (2.0)
|   |   |   |   |   |   |   |   |   |   |   |   LSOA_of_Accident_Location > 1013475
|   |   |   |   |   |   |   |   |   |   |   |   |   Day_of_Week <= 1.360697
|   |   |   |   |   |   |   |   |   |   |   |   |   |   Light_Conditions <= 4.497912
|   |   |   |   |   |   |   |   |   |   |   |   |   |   |   Weather_Conditions <= 3
|   |   |   |   |   |   |   |   |   |   |   |   |   |   |   |   Light_Conditions <= 2.499744
|   |   |   |   |   |   |   |   |   |   |   |   |   |   |   |   |   Time <= 9.37443: Slight (6.0)
|   |   |   |   |   |   |   |   |   |   |   |   |   |   |   |   |   Time > 9.37443
|   |   |   |   |   |   |   |   |   |   |   |   |   |   |   |   |   |   ?Accident_Index <= 440381072
|   |   |   |   |   |   |   |   |   |   |   |   |   |   |   |   |   |   |   Time <= 18.20739: Serious (16.0)
|   |   |   |   |   |   |   |   |   |   |   |   |   |   |   |   |   |   |   Time > 18.20739
|   |   |   |   |   |   |   |   |   |   |   |   |   |   |   |   |   |   |   |   ?Accident_Index <= 62725407.12: Slight (2.0)
|   |   |   |   |   |   |   |   |   |   |   |   |   |   |   |   |   |   |   |   ?Accident_Index > 62725407.12: Serious (2.0)
|   |   |   |   |   |   |   |   |   |   |   |   |   |   |   |   |   |   ?Accident_Index > 440381072
|   |   |   |   |   |   |   |   |   |   |   |   |   |   |   |   |   |   |   LSOA_of_Accident_Location <= 1029116.688: Slight (24.0/8.0)
|   |   |   |   |   |   |   |   |   |   |   |   |   |   |   |   |   |   |   LSOA_of_Accident_Location > 1029116.688: Serious (3.0)
|   |   |   |   |   |   |   |   |   |   |   |   |   |   |   |   Light_Conditions > 2.499744
|   |   |   |   |   |   |   |   |   |   |   |   |   |   |   |   |   ?Accident_Index <= 489164476.6
|   |   |   |   |   |   |   |   |   |   |   |   |   |   |   |   |   |   Date <= 13.498763
|   |   |   |   |   |   |   |   |   |   |   |   |   |   |   |   |   |   |   ?Accident_Index <= 255194781.8: Serious (7.0)
|   |   |   |   |   |   |   |   |   |   |   |   |   |   |   |   |   |   |   ?Accident_Index > 255194781.8: Slight (5.0/1.0)
|   |   |   |   |   |   |   |   |   |   |   |   |   |   |   |   |   |   Date > 13.498763: Slight (5.0/1.0)
|   |   |   |   |   |   |   |   |   |   |   |   |   |   |   |   |   ?Accident_Index > 489164476.6: Serious (7.0)
|   |   |   |   |   |   |   |   |   |   |   |   |   |   |   Weather_Conditions > 3: Slight (4.0/1.0)
|   |   |   |   |   |   |   |   |   |   |   |   |   |   Light_Conditions > 4.497912
|   |   |   |   |   |   |   |   |   |   |   |   |   |   |   Date <= 25: Slight (9.0/1.0)
|   |   |   |   |   |   |   |   |   |   |   |   |   |   |   Date > 25: Serious (2.0)
|   |   |   |   |   |   |   |   |   |   |   |   |   Day_of_Week > 1.360697
|   |   |   |   |   |   |   |   |   |   |   |   |   |   Light_Conditions <= 5.013549
|   |   |   |   |   |   |   |   |   |   |   |   |   |   |   Weather_Conditions <= 1.499805
|   |   |   |   |   |   |   |   |   |   |   |   |   |   |   |   Day_of_Week <= 5.411891
|   |   |   |   |   |   |   |   |   |   |   |   |   |   |   |   |   Light_Conditions <= 2.499744
|   |   |   |   |   |   |   |   |   |   |   |   |   |   |   |   |   |   Month <= 4.499373
|   |   |   |   |   |   |   |   |   |   |   |   |   |   |   |   |   |   |   Month <= 3.49923
|   |   |   |   |   |   |   |   |   |   |   |   |   |   |   |   |   |   |   |   ?Accident_Index <= 42011003: Slight (9.0/2.0)
|   |   |   |   |   |   |   |   |   |   |   |   |   |   |   |   |   |   |   |   ?Accident_Index > 42011003
|   |   |   |   |   |   |   |   |   |   |   |   |   |   |   |   |   |   |   |   |   Day_of_Week <= 2.49923
|   |   |   |   |   |   |   |   |   |   |   |   |   |   |   |   |   |   |   |   |   |   LSOA_of_Accident_Location <= 1021861.351: Slight (7.0/1.0)
|   |   |   |   |   |   |   |   |   |   |   |   |   |   |   |   |   |   |   |   |   |   LSOA_of_Accident_Location > 1021861.351: Serious (3.0)
|   |   |   |   |   |   |   |   |   |   |   |   |   |   |   |   |   |   |   |   |   Day_of_Week > 2.49923: Serious (28.0/8.0)
|   |   |   |   |   |   |   |   |   |   |   |   |   |   |   |   |   |   |   Month > 3.49923
|   |   |   |   |   |   |   |   |   |   |   |   |   |   |   |   |   |   |   |   Date <= 18.494474
|   |   |   |   |   |   |   |   |   |   |   |   |   |   |   |   |   |   |   |   |   LSOA_of_Accident_Location <= 1016269: Slight (3.0/1.0)
|   |   |   |   |   |   |   |   |   |   |   |   |   |   |   |   |   |   |   |   |   LSOA_of_Accident_Location > 1016269
|   |   |   |   |   |   |   |   |   |   |   |   |   |   |   |   |   |   |   |   |   |   Day_of_Week <= 2.49923
|   |   |   |   |   |   |   |   |   |   |   |   |   |   |   |   |   |   |   |   |   |   |   Time <= 14.905661: Slight (2.0)
|   |   |   |   |   |   |   |   |   |   |   |   |   |   |   |   |   |   |   |   |   |   |   Time > 14.905661: Serious (2.0)
|   |   |   |   |   |   |   |   |   |   |   |   |   |   |   |   |   |   |   |   |   |   Day_of_Week > 2.49923: Serious (12.0/2.0)
|   |   |   |   |   |   |   |   |   |   |   |   |   |   |   |   |   |   |   |   Date > 18.494474
|   |   |   |   |   |   |   |   |   |   |   |   |   |   |   |   |   |   |   |   |   LSOA_of_Accident_Location <= 1017875: Serious (3.0/1.0)
|   |   |   |   |   |   |   |   |   |   |   |   |   |   |   |   |   |   |   |   |   LSOA_of_Accident_Location > 1017875: Slight (6.0)
|   |   |   |   |   |   |   |   |   |   |   |   |   |   |   |   |   |   Month > 4.499373: Slight (236.0/92.0)
|   |   |   |   |   |   |   |   |   |   |   |   |   |   |   |   |   Light_Conditions > 2.499744
|   |   |   |   |   |   |   |   |   |   |   |   |   |   |   |   |   |   Day_of_Week <= 3.498525
|   |   |   |   |   |   |   |   |   |   |   |   |   |   |   |   |   |   |   Day_of_Week <= 2.49923
|   |   |   |   |   |   |   |   |   |   |   |   |   |   |   |   |   |   |   |   Time <= 18.220896: Serious (8.0/2.0)
|   |   |   |   |   |   |   |   |   |   |   |   |   |   |   |   |   |   |   |   Time > 18.220896
|   |   |   |   |   |   |   |   |   |   |   |   |   |   |   |   |   |   |   |   |   ?Accident_Index <= 464356208.2: Slight (7.0/1.0)
|   |   |   |   |   |   |   |   |   |   |   |   |   |   |   |   |   |   |   |   |   ?Accident_Index > 464356208.2: Serious (3.0/1.0)
|   |   |   |   |   |   |   |   |   |   |   |   |   |   |   |   |   |   |   Day_of_Week > 2.49923
|   |   |   |   |   |   |   |   |   |   |   |   |   |   |   |   |   |   |   |   Time <= 17.415299: Slight (6.0)
|   |   |   |   |   |   |   |   |   |   |   |   |   |   |   |   |   |   |   |   Time > 17.415299
|   |   |   |   |   |   |   |   |   |   |   |   |   |   |   |   |   |   |   |   |   Month <= 4: Slight (5.0/1.0)
|   |   |   |   |   |   |   |   |   |   |   |   |   |   |   |   |   |   |   |   |   Month > 4: Serious (9.0/2.0)
|   |   |   |   |   |   |   |   |   |   |   |   |   |   |   |   |   |   Day_of_Week > 3.498525
|   |   |   |   |   |   |   |   |   |   |   |   |   |   |   |   |   |   |   Time <= 23.124197
|   |   |   |   |   |   |   |   |   |   |   |   |   |   |   |   |   |   |   |   LSOA_of_Accident_Location <= 1028146: Slight (31.0/5.0)
|   |   |   |   |   |   |   |   |   |   |   |   |   |   |   |   |   |   |   |   LSOA_of_Accident_Location > 1028146: Serious (2.0)
|   |   |   |   |   |   |   |   |   |   |   |   |   |   |   |   |   |   |   Time > 23.124197: Serious (2.0/1.0)
|   |   |   |   |   |   |   |   |   |   |   |   |   |   |   |   Day_of_Week > 5.411891
|   |   |   |   |   |   |   |   |   |   |   |   |   |   |   |   |   Light_Conditions <= 2.499744
|   |   |   |   |   |   |   |   |   |   |   |   |   |   |   |   |   |   Month <= 8.639598
|   |   |   |   |   |   |   |   |   |   |   |   |   |   |   |   |   |   |   Road_Type <= 5.280819: Serious (4.0/1.0)
|   |   |   |   |   |   |   |   |   |   |   |   |   |   |   |   |   |   |   Road_Type > 5.280819
|   |   |   |   |   |   |   |   |   |   |   |   |   |   |   |   |   |   |   |   Month <= 3.49923
|   |   |   |   |   |   |   |   |   |   |   |   |   |   |   |   |   |   |   |   |   Time <= 15.5
|   |   |   |   |   |   |   |   |   |   |   |   |   |   |   |   |   |   |   |   |   |   Date <= 13.498763: Slight (10.0)
|   |   |   |   |   |   |   |   |   |   |   |   |   |   |   |   |   |   |   |   |   |   Date > 13.498763
|   |   |   |   |   |   |   |   |   |   |   |   |   |   |   |   |   |   |   |   |   |   |   Month <= 1.491569
|   |   |   |   |   |   |   |   |   |   |   |   |   |   |   |   |   |   |   |   |   |   |   |   Time <= 11.682978: Slight (3.0)
|   |   |   |   |   |   |   |   |   |   |   |   |   |   |   |   |   |   |   |   |   |   |   |   Time > 11.682978: Serious (3.0/1.0)
|   |   |   |   |   |   |   |   |   |   |   |   |   |   |   |   |   |   |   |   |   |   |   Month > 1.491569
|   |   |   |   |   |   |   |   |   |   |   |   |   |   |   |   |   |   |   |   |   |   |   |   Month <= 2.499686: Fatal (4.0/1.0)
|   |   |   |   |   |   |   |   |   |   |   |   |   |   |   |   |   |   |   |   |   |   |   |   Month > 2.499686: Slight (2.0)
|   |   |   |   |   |   |   |   |   |   |   |   |   |   |   |   |   |   |   |   |   Time > 15.5
|   |   |   |   |   |   |   |   |   |   |   |   |   |   |   |   |   |   |   |   |   |   Day_of_Week <= 6.499406: Serious (2.0)
|   |   |   |   |   |   |   |   |   |   |   |   |   |   |   |   |   |   |   |   |   |   Day_of_Week > 6.499406
|   |   |   |   |   |   |   |   |   |   |   |   |   |   |   |   |   |   |   |   |   |   |   ?Accident_Index <= 199950546.1: Slight (2.0)
|   |   |   |   |   |   |   |   |   |   |   |   |   |   |   |   |   |   |   |   |   |   |   ?Accident_Index > 199950546.1: Serious (2.0)
|   |   |   |   |   |   |   |   |   |   |   |   |   |   |   |   |   |   |   |   Month > 3.49923
|   |   |   |   |   |   |   |   |   |   |   |   |   |   |   |   |   |   |   |   |   ?Accident_Index <= 520056801
|   |   |   |   |   |   |   |   |   |   |   |   |   |   |   |   |   |   |   |   |   |   Month <= 7.159885
|   |   |   |   |   |   |   |   |   |   |   |   |   |   |   |   |   |   |   |   |   |   |   Day_of_Week <= 6.499406
|   |   |   |   |   |   |   |   |   |   |   |   |   |   |   |   |   |   |   |   |   |   |   |   Month <= 5.498698
|   |   |   |   |   |   |   |   |   |   |   |   |   |   |   |   |   |   |   |   |   |   |   |   |   Month <= 4.499373
|   |   |   |   |   |   |   |   |   |   |   |   |   |   |   |   |   |   |   |   |   |   |   |   |   |   Time <= 14.273784: Serious (2.0)
|   |   |   |   |   |   |   |   |   |   |   |   |   |   |   |   |   |   |   |   |   |   |   |   |   |   Time > 14.273784: Slight (4.0)
|   |   |   |   |   |   |   |   |   |   |   |   |   |   |   |   |   |   |   |   |   |   |   |   |   Month > 4.499373
|   |   |   |   |   |   |   |   |   |   |   |   |   |   |   |   |   |   |   |   |   |   |   |   |   |   ?Accident_Index <= 37027005: Fatal (3.0/1.0)
|   |   |   |   |   |   |   |   |   |   |   |   |   |   |   |   |   |   |   |   |   |   |   |   |   |   ?Accident_Index > 37027005
|   |   |   |   |   |   |   |   |   |   |   |   |   |   |   |   |   |   |   |   |   |   |   |   |   |   |   ?Accident_Index <= 460126553.3: Serious (4.0/1.0)
|   |   |   |   |   |   |   |   |   |   |   |   |   |   |   |   |   |   |   |   |   |   |   |   |   |   |   ?Accident_Index > 460126553.3: Slight (3.0)
|   |   |   |   |   |   |   |   |   |   |   |   |   |   |   |   |   |   |   |   |   |   |   |   Month > 5.498698
|   |   |   |   |   |   |   |   |   |   |   |   |   |   |   |   |   |   |   |   |   |   |   |   |   LSOA_of_Accident_Location <= 1017051: Slight (3.0)
|   |   |   |   |   |   |   |   |   |   |   |   |   |   |   |   |   |   |   |   |   |   |   |   |   LSOA_of_Accident_Location > 1017051: Serious (17.0/5.0)
|   |   |   |   |   |   |   |   |   |   |   |   |   |   |   |   |   |   |   |   |   |   |   Day_of_Week > 6.499406: Slight (22.0/8.0)
|   |   |   |   |   |   |   |   |   |   |   |   |   |   |   |   |   |   |   |   |   |   Month > 7.159885
|   |   |   |   |   |   |   |   |   |   |   |   |   |   |   |   |   |   |   |   |   |   |   Day_of_Week <= 6.206857: Slight (4.0)
|   |   |   |   |   |   |   |   |   |   |   |   |   |   |   |   |   |   |   |   |   |   |   Day_of_Week > 6.206857
|   |   |   |   |   |   |   |   |   |   |   |   |   |   |   |   |   |   |   |   |   |   |   |   ?Accident_Index <= 55700187: Serious (2.0)
|   |   |   |   |   |   |   |   |   |   |   |   |   |   |   |   |   |   |   |   |   |   |   |   ?Accident_Index > 55700187: Fatal (2.0)
|   |   |   |   |   |   |   |   |   |   |   |   |   |   |   |   |   |   |   |   |   ?Accident_Index > 520056801: Serious (11.0/1.0)
|   |   |   |   |   |   |   |   |   |   |   |   |   |   |   |   |   |   Month > 8.639598: Slight (34.0/8.0)
|   |   |   |   |   |   |   |   |   |   |   |   |   |   |   |   |   Light_Conditions > 2.499744
|   |   |   |   |   |   |   |   |   |   |   |   |   |   |   |   |   |   Carriageway_Hazards <= 1
|   |   |   |   |   |   |   |   |   |   |   |   |   |   |   |   |   |   |   Time <= 21.950078
|   |   |   |   |   |   |   |   |   |   |   |   |   |   |   |   |   |   |   |   Date <= 23.486346
|   |   |   |   |   |   |   |   |   |   |   |   |   |   |   |   |   |   |   |   |   Date <= 11.498611
|   |   |   |   |   |   |   |   |   |   |   |   |   |   |   |   |   |   |   |   |   |   Time <= 18.8: Serious (8.0/2.0)
|   |   |   |   |   |   |   |   |   |   |   |   |   |   |   |   |   |   |   |   |   |   Time > 18.8: Slight (3.0)
|   |   |   |   |   |   |   |   |   |   |   |   |   |   |   |   |   |   |   |   |   Date > 11.498611: Serious (7.0/1.0)
|   |   |   |   |   |   |   |   |   |   |   |   |   |   |   |   |   |   |   |   Date > 23.486346: Slight (11.0/3.0)
|   |   |   |   |   |   |   |   |   |   |   |   |   |   |   |   |   |   |   Time > 21.950078: Slight (6.0)
|   |   |   |   |   |   |   |   |   |   |   |   |   |   |   |   |   |   Carriageway_Hazards > 1: Serious (2.0)
|   |   |   |   |   |   |   |   |   |   |   |   |   |   |   Weather_Conditions > 1.499805
|   |   |   |   |   |   |   |   |   |   |   |   |   |   |   |   Light_Conditions <= 2.499744
|   |   |   |   |   |   |   |   |   |   |   |   |   |   |   |   |   LSOA_of_Accident_Location <= 1017816.051: Slight (12.0/1.0)
|   |   |   |   |   |   |   |   |   |   |   |   |   |   |   |   |   LSOA_of_Accident_Location > 1017816.051
|   |   |   |   |   |   |   |   |   |   |   |   |   |   |   |   |   |   Day_of_Week <= 4.499517
|   |   |   |   |   |   |   |   |   |   |   |   |   |   |   |   |   |   |   ?Accident_Index <= 440129377: Serious (18.0/4.0)
|   |   |   |   |   |   |   |   |   |   |   |   |   |   |   |   |   |   |   ?Accident_Index > 440129377
|   |   |   |   |   |   |   |   |   |   |   |   |   |   |   |   |   |   |   |   Day_of_Week <= 3.498525
|   |   |   |   |   |   |   |   |   |   |   |   |   |   |   |   |   |   |   |   |   ?Accident_Index <= 930004262
|   |   |   |   |   |   |   |   |   |   |   |   |   |   |   |   |   |   |   |   |   |   Time <= 16.39109: Slight (6.0)
|   |   |   |   |   |   |   |   |   |   |   |   |   |   |   |   |   |   |   |   |   |   Time > 16.39109: Serious (4.0/1.0)
|   |   |   |   |   |   |   |   |   |   |   |   |   |   |   |   |   |   |   |   |   ?Accident_Index > 930004262: Serious (3.0)
|   |   |   |   |   |   |   |   |   |   |   |   |   |   |   |   |   |   |   |   Day_of_Week > 3.498525: Slight (4.0)
|   |   |   |   |   |   |   |   |   |   |   |   |   |   |   |   |   |   Day_of_Week > 4.499517
|   |   |   |   |   |   |   |   |   |   |   |   |   |   |   |   |   |   |   Month <= 2.499686: Serious (2.0)
|   |   |   |   |   |   |   |   |   |   |   |   |   |   |   |   |   |   |   Month > 2.499686
|   |   |   |   |   |   |   |   |   |   |   |   |   |   |   |   |   |   |   |   Day_of_Week <= 5.499801: Slight (9.0/2.0)
|   |   |   |   |   |   |   |   |   |   |   |   |   |   |   |   |   |   |   |   Day_of_Week > 5.499801
|   |   |   |   |   |   |   |   |   |   |   |   |   |   |   |   |   |   |   |   |   Day_of_Week <= 6.499406
|   |   |   |   |   |   |   |   |   |   |   |   |   |   |   |   |   |   |   |   |   |   Month <= 7.494763: Slight (2.0)
|   |   |   |   |   |   |   |   |   |   |   |   |   |   |   |   |   |   |   |   |   |   Month > 7.494763: Serious (5.0/1.0)
|   |   |   |   |   |   |   |   |   |   |   |   |   |   |   |   |   |   |   |   |   Day_of_Week > 6.499406
|   |   |   |   |   |   |   |   |   |   |   |   |   |   |   |   |   |   |   |   |   |   ?Accident_Index <= 42311108: Serious (2.0)
|   |   |   |   |   |   |   |   |   |   |   |   |   |   |   |   |   |   |   |   |   |   ?Accident_Index > 42311108: Slight (5.0)
|   |   |   |   |   |   |   |   |   |   |   |   |   |   |   |   Light_Conditions > 2.499744
|   |   |   |   |   |   |   |   |   |   |   |   |   |   |   |   |   Day_of_Week <= 6.499406
|   |   |   |   |   |   |   |   |   |   |   |   |   |   |   |   |   |   Weather_Conditions <= 3: Slight (16.0)
|   |   |   |   |   |   |   |   |   |   |   |   |   |   |   |   |   |   Weather_Conditions > 3
|   |   |   |   |   |   |   |   |   |   |   |   |   |   |   |   |   |   |   Date <= 22: Slight (4.0/1.0)
|   |   |   |   |   |   |   |   |   |   |   |   |   |   |   |   |   |   |   Date > 22: Serious (2.0)
|   |   |   |   |   |   |   |   |   |   |   |   |   |   |   |   |   Day_of_Week > 6.499406: Serious (3.0)
|   |   |   |   |   |   |   |   |   |   |   |   |   |   Light_Conditions > 5.013549
|   |   |   |   |   |   |   |   |   |   |   |   |   |   |   Month <= 7.494763
|   |   |   |   |   |   |   |   |   |   |   |   |   |   |   |   Weather_Conditions <= 1.499805
|   |   |   |   |   |   |   |   |   |   |   |   |   |   |   |   |   Month <= 1.393124: Slight (3.0)
|   |   |   |   |   |   |   |   |   |   |   |   |   |   |   |   |   Month > 1.393124: Fatal (4.0/1.0)
|   |   |   |   |   |   |   |   |   |   |   |   |   |   |   |   Weather_Conditions > 1.499805
|   |   |   |   |   |   |   |   |   |   |   |   |   |   |   |   |   Date <= 23.486346: Serious (2.0)
|   |   |   |   |   |   |   |   |   |   |   |   |   |   |   |   |   Date > 23.486346: Slight (3.0)
|   |   |   |   |   |   |   |   |   |   |   |   |   |   |   Month > 7.494763
|   |   |   |   |   |   |   |   |   |   |   |   |   |   |   |   LSOA_of_Accident_Location <= 1029112
|   |   |   |   |   |   |   |   |   |   |   |   |   |   |   |   |   Date <= 26: Serious (14.0/1.0)
|   |   |   |   |   |   |   |   |   |   |   |   |   |   |   |   |   Date > 26: Slight (4.0/1.0)
|   |   |   |   |   |   |   |   |   |   |   |   |   |   |   |   LSOA_of_Accident_Location > 1029112: Slight (3.0)
|   |   |   |   |   |   |   |   |   |   Weather_Conditions > 7.906445
|   |   |   |   |   |   |   |   |   |   |   Date <= 11: Slight (9.0)
|   |   |   |   |   |   |   |   |   |   |   Date > 11
|   |   |   |   |   |   |   |   |   |   |   |   Light_Conditions <= 6.494364
|   |   |   |   |   |   |   |   |   |   |   |   |   Weather_Conditions <= 8.495062
|   |   |   |   |   |   |   |   |   |   |   |   |   |   ?Accident_Index <= 447553385.9
|   |   |   |   |   |   |   |   |   |   |   |   |   |   |   Time <= 17.7
|   |   |   |   |   |   |   |   |   |   |   |   |   |   |   |   LSOA_of_Accident_Location <= 1022304: Slight (6.0/1.0)
|   |   |   |   |   |   |   |   |   |   |   |   |   |   |   |   LSOA_of_Accident_Location > 1022304: Serious (3.0/1.0)
|   |   |   |   |   |   |   |   |   |   |   |   |   |   |   Time > 17.7: Serious (4.0)
|   |   |   |   |   |   |   |   |   |   |   |   |   |   ?Accident_Index > 447553385.9: Slight (5.0)
|   |   |   |   |   |   |   |   |   |   |   |   |   Weather_Conditions > 8.495062: Slight (8.0/1.0)
|   |   |   |   |   |   |   |   |   |   |   |   Light_Conditions > 6.494364: Serious (2.0)
|   |   |   |   |   |   |   |   |   2nd_Road_Number > 4: Slight (51.0/13.0)
|   |   |   |   |   Number_of_Vehicles > 2.044998
|   |   |   |   |   |   Number_of_Vehicles <= 2.978407: Fatal (26.0)
|   |   |   |   |   |   Number_of_Vehicles > 2.978407
|   |   |   |   |   |   |   Road_Type <= 5.810085
|   |   |   |   |   |   |   |   Road_Type <= 3.392121
|   |   |   |   |   |   |   |   |   Number_of_Vehicles <= 3.494688
|   |   |   |   |   |   |   |   |   |   Day_of_Week <= 2.49923: Serious (7.0/2.0)
|   |   |   |   |   |   |   |   |   |   Day_of_Week > 2.49923: Slight (11.0)
|   |   |   |   |   |   |   |   |   Number_of_Vehicles > 3.494688: Serious (4.0)
|   |   |   |   |   |   |   |   Road_Type > 3.392121: Fatal (2.0)
|   |   |   |   |   |   |   Road_Type > 5.810085
|   |   |   |   |   |   |   |   Month <= 6.016328: Slight (116.0/40.0)
|   |   |   |   |   |   |   |   Month > 6.016328
|   |   |   |   |   |   |   |   |   Month <= 7.494763
|   |   |   |   |   |   |   |   |   |   Month <= 6.967108: Fatal (2.0)
|   |   |   |   |   |   |   |   |   |   Month > 6.967108
|   |   |   |   |   |   |   |   |   |   |   Number_of_Vehicles <= 4.497442
|   |   |   |   |   |   |   |   |   |   |   |   Number_of_Vehicles <= 3.494688
|   |   |   |   |   |   |   |   |   |   |   |   |   LSOA_of_Accident_Location <= 1011922.862: Serious (3.0/1.0)
|   |   |   |   |   |   |   |   |   |   |   |   |   LSOA_of_Accident_Location > 1011922.862
|   |   |   |   |   |   |   |   |   |   |   |   |   |   ?Accident_Index <= 447553385.9: Slight (13.0/3.0)
|   |   |   |   |   |   |   |   |   |   |   |   |   |   ?Accident_Index > 447553385.9: Serious (3.0)
|   |   |   |   |   |   |   |   |   |   |   |   Number_of_Vehicles > 3.494688: Serious (4.0/1.0)
|   |   |   |   |   |   |   |   |   |   |   Number_of_Vehicles > 4.497442: Slight (2.0)
|   |   |   |   |   |   |   |   |   Month > 7.494763
|   |   |   |   |   |   |   |   |   |   Day_of_Week <= 5.499801
|   |   |   |   |   |   |   |   |   |   |   Number_of_Vehicles <= 4.497442: Slight (45.0/5.0)
|   |   |   |   |   |   |   |   |   |   |   Number_of_Vehicles > 4.497442: Serious (3.0/1.0)
|   |   |   |   |   |   |   |   |   |   Day_of_Week > 5.499801
|   |   |   |   |   |   |   |   |   |   |   Month <= 11.451785
|   |   |   |   |   |   |   |   |   |   |   |   Time <= 21.263435
|   |   |   |   |   |   |   |   |   |   |   |   |   Light_Conditions <= 2.499744
|   |   |   |   |   |   |   |   |   |   |   |   |   |   Date <= 22.499924: Slight (9.0)
|   |   |   |   |   |   |   |   |   |   |   |   |   |   Date > 22.499924: Serious (3.0/1.0)
|   |   |   |   |   |   |   |   |   |   |   |   |   Light_Conditions > 2.499744: Serious (14.0/4.0)
|   |   |   |   |   |   |   |   |   |   |   |   Time > 21.263435: Slight (6.0)
|   |   |   |   |   |   |   |   |   |   |   Month > 11.451785: Serious (3.0/1.0)
|   |   |   |   Pedestrian_Crossing-Physical_Facilities > 0.073156
|   |   |   |   |   Pedestrian_Crossing-Physical_Facilities <= 3.905334
|   |   |   |   |   |   Pedestrian_Crossing-Physical_Facilities <= 1.007318
|   |   |   |   |   |   |   Pedestrian_Crossing-Physical_Facilities <= 0.970269: Fatal (11.0)
|   |   |   |   |   |   |   Pedestrian_Crossing-Physical_Facilities > 0.970269
|   |   |   |   |   |   |   |   Road_Type <= 1.457819: Serious (4.0/1.0)
|   |   |   |   |   |   |   |   Road_Type > 1.457819
|   |   |   |   |   |   |   |   |   Month <= 10.493122
|   |   |   |   |   |   |   |   |   |   Date <= 3: Serious (2.0)
|   |   |   |   |   |   |   |   |   |   Date > 3: Slight (31.0/4.0)
|   |   |   |   |   |   |   |   |   Month > 10.493122: Serious (2.0)
|   |   |   |   |   |   Pedestrian_Crossing-Physical_Facilities > 1.007318: Fatal (21.0)
|   |   |   |   |   Pedestrian_Crossing-Physical_Facilities > 3.905334
|   |   |   |   |   |   Road_Type <= 2.497012
|   |   |   |   |   |   |   Light_Conditions <= 2.499744
|   |   |   |   |   |   |   |   ?Accident_Index <= 36433547.38
|   |   |   |   |   |   |   |   |   Pedestrian_Crossing-Physical_Facilities <= 4.488868: Fatal (3.0/1.0)
|   |   |   |   |   |   |   |   |   Pedestrian_Crossing-Physical_Facilities > 4.488868: Serious (4.0)
|   |   |   |   |   |   |   |   ?Accident_Index > 36433547.38: Slight (2.0)
|   |   |   |   |   |   |   Light_Conditions > 2.499744: Slight (2.0)
|   |   |   |   |   |   Road_Type > 2.497012
|   |   |   |   |   |   |   Number_of_Vehicles <= 2.206316
|   |   |   |   |   |   |   |   Weather_Conditions <= 3
|   |   |   |   |   |   |   |   |   Pedestrian_Crossing-Physical_Facilities <= 4.488868
|   |   |   |   |   |   |   |   |   |   Day_of_Week <= 1.498375: Slight (4.0)
|   |   |   |   |   |   |   |   |   |   Day_of_Week > 1.498375
|   |   |   |   |   |   |   |   |   |   |   Day_of_Week <= 6.499406
|   |   |   |   |   |   |   |   |   |   |   |   Road_Type <= 4.499356: Slight (4.0/1.0)
|   |   |   |   |   |   |   |   |   |   |   |   Road_Type > 4.499356
|   |   |   |   |   |   |   |   |   |   |   |   |   Light_Conditions <= 2.499744
|   |   |   |   |   |   |   |   |   |   |   |   |   |   2nd_Road_Number <= 277.490457
|   |   |   |   |   |   |   |   |   |   |   |   |   |   |   Day_of_Week <= 3.498525: Serious (7.0)
|   |   |   |   |   |   |   |   |   |   |   |   |   |   |   Day_of_Week > 3.498525
|   |   |   |   |   |   |   |   |   |   |   |   |   |   |   |   Month <= 4: Slight (3.0)
|   |   |   |   |   |   |   |   |   |   |   |   |   |   |   |   Month > 4
|   |   |   |   |   |   |   |   |   |   |   |   |   |   |   |   |   Date <= 20.494044: Serious (8.0/1.0)
|   |   |   |   |   |   |   |   |   |   |   |   |   |   |   |   |   Date > 20.494044: Slight (5.0/1.0)
|   |   |   |   |   |   |   |   |   |   |   |   |   |   2nd_Road_Number > 277.490457: Slight (2.0)
|   |   |   |   |   |   |   |   |   |   |   |   |   Light_Conditions > 2.499744
|   |   |   |   |   |   |   |   |   |   |   |   |   |   Month <= 10.493122: Slight (2.0)
|   |   |   |   |   |   |   |   |   |   |   |   |   |   Month > 10.493122: Serious (5.0/1.0)
|   |   |   |   |   |   |   |   |   |   |   Day_of_Week > 6.499406: Slight (4.0)
|   |   |   |   |   |   |   |   |   Pedestrian_Crossing-Physical_Facilities > 4.488868
|   |   |   |   |   |   |   |   |   |   Light_Conditions <= 2.499744: Slight (44.0/10.0)
|   |   |   |   |   |   |   |   |   |   Light_Conditions > 2.499744
|   |   |   |   |   |   |   |   |   |   |   Road_Type <= 4.499356: Serious (2.0)
|   |   |   |   |   |   |   |   |   |   |   Road_Type > 4.499356
|   |   |   |   |   |   |   |   |   |   |   |   Date <= 15.496667
|   |   |   |   |   |   |   |   |   |   |   |   |   Time <= 12.70684: Slight (4.0)
|   |   |   |   |   |   |   |   |   |   |   |   |   Time > 12.70684: Serious (7.0/1.0)
|   |   |   |   |   |   |   |   |   |   |   |   Date > 15.496667: Slight (10.0/1.0)
|   |   |   |   |   |   |   |   Weather_Conditions > 3: Slight (5.0)
|   |   |   |   |   |   |   Number_of_Vehicles > 2.206316
|   |   |   |   |   |   |   |   Date <= 19.492385: Slight (7.0/1.0)
|   |   |   |   |   |   |   |   Date > 19.492385: Serious (4.0/1.0)
|   |   1st_Road_Number > 0
|   |   |   Light_Conditions <= 1
|   |   |   |   ?Accident_Index <= 915411286.4
|   |   |   |   |   ?Accident_Index <= 620585985.5
|   |   |   |   |   |   Road_Type <= 3
|   |   |   |   |   |   |   Number_of_Vehicles <= 1.998544
|   |   |   |   |   |   |   |   Number_of_Vehicles <= 1.00768
|   |   |   |   |   |   |   |   |   Time <= 19.741274
|   |   |   |   |   |   |   |   |   |   LSOA_of_Accident_Location <= 1012698
|   |   |   |   |   |   |   |   |   |   |   ?Accident_Index <= 70600888.08
|   |   |   |   |   |   |   |   |   |   |   |   Weather_Conditions <= 1.525438
|   |   |   |   |   |   |   |   |   |   |   |   |   Month <= 10.799511
|   |   |   |   |   |   |   |   |   |   |   |   |   |   ?Accident_Index <= 20063001
|   |   |   |   |   |   |   |   |   |   |   |   |   |   |   Carriageway_Hazards <= 1
|   |   |   |   |   |   |   |   |   |   |   |   |   |   |   |   1st_Road_Number <= 3.485003: Fatal (4.0/1.0)
|   |   |   |   |   |   |   |   |   |   |   |   |   |   |   |   1st_Road_Number > 3.485003
|   |   |   |   |   |   |   |   |   |   |   |   |   |   |   |   |   Special_Conditions_at_Site <= 2.417819
|   |   |   |   |   |   |   |   |   |   |   |   |   |   |   |   |   |   1st_Road_Number <= 5614.609901
|   |   |   |   |   |   |   |   |   |   |   |   |   |   |   |   |   |   |   ?Accident_Index <= 6335506: Serious (10.0/1.0)
|   |   |   |   |   |   |   |   |   |   |   |   |   |   |   |   |   |   |   ?Accident_Index > 6335506
|   |   |   |   |   |   |   |   |   |   |   |   |   |   |   |   |   |   |   |   Time <= 13.083333: Slight (8.0/1.0)
|   |   |   |   |   |   |   |   |   |   |   |   |   |   |   |   |   |   |   |   Time > 13.083333
|   |   |   |   |   |   |   |   |   |   |   |   |   |   |   |   |   |   |   |   |   ?Accident_Index <= 14073206: Slight (2.0)
|   |   |   |   |   |   |   |   |   |   |   |   |   |   |   |   |   |   |   |   |   ?Accident_Index > 14073206: Serious (7.0)
|   |   |   |   |   |   |   |   |   |   |   |   |   |   |   |   |   |   1st_Road_Number > 5614.609901: Slight (2.0/1.0)
|   |   |   |   |   |   |   |   |   |   |   |   |   |   |   |   |   Special_Conditions_at_Site > 2.417819: Slight (3.0/1.0)
|   |   |   |   |   |   |   |   |   |   |   |   |   |   |   Carriageway_Hazards > 1: Serious (2.0)
|   |   |   |   |   |   |   |   |   |   |   |   |   |   ?Accident_Index > 20063001
|   |   |   |   |   |   |   |   |   |   |   |   |   |   |   Date <= 19.547412
|   |   |   |   |   |   |   |   |   |   |   |   |   |   |   |   2nd_Road_Number <= 212.08866
|   |   |   |   |   |   |   |   |   |   |   |   |   |   |   |   |   1st_Road_Number <= 3170: Fatal (9.0/1.0)
|   |   |   |   |   |   |   |   |   |   |   |   |   |   |   |   |   1st_Road_Number > 3170: Serious (3.0)
|   |   |   |   |   |   |   |   |   |   |   |   |   |   |   |   2nd_Road_Number > 212.08866: Serious (3.0)
|   |   |   |   |   |   |   |   |   |   |   |   |   |   |   Date > 19.547412: Serious (8.0)
|   |   |   |   |   |   |   |   |   |   |   |   |   Month > 10.799511
|   |   |   |   |   |   |   |   |   |   |   |   |   |   2nd_Road_Number <= 224
|   |   |   |   |   |   |   |   |   |   |   |   |   |   |   ?Accident_Index <= 20098001: Slight (8.0/1.0)
|   |   |   |   |   |   |   |   |   |   |   |   |   |   |   ?Accident_Index > 20098001: Serious (4.0/1.0)
|   |   |   |   |   |   |   |   |   |   |   |   |   |   2nd_Road_Number > 224: Serious (2.0)
|   |   |   |   |   |   |   |   |   |   |   |   Weather_Conditions > 1.525438: Serious (7.0/1.0)
|   |   |   |   |   |   |   |   |   |   |   ?Accident_Index > 70600888.08
|   |   |   |   |   |   |   |   |   |   |   |   ?Accident_Index <= 610038906: Serious (35.0)
|   |   |   |   |   |   |   |   |   |   |   |   ?Accident_Index > 610038906
|   |   |   |   |   |   |   |   |   |   |   |   |   Month <= 7: Slight (4.0)
|   |   |   |   |   |   |   |   |   |   |   |   |   Month > 7
|   |   |   |   |   |   |   |   |   |   |   |   |   |   1st_Road_Number <= 4063.019036
|   |   |   |   |   |   |   |   |   |   |   |   |   |   |   Month <= 10
|   |   |   |   |   |   |   |   |   |   |   |   |   |   |   |   Date <= 11: Serious (2.0)
|   |   |   |   |   |   |   |   |   |   |   |   |   |   |   |   Date > 11: Slight (2.0)
|   |   |   |   |   |   |   |   |   |   |   |   |   |   |   Month > 10: Slight (2.0)
|   |   |   |   |   |   |   |   |   |   |   |   |   |   1st_Road_Number > 4063.019036: Serious (3.0)
|   |   |   |   |   |   |   |   |   |   LSOA_of_Accident_Location > 1012698
|   |   |   |   |   |   |   |   |   |   |   Weather_Conditions <= 1.769058
|   |   |   |   |   |   |   |   |   |   |   |   Pedestrian_Crossing-Physical_Facilities <= 0.199442
|   |   |   |   |   |   |   |   |   |   |   |   |   Time <= 18.438398
|   |   |   |   |   |   |   |   |   |   |   |   |   |   Day_of_Week <= 5.981866
|   |   |   |   |   |   |   |   |   |   |   |   |   |   |   Day_of_Week <= 4.050113
|   |   |   |   |   |   |   |   |   |   |   |   |   |   |   |   2nd_Road_Number <= 1066
|   |   |   |   |   |   |   |   |   |   |   |   |   |   |   |   |   Road_Type <= 2.113599
|   |   |   |   |   |   |   |   |   |   |   |   |   |   |   |   |   |   Road_Type <= 1.457819
|   |   |   |   |   |   |   |   |   |   |   |   |   |   |   |   |   |   |   Time <= 10.5: Serious (6.0)
|   |   |   |   |   |   |   |   |   |   |   |   |   |   |   |   |   |   |   Time > 10.5: Slight (20.0/7.0)
|   |   |   |   |   |   |   |   |   |   |   |   |   |   |   |   |   |   Road_Type > 1.457819: Serious (13.0/3.0)
|   |   |   |   |   |   |   |   |   |   |   |   |   |   |   |   |   Road_Type > 2.113599
|   |   |   |   |   |   |   |   |   |   |   |   |   |   |   |   |   |   2nd_Road_Number <= 14.779355
|   |   |   |   |   |   |   |   |   |   |   |   |   |   |   |   |   |   |   LSOA_of_Accident_Location <= 1028270: Serious (93.0/45.0)
|   |   |   |   |   |   |   |   |   |   |   |   |   |   |   |   |   |   |   LSOA_of_Accident_Location > 1028270: Slight (33.0/6.0)
|   |   |   |   |   |   |   |   |   |   |   |   |   |   |   |   |   |   2nd_Road_Number > 14.779355
|   |   |   |   |   |   |   |   |   |   |   |   |   |   |   |   |   |   |   1st_Road_Number <= 20: Serious (2.0/1.0)
|   |   |   |   |   |   |   |   |   |   |   |   |   |   |   |   |   |   |   1st_Road_Number > 20: Slight (8.0/1.0)
|   |   |   |   |   |   |   |   |   |   |   |   |   |   |   |   2nd_Road_Number > 1066: Slight (13.0/1.0)
|   |   |   |   |   |   |   |   |   |   |   |   |   |   |   Day_of_Week > 4.050113
|   |   |   |   |   |   |   |   |   |   |   |   |   |   |   |   Day_of_Week <= 4.933467: Fatal (4.0)
|   |   |   |   |   |   |   |   |   |   |   |   |   |   |   |   Day_of_Week > 4.933467
|   |   |   |   |   |   |   |   |   |   |   |   |   |   |   |   |   Day_of_Week <= 5.011285
|   |   |   |   |   |   |   |   |   |   |   |   |   |   |   |   |   |   Special_Conditions_at_Site <= 2
|   |   |   |   |   |   |   |   |   |   |   |   |   |   |   |   |   |   |   ?Accident_Index <= 41005170
|   |   |   |   |   |   |   |   |   |   |   |   |   |   |   |   |   |   |   |   LSOA_of_Accident_Location <= 1027662.303: Slight (12.0/1.0)
|   |   |   |   |   |   |   |   |   |   |   |   |   |   |   |   |   |   |   |   LSOA_of_Accident_Location > 1027662.303: Serious (2.0)
|   |   |   |   |   |   |   |   |   |   |   |   |   |   |   |   |   |   |   ?Accident_Index > 41005170: Serious (23.0/6.0)
|   |   |   |   |   |   |   |   |   |   |   |   |   |   |   |   |   |   Special_Conditions_at_Site > 2: Slight (4.0/1.0)
|   |   |   |   |   |   |   |   |   |   |   |   |   |   |   |   |   Day_of_Week > 5.011285: Fatal (4.0)
|   |   |   |   |   |   |   |   |   |   |   |   |   |   Day_of_Week > 5.981866
|   |   |   |   |   |   |   |   |   |   |   |   |   |   |   Day_of_Week <= 6.499406
|   |   |   |   |   |   |   |   |   |   |   |   |   |   |   |   Road_Type <= 1.457819
|   |   |   |   |   |   |   |   |   |   |   |   |   |   |   |   |   Month <= 7.494763: Slight (4.0)
|   |   |   |   |   |   |   |   |   |   |   |   |   |   |   |   |   Month > 7.494763: Serious (3.0/1.0)
|   |   |   |   |   |   |   |   |   |   |   |   |   |   |   |   Road_Type > 1.457819
|   |   |   |   |   |   |   |   |   |   |   |   |   |   |   |   |   Road_Type <= 2.497012: Serious (2.0)
|   |   |   |   |   |   |   |   |   |   |   |   |   |   |   |   |   Road_Type > 2.497012
|   |   |   |   |   |   |   |   |   |   |   |   |   |   |   |   |   |   1st_Road_Number <= 44
|   |   |   |   |   |   |   |   |   |   |   |   |   |   |   |   |   |   |   Month <= 7.494763: Slight (11.0/1.0)
|   |   |   |   |   |   |   |   |   |   |   |   |   |   |   |   |   |   |   Month > 7.494763
|   |   |   |   |   |   |   |   |   |   |   |   |   |   |   |   |   |   |   |   Month <= 9.499011
|   |   |   |   |   |   |   |   |   |   |   |   |   |   |   |   |   |   |   |   |   Time <= 7.85681: Serious (2.0)
|   |   |   |   |   |   |   |   |   |   |   |   |   |   |   |   |   |   |   |   |   Time > 7.85681: Slight (4.0/1.0)
|   |   |   |   |   |   |   |   |   |   |   |   |   |   |   |   |   |   |   |   Month > 9.499011: Serious (2.0)
|   |   |   |   |   |   |   |   |   |   |   |   |   |   |   |   |   |   1st_Road_Number > 44
|   |   |   |   |   |   |   |   |   |   |   |   |   |   |   |   |   |   |   Date <= 7.497888: Slight (3.0/1.0)
|   |   |   |   |   |   |   |   |   |   |   |   |   |   |   |   |   |   |   Date > 7.497888: Serious (9.0)
|   |   |   |   |   |   |   |   |   |   |   |   |   |   |   Day_of_Week > 6.499406
|   |   |   |   |   |   |   |   |   |   |   |   |   |   |   |   Month <= 3.49923
|   |   |   |   |   |   |   |   |   |   |   |   |   |   |   |   |   1st_Road_Number <= 4681.424846: Slight (11.0/1.0)
|   |   |   |   |   |   |   |   |   |   |   |   |   |   |   |   |   1st_Road_Number > 4681.424846: Serious (2.0)
|   |   |   |   |   |   |   |   |   |   |   |   |   |   |   |   Month > 3.49923: Serious (33.0/14.0)
|   |   |   |   |   |   |   |   |   |   |   |   |   Time > 18.438398
|   |   |   |   |   |   |   |   |   |   |   |   |   |   LSOA_of_Accident_Location <= 1024170.193
|   |   |   |   |   |   |   |   |   |   |   |   |   |   |   LSOA_of_Accident_Location <= 1017914: Slight (3.0/1.0)
|   |   |   |   |   |   |   |   |   |   |   |   |   |   |   LSOA_of_Accident_Location > 1017914
|   |   |   |   |   |   |   |   |   |   |   |   |   |   |   |   Date <= 25.037995: Fatal (5.0/1.0)
|   |   |   |   |   |   |   |   |   |   |   |   |   |   |   |   Date > 25.037995: Serious (3.0/1.0)
|   |   |   |   |   |   |   |   |   |   |   |   |   |   LSOA_of_Accident_Location > 1024170.193: Serious (5.0)
|   |   |   |   |   |   |   |   |   |   |   |   Pedestrian_Crossing-Physical_Facilities > 0.199442
|   |   |   |   |   |   |   |   |   |   |   |   |   Pedestrian_Crossing-Physical_Facilities <= 2.909935
|   |   |   |   |   |   |   |   |   |   |   |   |   |   ?Accident_Index <= 129300680.1: Slight (2.0/1.0)
|   |   |   |   |   |   |   |   |   |   |   |   |   |   ?Accident_Index > 129300680.1: Fatal (6.0/1.0)
|   |   |   |   |   |   |   |   |   |   |   |   |   Pedestrian_Crossing-Physical_Facilities > 2.909935
|   |   |   |   |   |   |   |   |   |   |   |   |   |   2nd_Road_Number <= 1.109231
|   |   |   |   |   |   |   |   |   |   |   |   |   |   |   Pedestrian_Crossing-Physical_Facilities <= 5.984393
|   |   |   |   |   |   |   |   |   |   |   |   |   |   |   |   Day_of_Week <= 2.49923: Serious (4.0)
|   |   |   |   |   |   |   |   |   |   |   |   |   |   |   |   Day_of_Week > 2.49923
|   |   |   |   |   |   |   |   |   |   |   |   |   |   |   |   |   LSOA_of_Accident_Location <= 1017420.437: Slight (7.0)
|   |   |   |   |   |   |   |   |   |   |   |   |   |   |   |   |   LSOA_of_Accident_Location > 1017420.437
|   |   |   |   |   |   |   |   |   |   |   |   |   |   |   |   |   |   Day_of_Week <= 6.499406: Serious (15.0/4.0)
|   |   |   |   |   |   |   |   |   |   |   |   |   |   |   |   |   |   Day_of_Week > 6.499406: Slight (3.0)
|   |   |   |   |   |   |   |   |   |   |   |   |   |   |   Pedestrian_Crossing-Physical_Facilities > 5.984393: Serious (7.0)
|   |   |   |   |   |   |   |   |   |   |   |   |   |   2nd_Road_Number > 1.109231
|   |   |   |   |   |   |   |   |   |   |   |   |   |   |   Month <= 10.747929
|   |   |   |   |   |   |   |   |   |   |   |   |   |   |   |   2nd_Road_Number <= 294
|   |   |   |   |   |   |   |   |   |   |   |   |   |   |   |   |   Time <= 11.272554: Fatal (3.0)
|   |   |   |   |   |   |   |   |   |   |   |   |   |   |   |   |   Time > 11.272554: Serious (3.0/1.0)
|   |   |   |   |   |   |   |   |   |   |   |   |   |   |   |   2nd_Road_Number > 294
|   |   |   |   |   |   |   |   |   |   |   |   |   |   |   |   |   LSOA_of_Accident_Location <= 1027931
|   |   |   |   |   |   |   |   |   |   |   |   |   |   |   |   |   |   ?Accident_Index <= 41001822.11: Slight (3.0/1.0)
|   |   |   |   |   |   |   |   |   |   |   |   |   |   |   |   |   |   ?Accident_Index > 41001822.11: Serious (9.0)
|   |   |   |   |   |   |   |   |   |   |   |   |   |   |   |   |   LSOA_of_Accident_Location > 1027931: Slight (3.0)
|   |   |   |   |   |   |   |   |   |   |   |   |   |   |   Month > 10.747929: Fatal (2.0)
|   |   |   |   |   |   |   |   |   |   |   Weather_Conditions > 1.769058
|   |   |   |   |   |   |   |   |   |   |   |   Carriageway_Hazards <= 1
|   |   |   |   |   |   |   |   |   |   |   |   |   Pedestrian_Crossing-Physical_Facilities <= 4.488868
|   |   |   |   |   |   |   |   |   |   |   |   |   |   1st_Road_Number <= 50
|   |   |   |   |   |   |   |   |   |   |   |   |   |   |   Day_of_Week <= 5.499801
|   |   |   |   |   |   |   |   |   |   |   |   |   |   |   |   1st_Road_Number <= 4.46397
|   |   |   |   |   |   |   |   |   |   |   |   |   |   |   |   |   Weather_Conditions <= 4.491389: Slight (4.0/1.0)
|   |   |   |   |   |   |   |   |   |   |   |   |   |   |   |   |   Weather_Conditions > 4.491389: Serious (2.0)
|   |   |   |   |   |   |   |   |   |   |   |   |   |   |   |   1st_Road_Number > 4.46397: Slight (22.0/1.0)
|   |   |   |   |   |   |   |   |   |   |   |   |   |   |   Day_of_Week > 5.499801
|   |   |   |   |   |   |   |   |   |   |   |   |   |   |   |   Date <= 15.496667: Slight (3.0/1.0)
|   |   |   |   |   |   |   |   |   |   |   |   |   |   |   |   Date > 15.496667: Serious (3.0)
|   |   |   |   |   |   |   |   |   |   |   |   |   |   1st_Road_Number > 50
|   |   |   |   |   |   |   |   |   |   |   |   |   |   |   Pedestrian_Crossing-Physical_Facilities <= 1.997377: Serious (33.0/13.0)
|   |   |   |   |   |   |   |   |   |   |   |   |   |   |   Pedestrian_Crossing-Physical_Facilities > 1.997377
|   |   |   |   |   |   |   |   |   |   |   |   |   |   |   |   Road_Type <= 2: Slight (3.0)
|   |   |   |   |   |   |   |   |   |   |   |   |   |   |   |   Road_Type > 2: Serious (2.0)
|   |   |   |   |   |   |   |   |   |   |   |   |   Pedestrian_Crossing-Physical_Facilities > 4.488868: Slight (6.0/1.0)
|   |   |   |   |   |   |   |   |   |   |   |   Carriageway_Hazards > 1: Slight (4.0)
|   |   |   |   |   |   |   |   |   Time > 19.741274: Serious (30.0/4.0)
|   |   |   |   |   |   |   |   Number_of_Vehicles > 1.00768: Fatal (72.0)
|   |   |   |   |   |   |   Number_of_Vehicles > 1.998544
|   |   |   |   |   |   |   |   Carriageway_Hazards <= 0.112975
|   |   |   |   |   |   |   |   |   Pedestrian_Crossing-Physical_Facilities <= 0.052149
|   |   |   |   |   |   |   |   |   |   Number_of_Vehicles <= 2.031394
|   |   |   |   |   |   |   |   |   |   |   2nd_Road_Number <= 1697.089914
|   |   |   |   |   |   |   |   |   |   |   |   Road_Type <= 1.118464: Slight (244.0/77.0)
|   |   |   |   |   |   |   |   |   |   |   |   Road_Type > 1.118464
|   |   |   |   |   |   |   |   |   |   |   |   |   Road_Type <= 2.62003
|   |   |   |   |   |   |   |   |   |   |   |   |   |   Road_Type <= 1.664813: Fatal (2.0)
|   |   |   |   |   |   |   |   |   |   |   |   |   |   Road_Type > 1.664813
|   |   |   |   |   |   |   |   |   |   |   |   |   |   |   Time <= 8.516231: Serious (2.0/1.0)
|   |   |   |   |   |   |   |   |   |   |   |   |   |   |   Time > 8.516231: Slight (25.0/5.0)
|   |   |   |   |   |   |   |   |   |   |   |   |   Road_Type > 2.62003
|   |   |   |   |   |   |   |   |   |   |   |   |   |   Special_Conditions_at_Site <= 2
|   |   |   |   |   |   |   |   |   |   |   |   |   |   |   LSOA_of_Accident_Location <= 1014216.218
|   |   |   |   |   |   |   |   |   |   |   |   |   |   |   |   LSOA_of_Accident_Location <= 1001133.946
|   |   |   |   |   |   |   |   |   |   |   |   |   |   |   |   |   LSOA_of_Accident_Location <= 1000998
|   |   |   |   |   |   |   |   |   |   |   |   |   |   |   |   |   |   1st_Road_Number <= 4089.275394
|   |   |   |   |   |   |   |   |   |   |   |   |   |   |   |   |   |   |   Month <= 11.499504: Slight (16.0/1.0)
|   |   |   |   |   |   |   |   |   |   |   |   |   |   |   |   |   |   |   Month > 11.499504: Serious (2.0)
|   |   |   |   |   |   |   |   |   |   |   |   |   |   |   |   |   |   1st_Road_Number > 4089.275394: Serious (2.0)
|   |   |   |   |   |   |   |   |   |   |   |   |   |   |   |   |   LSOA_of_Accident_Location > 1000998
|   |   |   |   |   |   |   |   |   |   |   |   |   |   |   |   |   |   1st_Road_Number <= 209.297944: Slight (2.0)
|   |   |   |   |   |   |   |   |   |   |   |   |   |   |   |   |   |   1st_Road_Number > 209.297944
|   |   |   |   |   |   |   |   |   |   |   |   |   |   |   |   |   |   |   1st_Road_Number <= 457.125695: Fatal (2.0)
|   |   |   |   |   |   |   |   |   |   |   |   |   |   |   |   |   |   |   1st_Road_Number > 457.125695: Slight (4.0/1.0)
|   |   |   |   |   |   |   |   |   |   |   |   |   |   |   |   LSOA_of_Accident_Location > 1001133.946
|   |   |   |   |   |   |   |   |   |   |   |   |   |   |   |   |   ?Accident_Index <= 24916789.67
|   |   |   |   |   |   |   |   |   |   |   |   |   |   |   |   |   |   LSOA_of_Accident_Location <= 1006546: Serious (7.0/1.0)
|   |   |   |   |   |   |   |   |   |   |   |   |   |   |   |   |   |   LSOA_of_Accident_Location > 1006546
|   |   |   |   |   |   |   |   |   |   |   |   |   |   |   |   |   |   |   Date <= 25.492144: Slight (54.0/18.0)
|   |   |   |   |   |   |   |   |   |   |   |   |   |   |   |   |   |   |   Date > 25.492144: Serious (7.0/1.0)
|   |   |   |   |   |   |   |   |   |   |   |   |   |   |   |   |   ?Accident_Index > 24916789.67
|   |   |   |   |   |   |   |   |   |   |   |   |   |   |   |   |   |   LSOA_of_Accident_Location <= 1001867
|   |   |   |   |   |   |   |   |   |   |   |   |   |   |   |   |   |   |   2nd_Road_Number <= 2
|   |   |   |   |   |   |   |   |   |   |   |   |   |   |   |   |   |   |   |   Date <= 18.494474: Serious (5.0)
|   |   |   |   |   |   |   |   |   |   |   |   |   |   |   |   |   |   |   |   Date > 18.494474
|   |   |   |   |   |   |   |   |   |   |   |   |   |   |   |   |   |   |   |   |   Day_of_Week <= 5.499801: Slight (2.0)
|   |   |   |   |   |   |   |   |   |   |   |   |   |   |   |   |   |   |   |   |   Day_of_Week > 5.499801
|   |   |   |   |   |   |   |   |   |   |   |   |   |   |   |   |   |   |   |   |   |   ?Accident_Index <= 620159024: Slight (3.0)
|   |   |   |   |   |   |   |   |   |   |   |   |   |   |   |   |   |   |   |   |   |   ?Accident_Index > 620159024: Serious (2.0)
|   |   |   |   |   |   |   |   |   |   |   |   |   |   |   |   |   |   |   2nd_Road_Number > 2: Slight (3.0)
|   |   |   |   |   |   |   |   |   |   |   |   |   |   |   |   |   |   LSOA_of_Accident_Location > 1001867: Serious (24.0/1.0)
|   |   |   |   |   |   |   |   |   |   |   |   |   |   |   LSOA_of_Accident_Location > 1014216.218
|   |   |   |   |   |   |   |   |   |   |   |   |   |   |   |   Day_of_Week <= 4.094472
|   |   |   |   |   |   |   |   |   |   |   |   |   |   |   |   |   Date <= 16.497878
|   |   |   |   |   |   |   |   |   |   |   |   |   |   |   |   |   |   Day_of_Week <= 1.498375
|   |   |   |   |   |   |   |   |   |   |   |   |   |   |   |   |   |   |   Date <= 9.4987
|   |   |   |   |   |   |   |   |   |   |   |   |   |   |   |   |   |   |   |   1st_Road_Number <= 149.442049
|   |   |   |   |   |   |   |   |   |   |   |   |   |   |   |   |   |   |   |   |   ?Accident_Index <= 470605939.1: Serious (7.0/1.0)
|   |   |   |   |   |   |   |   |   |   |   |   |   |   |   |   |   |   |   |   |   ?Accident_Index > 470605939.1: Slight (2.0)
|   |   |   |   |   |   |   |   |   |   |   |   |   |   |   |   |   |   |   |   1st_Road_Number > 149.442049: Slight (4.0/1.0)
